tree
version=v4
num_class=1
num_tree_per_iteration=1
label_index=0
max_feature_idx=32
objective=binary sigmoid:1
feature_names=z_line min_cv is_combo bp_score_gated bp_has is_assists is_threes games_norm thin_flag line_norm is_home_feat min_sensitivity game_total_norm is_b2b l20_edge l10_has margin stat_cat tier_cat l40_hr logit_p_x_demon player_te player_stat_te player_dir_te player_n_norm line_dist tail_risk line_tightness margin_x_under q_blowout rate_cv abs_logit_p q_x_under
feature_infos=[-5:3.1944405154531816] [0.020874206951156524:0.92959663919682445] [0:1] [-0.99999999999993006:0] [0:1] [0:1] [0:1] [0.059999999999999998:1] [0:1] [0.012500000000000001:1.3625] [0:1] [0.45000000000000001:1] [-0.11086956521739133:0.076086956521739024] [0:1] [-0.5:0.5] [0:1] [-0.5:0.5] -1:5:0:4:6:1:7:2:3 none [-1:1] none [-0.22070715718201744:0.24908933621121598] [-0.26417046544258205:0.42449747364010015] [-0.15912045562278948:0.29885904087019599] [0.035000000000000003:1] [-0.5:0.5] [-1.9215276950551248:3] [0:1] [-0.5:0.5] [0.033711838292751498:0.65379884827164336] [0:2] [0:2.2723299541984643] [0.033711838292751498:0.65379884827164336]
tree_sizes=4958 5590 5607 5601 5617 5616 5623 5626 5627 5511 5612 5642 5614 5588 5613 5608 5616 5603 5622 5608 5595 5600 5630 5182 5625 5617 5632 5625 5638 5609 5609 5591 5600 5609 5651 5623 5635 5625 5633 5617 5615 5611 5599 5644 5682 5661 5604 5634 5663 5616 5627 5635 5629 5630 5639 5646 5623 5630 5584 5630 5647 5658 5605 3894 5621 5640 5669 5642 4869 5652 5629 5653 5627 5530 3988 5635 5646 4698 5648 5626 5617 5657 5608 5596 5629 5635 5603 5296 5627 5607 5614 5663 5307 5655 5643 5644 5639 5654 5614 5670 5406 5655 5651 5644 5644 5681 5643 5617 5631 5625 5654 5619 5637 5192 5660 5616 5610 5625 5003 5653 5637 5634 5639 5685 5473 5650 5625 5639 5630 5657 5657 5648 4557 5695 5621 5658 5650 5641 5649 5649 5653 5640 5639 5686 5646 5659 5658 5661 5627 5626 5665 5643 5636 5668 5678 4541 5675 5526 5639 5681 5670 5686 5662 5655 5662 5628 5662 5658 5658 5676 5638 4350 5542 5663 5238 5692 5202 5642 5662 5648 5676 5135 5639 5668 5690 5653 4689 5665 5654 5656 5651 5662 5680 5640 5644 5626 5664 5646 5660 5653

Tree=0
num_leaves=44
num_cat=1
split_feature=21 1 25 12 22 19 22 25 29 1 16 9 17 12 1 22 29 26 26 21 22 12 9 29 1 0 1 1 1 22 0 10 22 0 21 12 26 29 0 29 29 25 19
split_gain=45.479 7.89045 7.81582 7.51841 5.75516 4.75416 4.31768 3.13329 4.24057 4.02021 3.2152 2.90111 2.75059 3.24059 2.24935 2.027 2.02203 1.96637 1.90498 1.30362 1.16733 1.10386 1.00872 1.00046 0.9536 0.861048 1.29767 0.763767 0.699891 0.60495 0.601558 0.528145 0.416309 0.410416 0.312341 0.285462 0.244925 0.23647 0.157922 0.106375 0.0773435 0.0184367 0.0143174
threshold=0.011808277560697413 0.1458865332749173 0.18309523809523806 -0.043478260869565181 -0.0094474528925847494 0.72111111111111115 -0.016038858643671518 0.49880952380952387 0.23230058653558591 0.13253055569584718 -0.031475748194014441 0.50625000000000009 0 -0.013043478260869599 0.21798261689926393 0.028725682691399027 0.20136977012534893 -0.056202058627522887 -0.062624410722425347 0.0054163803501523231 0.024821744489687412 -0.017391304347826094 0.23125000000000004 0.14642078235881359 0.20745201025285473 0.37843738729951276 0.22611535496827295 0.15026961231003563 0.22266174724969082 -0.045355395226789184 -0.29086530185994502 1.0000000180025095e-35 0.073393877704525504 -0.5082994771135666 -0.017062437943004518 0.013043478260869603 -0.010849414423667979 0.38378199264783697 0.055547292360404753 0.12566787373922028 0.18698913556004687 -0.13610507604187233 0.4491379310344828
decision_type=2 2 2 2 2 2 2 2 2 2 2 2 1 2 2 2 2 2 2 2 2 2 2 2 2 2 2 2 2 2 2 2 2 2 2 2 2 2 2 2 2 2 2
left_child=4 2 3 -2 5 7 24 8 19 -10 -11 21 22 17 -7 -13 23 -14 -18 35 28 -8 -6 31 -3 26 -17 36 30 -16 41 39 38 -30 40 -1 -22 -32 -33 -5 -29 -15 -36
right_child=1 6 -4 16 12 14 11 -9 9 10 -12 15 13 20 29 25 18 -19 -20 -21 27 -23 -24 -25 -26 -27 -28 34 33 -31 37 32 -34 -35 42 -37 -38 -39 -40 -41 -42 -43 -44
leaf_value=0.02599713034567833 0.021337264053736503 0.0096248847806476943 -0.017181441087951079 -0.004514142609784012 -0.0098163483407941784 -0.0072897638485554805 -0.021561070821407211 -0.0002089061545081307 -0.0056151981509540462 -0.0001914581113740578 0.020779619952645784 0.0091258168088518693 0.0060685535837435578 0.00022137640986112693 0.014409950275302308 -0.013010611797608401 -0.0037761736164986337 0.021945394824277747 0.013801059392897223 0.003153012839656244 0.0082615787170938794 -0.0098939971540952642 0.0045413020038384821 -0.01221614526380364 -0.0027927712511466988 0.0035964887148578909 0.0045160314812344744 0.0048253620466023649 0.0060693478411474036 0.0013560869528154204 0.013130501450855488 0.0022052728858028355 -0.00081810601065090667 -0.0032912426372240472 0.0011017391925346805 0.0056328171069675807 0.00064088026453002931 0.0026494891680362192 0.010599933375602513 0.0029857505459519023 0.00054441549889401933 0.0027829836253906366 -0.0078744714738883427
leaf_weight=54.572277577128261 13.991790693253277 6.2018035156070237 10.028654817491768 4.2712485324009375 9.1385968074901012 7.4760394016629999 43.363259988836944 5.7422827687114468 7.6224960358813432 7.4926740815863075 15.366755246301176 4.5673570407670949 16.228747568558905 1.7716571608325469 3.2873178761219606 11.948167160036975 4.66963170300005 13.319530857261269 6.8665339790168201 2.8043821532046413 2.5577501433435827 38.80828718963312 4.1211169982561833 7.6619029249995938 4.5550957090454176 4.3318952115951097 3.2498605978325932 1.6149120235349994 2.0407057369593531 3.3692500769393519 10.194689540134279 2.0655085779144429 1.980478076264262 4.3143180417246176 2.3573362493771093 2.6309193549677721 2.8141237366944578 2.3515820014290503 2.3165608445415273 1.2188067266833966 1.6261263978085478 2.1941114264191155 6.7919453940121457
leaf_count=3474 96 270 200 584 401 226 430 63 215 271 458 260 204 92 205 571 232 249 305 133 159 3007 198 281 242 246 208 207 228 167 786 192 192 394 203 272 213 101 231 99 100 228 541
internal_value=0.00237268 -0.00864805 0.000971074 0.0068552 0.0122011 0.0165428 -0.0128777 0.0188034 0.0201055 0.00916904 0.0147683 -0.0146242 0.00590369 0.00796505 0.000888393 -0.00344777 -0.00165875 0.0152937 0.00696134 0.0245528 0.00284384 -0.0172716 -0.00316152 -0.00659729 0.0043419 -0.00724632 -0.00976271 -0.00211713 0.00686319 0.0103764 0.0094917 0.000771621 0.0055814 -2.84363e-05 -0.00523343 0.0254436 0.00537669 0.0118388 0.00873962 -0.00348289 0.00278002 0.00093503 -0.00704512
internal_weight=365.898 172.097 55.0711 45.0425 193.802 110.364 117.026 96.2318 90.4895 30.4819 22.8594 106.269 83.4373 70.1775 14.1326 24.0973 31.0507 29.5483 11.5362 60.0076 40.6293 82.1715 13.2597 19.5145 10.7569 19.5299 15.198 17.7622 22.8671 6.65657 16.512 11.8526 6.36255 6.35502 12.3903 57.2032 5.37187 12.5463 4.38207 5.49006 3.24104 3.96577 9.14928
internal_count=17434 7646 2412 2212 9788 5484 5234 4886 4823 944 729 4722 4304 3705 598 1285 2116 453 537 3879 3252 3437 599 1579 512 1025 779 1423 1829 372 1207 1298 615 622 1051 3746 372 887 423 683 307 320 744
cat_boundaries=0 1
cat_threshold=138
is_linear=0
shrinkage=1


Tree=1
num_leaves=50
num_cat=0
split_feature=23 22 29 23 23 1 1 25 9 1 27 29 29 12 29 19 29 19 26 22 12 30 22 27 1 12 29 1 31 31 1 9 25 22 30 0 29 29 23 29 30 23 12 31 12 23 1 1 12
split_gain=39.7159 10.1369 8.93754 8.50612 4.18432 3.86526 3.55992 3.2475 2.91494 3.54566 2.91408 2.90844 2.60731 2.50599 2.38081 2.21532 1.93859 1.82796 1.70888 2.29134 1.61069 1.45203 1.30047 1.28691 2.57626 1.26134 1.1514 1.14254 1.10377 1.09896 0.960624 0.838592 0.824439 0.570676 0.55662 0.525459 0.509935 1.72021 0.509488 0.490951 0.482483 0.47081 0.42398 0.366487 0.336492 0.295609 0.373704 0.666874 0.180863
threshold=0.025731319513730675 0.052196548751052875 0.23230058653558591 -0.017075607428292641 0.067947404433511591 0.15026961231003563 0.13253055569584718 -0.16282392026578071 0.43125000000000008 0.19035926520976246 0.29705882352941182 0.10999927516057666 0.092035720010423969 -0.056521739130434782 0.30070254075421127 0.76393188854489169 0.37966210902696579 0.54415584415584417 0.18276961632467895 0.0078451107014398686 -0.039130434782608685 0.32915010777387094 0.084876962881559284 0.48684210526315791 0.21070286523326198 1.0000000180025095e-35 0.14577376927533758 0.18177549771850274 0.018998671822788731 0.15610063327294313 0.21298316427832595 0.093750000000000014 -0.099889135254988895 -0.014806731239966451 0.63499666146735667 0.27959852744383834 0.35887012646138444 0.23230058653558591 -0.010420696172087738 0.38635336906003115 0.49299801929452997 0.11926220526945265 -0.017391304347826094 0.28978218122896976 -0.043478260869565181 0.011561383458994741 0.19718061296903819 0.16396880935756064 -0.039130434782608685
decision_type=2 2 2 2 2 2 2 2 2 2 2 2 2 2 2 2 2 2 2 2 2 2 2 2 2 2 2 2 2 2 2 2 2 2 2 2 2 2 2 2 2 2 2 2 2 2 2 2 2
left_child=3 2 10 5 14 22 17 -8 9 44 15 23 -7 -5 -4 25 27 -6 19 34 -15 -21 -1 24 -12 28 48 -9 -2 -10 -29 -22 43 -14 -13 -11 37 38 -33 -16 -23 -18 -30 -20 -3 -40 47 -47 -17
right_child=1 8 4 13 6 12 7 16 29 35 11 18 33 20 39 26 41 -19 32 21 31 40 -24 -25 -26 -27 -28 30 42 -31 -32 36 -34 -35 -36 -37 -38 -39 45 -41 -42 -43 -44 -45 -46 46 -48 -49 -50
leaf_value=0.0047784118041936862 0.001923227547248029 -0.024208224716701175 -0.016804865637258363 0.0027142047492939776 -0.013787409188632154 -0.00081510825379951346 -0.0057479642543197427 0.022391296386054825 -0.003850046516193644 -0.0029615501256169173 -0.016907060047030797 0.019458243473497033 -0.0054638448168592224 -0.018415474072519093 0.0057565963258810315 -0.0083289068356821004 -0.0051453752508338144 0.0041693176216979072 -0.00060545101932222775 0.010077250160024956 0.0046507684022167144 -0.0086113307445036692 -0.0099041081878991268 0.0060835781364228124 0.0068794433718076774 0.0014033983961919455 0.0085454089141974113 -0.0013105432649639964 0.02693771522894613 0.010839002152381698 0.011261457932525466 0.002440982333793632 -0.0056974130062866484 -0.02825814578396077 0.0035307003060122489 0.007775143127452493 -0.011159676085512776 0.0071228301928036699 -0.010302106844277787 -0.0034799618456731289 0.0020707107721544913 0.0041376251503251272 0.013635860406537841 0.0089390051511666537 -0.0057746576773953576 -0.0035819627607129732 -0.0063693231665977301 0.0077644344645267311 0.00052626233748615978
leaf_weight=6.0604074508883041 3.7410342046641736 6.545115384738895 8.7945016622543353 22.312791691627353 5.9604480926645902 4.1996025505359276 6.8354108817875376 11.098140557238368 4.2581307215732505 3.1599653791054143 4.721220705425365 23.377371941111054 4.4059894792153491 6.9042347604408851 4.7292892963159812 1.834988594055176 3.2094522248953572 5.1277635811129585 4.7762752837734279 3.1568584610358794 2.9991429791552937 4.7009099723654799 4.3993956374470145 2.6849343302892521 2.4697785079479218 3.9133123192004851 3.3018532757414505 7.2115034186863323 29.34009408345446 3.8649332247441635 7.7701552580692805 2.3593751627486226 4.5162781811668529 34.459542690834496 5.4075973101425907 2.971572793147061 8.8028575042262656 5.8384671020321539 12.175174205098307 4.5352418986149132 2.9379399531171657 4.5658433455973864 28.70690751762595 3.2750128136831336 6.2593957609497037 5.4736258420161885 3.7609666536445729 2.0906888686004095 1.9118260633549642
leaf_count=388 203 43 182 151 181 226 224 268 288 229 306 1182 202 86 222 9 167 185 241 106 228 264 342 317 173 380 140 140 321 162 212 193 173 1456 217 105 406 278 998 220 137 217 3199 247 404 424 418 177 298
internal_value=0.000628976 0.00795149 0.0102286 -0.0125599 0.00133357 -0.0210643 0.0056189 0.00949146 -0.00799869 -0.0133085 0.0145846 0.00848009 -0.0246302 -0.00517162 -0.00929038 0.0187464 0.0129705 -0.0069351 0.011127 0.0138336 -0.00857986 0.0011095 -0.00275624 -0.00441936 -0.00932431 0.0203328 0.00140972 0.0162285 0.0213013 0.00477458 0.00656563 -0.00497584 0.000886993 -0.0267503 0.0175912 0.00351378 -0.0061968 -0.00326177 -0.00650621 0.00164446 -0.00539937 -0.000266316 0.022253 0.00543615 -0.0199148 -0.00771825 -0.00233469 0.00160137 -0.00626802
internal_weight=357.913 231.671 204.612 126.242 69.8378 53.5249 51.7787 40.6905 27.0591 18.936 134.774 62.0242 43.0651 72.7173 18.059 72.75 33.8551 11.0882 52.1482 39.5807 50.4045 10.7957 10.4598 9.87593 7.191 65.7013 7.04867 26.0798 61.788 8.12306 14.9817 43.5003 12.5676 38.8655 28.785 6.13154 40.5012 31.6983 25.8598 9.26453 7.63885 7.7753 58.047 8.05129 12.8045 23.5005 11.3253 7.56431 3.74681
internal_count=17335 11362 10131 5973 2218 2614 1594 1228 1231 781 7913 3363 1884 3359 624 4550 1004 366 2567 1906 3208 507 730 796 479 4103 447 620 3723 450 352 3122 661 1658 1399 334 2894 2488 2210 442 401 384 3520 488 447 2017 1019 601 307
is_linear=0
shrinkage=0.03


Tree=2
num_leaves=50
num_cat=0
split_feature=21 23 9 23 9 26 22 12 12 22 1 29 21 29 21 10 31 14 22 29 0 23 30 12 12 1 31 1 29 21 21 14 1 0 23 23 21 22 30 26 23 22 30 29 22 26 21 29 12
split_gain=44.6659 11.453 9.89619 6.72478 7.076 6.22113 5.32384 4.7152 4.23664 3.86993 3.60369 2.62602 2.86817 2.31376 2.55308 2.03222 2.01499 2.006 1.96374 1.92874 1.69145 1.79791 1.61512 1.45961 1.37234 1.36778 1.26758 1.24771 1.70889 1.23532 1.21007 1.18157 1.14562 0.977093 0.962068 1.06853 0.862867 0.760829 0.709966 0.519453 0.496368 0.471168 0.953911 0.414738 0.391007 0.352352 0.416933 0.253091 0.235269
threshold=0.011808277560697413 -0.017075607428292641 0.38125000000000003 0.10730540913631899 0.54375000000000007 0.17116377551250278 0.0025258607032189189 -0.069565217391304376 -1.0000000180025095e-35 -0.070733726590027565 0.15026961231003563 0.094592937710153355 -0.025860071295243505 0.26690966175044178 -0.0023571145131243694 1.0000000180025095e-35 0.28039490053523569 -0.15833333333333333 0.084876962881559284 0.092035720010423969 0.56824583200344769 0.022108346610158123 0.48291772458052407 -0.017391304347826094 -0.07826086956521737 0.130701560241158 0.14906050800939954 0.13470513751671156 0.21467915785497674 0.04052488471323127 0.0043181534873145697 -0.052777777777777778 0.2138380954204423 -0.15690626437973812 0.07990596682489827 0.019129116605685562 0.053374638838154249 -0.10559537864623471 0.54609664074029818 0.46307595787573325 0.13970219854467245 -0.00048231742769674896 0.34331232168359965 0.12667364227592129 0.032861597515562842 -0.076047953157922149 0.053374638838154249 0.23958438802524587 -0.039130434782608685
decision_type=2 2 2 2 2 2 2 2 2 2 2 2 2 2 2 2 2 2 2 2 2 2 2 2 2 2 2 2 2 2 2 2 2 2 2 2 2 2 2 2 2 2 2 2 2 2 2 2 2
left_child=3 10 6 4 9 11 26 -4 -7 37 18 -5 27 16 32 -6 22 -9 -2 -12 23 -22 25 -8 -24 -11 -3 28 -13 34 39 -31 -15 -28 35 47 -33 -1 -26 -18 -10 -27 -43 -17 -44 -25 -47 -19 -29
right_child=1 2 7 5 15 8 20 17 40 13 19 12 -14 14 -16 43 30 29 -20 -21 21 -23 24 45 38 41 33 48 -30 31 -32 36 -34 -35 -36 -37 -38 -39 -40 -41 -42 42 44 -45 -46 46 -48 -49 -50
leaf_value=0.00022816517366519454 0.0063966905692827937 -0.0042178613088583493 0.017952788749974764 -0.0019747530411417997 0.021120612289246679 -0.0071896594064016018 -0.023089165438229843 -0.013582622233914337 0.00071154518233674114 -0.0069340228178704898 -0.0019776662539344801 0.014117111461306512 -0.0002919570715155305 -0.019815801422109383 0.0039444518349256406 -0.0041380570234327094 0.015508447571806177 -0.0042683977914766465 -0.011329298978697454 -0.025989924725778581 0.0084919305193443071 -0.010176754179630336 -0.017343530477842675 -0.011288951501863717 0.0044047372355679962 0.0097853249235637634 -0.0022236561822101051 0.031762557015013564 -0.0041478669787425064 0.0060595284631535691 -0.0038934455818870083 -0.010297251728774231 -0.0014203546013285705 0.013561220271072854 -0.0034456826174157425 0.013460506811259409 0.0019038812858123569 0.017449164156840405 -0.0061004062397132562 -0.00012096524940027402 0.014364366122099993 0.007883805112135614 -0.0077266031434671638 0.0048846932916197542 0.0018715542482012116 -0.0050192265130654182 0.0035941252833458079 0.0031212666650055733 0.014957948071181981
leaf_weight=3.0963738830178045 5.5824589476687816 8.371865969093049 11.45379665493965 3.237767497485037 17.228234471112959 13.451889528427275 23.927833143621683 2.8542893669800824 3.5187593452283172 5.0582777465460849 4.32344947149977 4.6716202711104398 4.4858697775634928 8.9761647266568634 5.6966380137018851 2.0773558529326683 6.2665311606251617 2.9613297307514612 5.5350468645920046 41.335886242042761 3.4406175232725209 3.1861061645904556 3.4509305953979483 8.4607527248444949 5.6301910632173513 7.1639130501425816 3.1657882816507472 22.883843342307955 4.3941948172869161 4.4856494455598286 2.0370689072879022 9.2513891567359696 5.0664484594017258 4.1542267149197869 3.4718107631779267 9.4483313795644772 5.4715511637623413 5.4106856485013832 5.7547050905413926 2.1582900558714755 11.87643414956983 3.4123578529688547 4.1148074573138729 5.372661170840729 3.0734810831490904 7.7335002797190118 2.7925578526919708 2.1438226271420717 21.214681222802028
leaf_count=173 405 297 56 315 552 222 234 111 318 305 230 256 269 261 230 277 627 264 350 1578 161 224 17 500 302 464 217 156 155 199 123 614 177 162 148 590 439 251 358 116 991 222 238 314 214 602 239 96 1706
internal_value=0.000402746 -0.0104236 -0.00459631 0.010269 0.00454285 0.016028 -0.0119073 0.00493353 0.00354992 -0.000320909 -0.020824 0.021091 0.0224505 -0.00308171 -0.0103479 0.0167129 0.000715652 -0.000639193 -0.00330624 -0.02421 -0.0162924 -0.00105456 -0.00273084 -0.0182274 -0.00884981 0.002261 0.00261405 0.0242044 0.00713793 0.00210032 0.00959526 -0.00284303 -0.0155909 0.00880796 0.00676262 0.00949284 -0.0065245 0.0138679 -0.00117807 0.0131196 0.0123185 0.00596884 0.000785126 0.00164516 -0.00463833 -0.0080273 -0.00225886 -0.00115545 0.0264379
internal_weight=364.332 173.552 116.775 190.78 101.045 89.7351 65.2332 51.542 28.8471 76.3669 56.7768 60.888 57.6502 67.8598 19.7393 24.6783 48.1206 40.0882 11.1175 45.6593 49.5414 6.62672 37.6587 42.9146 14.8358 22.8228 15.6919 53.1643 9.06582 37.2339 10.4619 19.2086 14.0426 7.32001 18.0253 14.5535 14.7229 8.50706 11.3849 8.42482 15.3952 17.7646 10.6006 7.45002 7.18829 18.9868 10.5261 5.10515 44.0985
internal_count=17325 7716 5153 9609 5221 4388 2636 2517 1531 4078 2563 2857 2542 3654 668 1143 2986 2461 755 1808 1960 385 2120 1575 677 1443 676 2273 411 2350 866 1252 438 379 1098 950 1053 424 660 743 1309 1138 674 591 452 1341 841 360 1862
is_linear=0
shrinkage=0.03


Tree=3
num_leaves=50
num_cat=0
split_feature=21 23 23 9 31 25 22 16 25 1 10 29 29 1 23 10 1 29 29 29 29 30 22 1 14 21 21 26 22 23 1 30 22 21 16 9 0 9 29 29 0 19 21 23 0 27 29 1 26
split_gain=45.4749 13.126 9.20735 8.72428 6.61017 5.648 5.29874 4.88849 4.2075 4.66188 3.32369 3.18104 3.05642 2.99195 2.95145 3.8013 2.66411 2.513 2.26434 1.93507 4.95761 1.80635 1.64379 1.62551 1.90416 1.60003 1.30719 1.44282 1.28351 1.14075 1.13304 1.06626 0.986791 0.929937 1.4093 1.13092 0.918443 0.88026 0.768046 0.709153 0.611891 0.610253 0.554249 0.531234 0.515779 0.509055 0.441086 0.36195 0.345582
threshold=0.0094632282680998953 -0.017075607428292641 0.10730540913631899 0.38125000000000003 0.23120139736183587 -0.15390720390720389 -0.046152880193126238 -0.2323452484742807 -0.076854395604395567 0.25691028225998447 1.0000000180025095e-35 0.18698913556004687 0.092035720010423969 0.15026961231003563 -0.0081067961661473436 1.0000000180025095e-35 0.27420118465467841 0.13655926460888643 0.092035720010423969 0.12647274346710657 0.13693986457049173 0.32324081248216813 0.034501449569472105 0.1458865332749173 -0.041958041958041946 -0.00081060435848095958 -0.0081117065331798004 -0.60816129161021137 0.015435628719480289 0.062203790484417716 0.17929568020106762 0.50350433115822013 0.0049550972257678969 0.04052488471323127 -0.049151567443198152 0.46875000000000006 -0.06784166286088765 0.38125000000000003 0.22906549832048204 0.33847985323147201 -0.38488645226781859 0.32916666666666672 -0.058384179773111188 0.049051346776942319 -0.016718733684394547 0.24264705882352944 0.23958438802524587 0.13935238918462076 0.16717323262806913
decision_type=2 2 2 2 2 2 2 2 2 2 2 2 2 2 2 2 2 2 2 2 2 2 2 2 2 2 2 2 2 2 2 2 2 2 2 2 2 2 2 2 2 2 2 2 2 2 2 2 2
left_child=2 13 4 6 11 46 -3 -8 9 17 31 28 -10 22 -9 32 25 36 -15 21 -21 -5 -2 24 -22 30 27 -14 29 -1 38 -7 -16 35 -35 -25 42 -30 -13 -29 -19 -31 -4 -12 -39 -17 -6 -40 -23
right_child=1 3 8 19 5 10 7 14 12 -11 43 16 26 18 15 45 -18 40 -20 20 23 48 -24 33 -26 -27 -28 39 37 41 -32 -33 -34 34 -36 -37 -38 44 47 -41 -42 -43 -44 -45 -46 -47 -48 -49 -50
leaf_value=-0.0019934456525776941 0.0069017646365725173 0.0099025529522343541 0.015523262675626672 -0.012246826232063645 0.00087503273050203211 0.027323380129856596 0.003223575480367869 0.0035551320934440536 -0.0030696196102955927 0.018667037325020307 -0.0057031101544581528 -0.01048994321901537 0.0019977091355473245 -0.0019922470863438669 -0.0061166802821824105 0.0033259997050401682 0.0067507446255084102 -0.0011775212443466178 -0.027493950180473074 0.023176512853782513 -0.0019363476539227022 0.0077450084401690447 -0.010145976810929259 -0.0062690130427479375 0.014010557551435276 0.0020490816009629161 0.0021077607249504388 0.026543237101943059 -0.0087838480683764784 -3.9180677241540592e-06 -0.021162102543182851 0.0031470689199386212 -0.026255790635839129 0.0030644572000715826 -0.014464941991867146 0.0073041625268648637 -0.0034552267591755836 -0.0035348315668172134 -0.0032711453593856532 0.0066076999508478153 -0.013202374012952283 0.013466045781155494 -0.00088114580540807786 0.0045183840844361415 0.0072589867106542232 -0.0059324167090420779 -0.009528785689271799 0.0049090485170074907 -0.0020101449878439075
leaf_weight=6.3734805057174588 2.7369008366367771 5.050792795373126 2.6891775429248832 6.3405792129342426 4.4729976899689055 14.125055914686532 10.202425310970282 3.6522808233276001 3.0666478165076105 8.4509200946195033 1.9033813061541867 4.2101222610799685 3.746381554810795 4.4204926955862893 7.0335276038385919 3.8285392673569714 4.2707589297788209 7.3606275365455076 39.504266371659469 6.1060525929788119 10.88736166607123 3.3572392541682348 8.8065469331340847 4.1396556762629206 7.5695618292083955 4.4012518029194316 3.9453257205896071 43.164986165065784 5.1444913652958331 3.6995774555834933 8.9445639207260665 3.6522655414300962 29.025550635764375 3.6397668842691902 5.7712855245335968 6.4585978611721657 1.6745182740269262 2.1727205441566184 3.8603366653551348 6.6283586900681248 6.417364640219601 10.56586396374041 1.5781471854425038 4.8931615797919221 3.4361515506752767 7.89583022124134 3.5074671278707683 3.9786701942794025 1.9466697716270571
leaf_count=369 176 199 222 393 305 602 298 193 319 482 156 143 76 229 224 308 122 237 1557 188 208 352 578 138 264 238 151 2101 312 209 276 163 852 156 285 293 140 164 162 313 179 683 212 588 234 605 135 144 353
internal_value=-0.000177066 -0.0107653 0.0101941 -0.00483341 0.00328356 0.0130459 -0.0117365 -0.0142308 0.0168156 0.00561224 0.0191146 -0.00262301 0.021052 -0.0221542 -0.017668 -0.0195058 -0.00885956 -0.00303196 -0.0254754 0.00369775 0.00642046 -0.00536343 -0.00512595 0.000992236 0.00643651 -0.0122732 0.0225073 0.0236466 0.00374647 0.00744673 -0.0150639 0.024404 -0.0237605 -0.00435599 -0.00913178 0.00165282 0.00851541 -0.00347893 -0.00500702 0.0248854 -0.0090844 0.0110059 0.0124869 0.000323965 0.00341185 -0.00280665 -0.00582458 0.00120899 0.00499809
internal_weight=360.709 178.374 182.335 122.906 93.6123 32.5543 66.6889 61.6382 88.7225 28.1708 24.5739 61.058 60.5517 55.4682 51.4357 47.7834 29.6657 19.7198 43.9248 56.2168 44.5723 11.6445 11.5434 38.4662 18.4569 25.3949 57.4851 53.5397 31.3923 20.6389 20.9937 17.7773 36.0591 20.0093 9.41105 10.5983 5.94184 10.7534 12.0491 49.7933 13.778 14.2654 4.26732 6.79654 5.60887 11.7244 7.98046 7.83901 5.30391
internal_count=17286 7849 9437 5309 5005 1949 2679 2480 4432 1472 1509 3056 2960 2540 2182 1989 1085 990 1786 2630 1532 1098 754 1344 472 963 2641 2490 1971 1261 725 765 1076 872 441 431 574 710 449 2414 416 892 434 744 398 913 440 306 705
is_linear=0
shrinkage=0.03


Tree=4
num_leaves=50
num_cat=0
split_feature=23 23 22 29 12 12 21 12 21 25 31 25 12 26 22 12 7 19 29 12 25 12 12 12 19 25 19 29 21 26 30 19 23 22 30 29 22 31 26 30 23 0 0 29 25 26 0 26 26
split_gain=40.2655 11.8052 7.94 4.98028 2.86579 3.38789 2.63736 5.10161 3.09801 2.42573 2.47698 2.607 3.46292 2.17688 2.12542 1.85018 1.83839 1.356 1.81484 1.34 1.31428 1.52331 1.24188 1.09254 0.67729 0.633968 0.516692 0.479076 0.406153 0.351617 0.350028 0.33185 0.308641 0.292609 0.285442 0.269042 0.266221 0.241282 0.206503 0.46815 0.310317 0.287722 0.272632 0.174009 0.167299 0.13471 0.0506747 0.0401597 0.00719375
threshold=0.040907280461646663 -0.018454523437906791 0.052196548751052875 0.23230058653558591 -0.069565217391304376 -0.026086956521739087 -0.040273892298563811 -0.065217391304347824 -0.0029973957895257359 0.49880952380952387 0.11932947943970519 0.028187071144817645 -0.013043478260869599 -0.1797626424596428 0.011889797216514566 -0.017391304347826094 0.79000000000000015 0.77459677419354855 0.14187325096517892 1.0000000180025095e-35 -0.051974025974025985 -0.043478260869565181 -0.026086956521739087 -0.0086956521739130471 0.59317129629629639 -0.19943977591036408 0.47434210526315795 0.41975093707242089 0.064137279104436548 -0.51715538873693723 0.40470566799259794 0.65108695652173931 0.084561803545676342 0.037254579545475543 0.4981661450010591 0.13330118176345809 -0.047964570969872992 0.024998802314787526 0.24488543206521421 0.56110075339988719 -0.0085032902041850805 -0.65259723603373965 0.5572751246335369 0.19963780056923178 -0.075455147302217765 -0.26809498639598794 0.6670538580403087 0.054352686990699596 0.44043050805768424
decision_type=2 2 2 2 2 2 2 2 2 2 2 2 2 2 2 2 2 2 2 2 2 2 2 2 2 2 2 2 2 2 2 2 2 2 2 2 2 2 2 2 2 2 2 2 2 2 2 2 2
left_child=1 14 3 9 -3 -6 7 -5 13 10 11 12 -2 -8 35 -7 -13 19 -19 25 -4 -22 -18 -15 26 -12 -10 -9 36 -27 43 37 -21 -30 -25 -1 -17 -14 40 41 -38 -40 -42 -23 -39 -35 -44 -47 -43
right_child=2 4 20 6 5 15 8 27 24 -11 17 16 31 23 -16 28 22 18 -20 32 21 30 -24 34 -26 29 -28 -29 33 -31 -32 -33 -34 45 -36 -37 38 44 39 -41 42 48 46 -45 -46 47 -48 -49 -50
leaf_value=0.00036175029851730087 -0.011362288041909816 0.002667195185480488 0.0037618168135038787 -0.018030446734202531 -0.018548316605435419 0.0092322402494305188 -0.0021777459509278612 0.0088486145315651837 0.0014761036901569818 -0.0036282010809368863 0.0014361327101176441 -0.0029082997737645351 0.00040897760675137769 0.022589954436534269 -0.025212549243792431 0.00061398507457475116 0.021729896193119401 -0.0074413311915192829 0.010858803102196309 -0.0038945778337511556 -0.017062252463414515 0.0054126828414170951 0.0039912029986348147 0.0074455467719090574 0.0034258604336207541 0.003835770568653067 -0.0091475713474257897 -0.0013646537823875557 0.0049323964555575625 0.021447832701068942 -0.0046687001906022393 -0.0010651789628902152 0.0044935933461453413 0.0015315585432857156 -0.00086509026812507726 -0.008161622672569124 -0.00020291834962485515 0.00037234723629754629 -0.0029408788352925149 -0.0064677000327080731 -0.01010726853587989 0.0009372139822908718 0.0013616158441220291 -0.0013255887961555043 0.011965554816322188 -0.0052488120717233862 -0.0020760524312200411 8.0310699108652844e-06 0.0058068195719781883
leaf_weight=3.7812096369452757 8.5441521289758402 28.276732444763184 4.0393144946428974 7.8872451204806593 14.795753558166323 3.3783655855804673 5.616919967869765 8.785985673312096 3.9373681002762186 4.831614244321826 2.5248132374254046 3.4669259673682999 2.8719341718824571 8.3248151666484809 43.021743695717305 3.5521944543579584 9.8099293122068083 3.436748525593428 4.675978894578293 1.5145706487819541 7.7808148949407085 2.6335928589105571 8.8228371211443992 7.2027870193123782 6.2930178453680119 4.0311408629640928 6.6946698749670759 3.7586881178431204 1.9144056845107105 55.758878355380148 3.6252974106464535 1.9527357453480352 2.5095881964080036 1.7277258649119174 3.5956869265064597 7.4245416426565498 4.2865557664772451 1.655476272222584 1.8302920726709997 3.6251314206747338 23.215178380778536 3.1730265921796654 1.6337736320565444 2.5838149366318248 7.2459806083934382 1.8792984720203096 2.5049998379545286 1.5462959702708756 1.8897645564284173
leaf_count=219 147 139 281 39 272 86 157 439 148 82 201 81 269 114 2035 266 86 285 170 145 61 234 805 320 246 144 257 159 145 3625 263 238 254 97 156 264 272 206 92 218 1634 298 124 139 595 156 281 188 194
internal_value=-0.000337621 -0.0117259 0.008221 0.0101862 -0.00501555 -0.00804658 0.00287944 -0.00502707 0.00690139 0.0135524 0.0143919 0.00727467 -0.000309566 0.0126316 -0.022282 -0.0037563 0.0133516 0.0177745 0.00323866 0.0191361 -0.00776178 -0.0108169 0.0163485 0.0164627 -0.00258855 0.020132 -0.00610008 0.00633704 -0.00544523 0.0207185 -0.000645794 0.00793381 0.000895092 0.000732805 0.00535768 -0.00616234 -0.00637466 0.0092821 -0.00696664 -0.00186878 -0.00809329 0.00243414 -0.00907084 0.00315156 0.0108275 -0.00264145 -0.000716315 -0.0043813 0.00491843
internal_weight=359.87 153.457 206.413 185.75 99.2295 70.9528 62.0972 20.4319 41.6653 123.653 118.822 44.37 22.2703 24.7402 54.2275 56.157 22.0997 74.4517 8.11273 66.339 20.6628 16.6235 18.6328 19.1233 16.9251 62.3148 10.632 12.5447 52.7786 59.79 8.84271 13.7261 4.02416 7.06773 10.7985 11.2058 45.7109 11.7734 42.1587 10.5182 31.6405 6.89308 27.354 5.21741 8.90146 5.15332 4.13877 3.42559 5.06279
internal_count=17326 6980 10346 9368 4462 4323 2035 637 1398 7333 7251 2427 1455 747 2518 4051 972 4824 455 4369 978 697 891 590 651 3970 405 598 3965 3769 636 1308 399 586 476 483 3379 1070 3113 802 2311 584 2039 373 801 441 405 344 492
is_linear=0
shrinkage=0.03


Tree=5
num_leaves=50
num_cat=0
split_feature=23 22 9 23 12 23 1 29 26 1 12 29 31 12 29 26 0 29 22 16 23 29 26 23 12 12 1 22 22 27 3 23 1 9 9 9 12 26 23 30 29 0 29 0 1 19 22 22 26
split_gain=37.7369 15.7424 9.38666 5.41037 4.23924 4.87615 3.56226 3.50461 3.49642 5.36156 3.18075 3.16281 2.49639 2.30563 2.27534 2.15432 2.13771 2.04294 2.04276 1.80961 2.56657 1.64479 1.50634 1.3524 1.19796 1.02963 0.992407 1.4433 0.700213 0.670596 0.545406 0.936998 0.529886 0.48648 0.46513 1.49158 0.36097 0.301523 0.292778 0.240327 0.329866 0.42803 0.239169 0.229943 0.226011 0.156563 0.154139 0.1522 0.14209
threshold=-0.017075607428292641 0.023962379165590662 0.38125000000000003 0.098225800081761364 -0.10869565217391307 0.10730540913631899 0.15026961231003563 0.2707539972312627 0.17116377551250278 0.25492994762482252 -0.069565217391304376 0.29945894840399562 0.099472001208447208 -0.017391304347826094 0.12901386200349377 -0.096638748213845313 -0.071051995032593893 0.10003025354829372 0.069447671493624949 -0.30883116883116879 -0.0075673717736634829 0.37719036354607788 0.092328727106349193 0.064780654732779649 -0.017391304347826094 -0.017391304347826094 0.13990268402423187 -0.0059073376775813638 -0.016038858643671518 0.24264705882352944 -0.999231093392556 0.08112490292061382 0.21206202281399383 0.23125000000000004 0.15625000000000003 0.10625000000000002 -0.013043478260869599 0.033655061897392591 0.026816819122242461 0.26376229555159425 0.34924996007237902 0.055547292360404753 0.41975093707242089 0.58672521367885289 0.24877435628997216 0.48331479421579543 0.050989142490878915 -0.0021610365304673969 0.18956494415280598
decision_type=2 2 2 2 2 2 2 2 2 2 2 2 2 2 2 2 2 2 2 2 2 2 2 2 2 2 2 2 2 2 2 2 2 2 2 2 2 2 2 2 2 2 2 2 2 2 2 2 2
left_child=6 4 3 19 -2 7 18 12 17 14 -4 -9 15 -14 32 26 22 -7 -1 -3 -21 -13 36 33 -18 -17 -6 -28 -8 -16 -22 -32 -10 -15 35 -19 -12 -27 -24 -26 41 -41 -36 -43 -25 -23 -40 -47 -39
right_child=1 2 10 -5 5 8 28 11 9 -11 16 21 13 23 29 25 24 34 -20 20 30 45 38 44 39 37 27 -29 -30 -31 31 -33 -34 -35 42 -37 -38 48 46 40 -42 43 -44 -45 -46 47 -48 -49 -50
leaf_value=0.007287560799356517 -0.0095168812754855801 -0.00047069913555435533 0.014005280087848898 0.0081275485906205647 0.01342882065160976 -0.0013120357850282911 -0.004164796368871973 -0.016316883612219196 0.010882565653652754 0.01952724547775089 0.01717529937464822 0.010810118416907186 0.017503449079060887 0.0030064658474565804 -3.1807258526758366e-05 -0.011851983280139141 -0.013170752484852348 0.01450656045520534 -0.010918936440153975 0.0031823271583787411 -0.0031788222080977647 0.00086295126147145477 -0.0043664166328378435 0.01061839846683826 -0.0044994929570230267 -0.002954659395600545 0.0079645008249419284 -0.0085365736730657477 -0.026099824669243345 -0.012683066969350737 -0.022259131971917843 -0.0038102077457106065 -0.0021208392490577976 -0.0055737920915101885 0.024546870209642423 -0.0017176836377132286 0.0016230565936968171 0.0059610982463402049 0.0045044280243978878 -0.0030609367288103742 -0.0034750341978164005 0.0071070141813810222 0.0039975331899197424 -0.0013154971560646704 0.00049919199426568493 -0.0069276419715096167 -0.0015116688759162515 0.00015006280023914005 -0.00096959312995745553
leaf_weight=4.3226642023655568 5.8494971543550482 6.7579806934809303 13.665694773197172 6.4261126540368414 5.4776618120959046 3.2764827921637325 3.9601420531980684 5.7584214359521892 3.4365667003439802 7.7114321408444075 2.9401409616693854 6.4641163924243328 24.905626445543021 5.3467722175992121 5.086700717045459 5.9900122205726793 5.5012707817368236 9.749652828788383 6.9468147209845483 3.3520530359237446 4.2877231091260901 3.2910041762515885 4.7675624928669986 10.982668964308685 4.4454595493152764 4.3927384844282624 3.5081268628127873 3.5878132848301902 41.171564963529818 8.9194277749047597 32.038252304773778 5.6589329506386994 1.6432225741446016 8.0029749740497191 33.198601653682999 5.8374282604781902 3.2105148851987932 2.8890267880633473 3.5699502564384602 2.9538183059194152 4.3960015824995926 7.6859779158839938 3.1654588161036363 1.6151216332800684 2.9452236776123746 4.5675351447425818 2.5610705993021838 3.3526478814892435 1.7171554119559003
leaf_count=297 29 152 67 219 151 322 179 67 383 457 40 327 257 528 214 97 135 341 449 161 93 152 282 1053 269 383 179 123 1681 281 1499 294 145 707 1690 243 321 221 260 236 197 621 138 266 410 216 131 154 199
internal_value=-0.000155033 0.00409584 -0.00448781 -0.0123847 0.00927819 0.0101518 -0.0214546 0.00532709 0.0154441 0.00502034 0.00398511 -0.00410784 0.00819304 0.0117184 -0.00410959 0.000616917 -0.000465601 0.0195143 -0.00382979 -0.0154931 -0.0174156 0.00299686 0.00657934 0.00423282 -0.00536126 -0.00606541 0.00796894 -0.000467289 -0.0248897 -0.00947593 -0.0192524 -0.0203931 0.00780556 -0.00227062 0.0208276 0.00964189 0.0138675 0.000986662 -0.000997126 -0.000859304 0.00104699 0.00327811 0.0235776 0.00570212 0.00927314 -0.00370613 0.00248665 -0.00515831 0.0042905
internal_weight=363.289 306.888 115.834 58.5211 191.054 185.205 56.4012 103.18 82.025 26.7973 57.3126 23.4337 79.7458 52.1833 19.0859 27.5625 43.6469 55.2276 11.2695 52.0949 45.337 17.6753 17.0492 27.2776 26.5976 14.9889 12.5736 7.09594 45.1317 14.0061 41.9849 37.6972 5.07979 13.3497 51.9511 15.5871 6.15066 8.99892 10.8986 21.0964 16.6509 12.2549 36.3641 9.3011 13.9279 11.2112 6.13102 7.92018 4.60618
internal_count=17316 14710 5243 2418 9467 9438 2606 5224 4214 1480 2825 916 4308 2955 1023 1353 2758 2734 746 2199 2047 849 1034 2698 1724 900 453 302 1860 495 1886 1793 528 1235 2412 584 361 803 673 1589 1320 1123 1828 887 1463 522 391 370 420
is_linear=0
shrinkage=0.03


Tree=6
num_leaves=50
num_cat=0
split_feature=23 22 23 9 21 12 9 0 32 23 25 0 27 12 22 12 12 0 27 32 16 12 32 26 12 22 21 16 32 32 0 23 31 12 19 25 22 32 22 32 32 25 9 23 22 19 32 9 9
split_gain=33.9079 9.60873 6.38791 5.98929 10.5007 6.57267 4.88129 4.21112 4.18325 3.28585 2.44756 2.37649 2.27252 2.21455 1.78845 1.69615 1.68078 1.64574 1.60643 1.25942 1.22486 1.19569 1.48234 1.19308 1.08558 1.05522 1.02703 0.818605 0.694349 0.667997 0.940387 0.624591 0.544277 0.52195 0.511628 1.61324 0.483048 0.418596 0.412338 0.407898 0.422843 0.455844 0.341894 0.361345 0.338698 0.334507 0.327445 0.377331 0.250134
threshold=0.040907280461646663 -0.040539263867132795 -0.023499469335150538 0.54375000000000007 -0.015566744503748035 -0.056521739130434782 0.38125000000000003 0.56824583200344769 0.092035720010423969 0.1495874165859519 -0.15673658733360224 0.32408782361595995 0.28991596638655465 -0.065217391304347824 0.00036803492763159978 -0.034782608695652188 -0.095652173913043467 -0.059554109615288744 0.48684210526315791 0.25702358575030665 -0.070429252782193946 -0.07826086956521737 0.26972679619276574 -0.059225154269793981 -0.021739130434782591 0.017249644479469309 0.015033225695171489 -0.070429252782193946 0.14577376927533758 0.13483923976750264 0.16287467009772297 0.017548477569154872 0.026198878956049918 -0.017391304347826094 0.72456896551724148 -0.21283459162663007 -0.0059073376775813638 0.26690966175044178 0.075833422888139726 0.32120006728410144 0.16278703446423756 -0.12799999999999992 0.58125000000000016 0.011891010098858486 -0.060348198910386334 0.55409356725146208 0.12419751748315526 0.23125000000000004 0.35625000000000001
decision_type=2 2 2 2 2 2 2 2 2 2 2 2 2 2 2 2 2 2 2 2 2 2 2 2 2 2 2 2 2 2 2 2 2 2 2 2 2 2 2 2 2 2 2 2 2 2 2 2 2
left_child=2 16 8 4 11 -6 7 14 -1 10 -5 21 -10 -8 28 -7 -2 33 24 20 -12 -3 29 26 -16 -25 48 42 44 46 -31 -9 -18 -15 -34 -36 -24 -29 -14 40 41 -35 43 -19 -4 -27 47 -23 -17
right_child=1 3 6 9 5 15 13 31 12 -11 19 -13 38 17 18 23 32 27 -20 -21 -22 22 36 25 -26 45 -28 37 -30 30 -32 -33 34 39 35 -37 -38 -39 -40 -41 -42 -43 -44 -45 -46 -47 -48 -49 -50
leaf_value=0.0039143338579933394 -0.00078931697475651994 -0.0062166707224994315 -0.0025820216336044414 -0.0029158700128842975 -0.018426728875674224 0.009973698556078818 0.01055730995928137 0.010995727375064858 -0.026246936622288056 -0.0053962264679688118 0.0014134551059698072 0.018659435286288922 -0.010543795096838549 0.010133288364927011 -0.025168619811129184 -0.0026068423634987388 0.0033487269864917557 -0.0062834533693184903 -0.00042050837537257248 0.0022159418308560371 0.024539191847742784 -0.0028247310405196593 -0.0052474968817073017 0.006611462863360288 -0.0080708252831255423 0.0013251749877331923 -0.012732449730335531 -0.012671767200346375 -0.006988985445037124 0.015951230701660758 -0.00070960440704582117 -0.0018160568417775983 0.020589792837219262 0.006547348757621199 0.012816292066306039 -0.0054384252751418201 0.0033030568564579787 -0.00030906857871643829 -0.00033763781365896644 0.0050943359136699029 -0.0073811581260816023 -0.0036377279846007723 0.0046645874007539513 0.0026411720661318853 0.0063247420284259443 -0.0066035000302857739 -0.0041741381897587226 0.0069251976620735255 0.0043909130955810853
leaf_weight=4.9294316041632547 3.8493220657110205 3.2733181416988364 2.2491784001467741 3.3945182778988992 23.149823851883411 5.9956462373957029 11.551011979579924 3.4264737170888102 27.823405134433415 4.2145740055129854 3.0946707085822771 13.405597830540499 13.615591487381609 2.9597690915688863 14.419811497908084 4.2626465458306466 4.8925257722148663 3.5754696265212242 4.7150420061661853 4.7843000657157964 17.71886037645163 1.5994266268098751 6.7459695608122274 11.269282007706353 13.927847914281303 5.0002488417085242 7.8807565668248571 8.63330886262702 8.5287710714619589 10.857442920969332 3.118747705128043 3.0789422489469871 47.213186514622066 1.9905335784424085 2.9793122423579916 3.6674862822401328 5.6721377837238816 3.3324608318507662 4.8508398976409799 2.7426131921820343 2.7482062472845428 2.4653840624960131 2.9996792947058566 2.6729753433610313 3.2690169682609849 6.5850134819629602 1.4784665823681278 3.5410173739655875 2.5199036381673068
leaf_count=292 20 16 144 212 146 142 57 206 1167 182 182 564 505 79 160 364 244 196 233 198 826 203 215 838 934 399 430 772 326 601 104 184 2520 140 202 135 196 164 245 123 173 276 146 165 248 532 161 592 234
internal_value=0.00032366 0.00796256 -0.0103371 0.00353742 0.000114488 -0.007403 -0.00534119 -0.0110095 -0.018446 0.0136782 0.0169009 0.00991046 -0.0210031 0.00181874 -0.0139992 -1.59691e-05 0.0173006 -0.00227602 -0.0173894 0.0195834 0.0221864 0.00448931 0.00634366 -0.00276741 -0.0196454 0.00158198 -0.00803739 -0.00674636 -0.00320332 0.010371 0.013137 0.00697002 0.0184492 0.00488085 0.0193477 0.0049424 -0.0015382 -0.0104818 -0.00860307 9.33081e-05 -0.00326033 0.00205836 0.00030952 -0.00304203 0.00324049 -0.00389689 0.00106118 0.00400407 0.000833719
internal_weight=362.67 212.164 150.506 149.562 116.355 66.6633 99.2865 53.6151 51.2193 33.2069 28.9923 49.6921 46.2898 45.6714 47.1097 43.5135 62.6018 34.1204 33.0627 25.5978 20.8135 36.2865 33.0132 37.5179 28.3477 22.8545 14.6633 21.2139 14.047 20.5951 13.9762 6.50542 58.7525 12.9065 53.86 6.6468 12.4181 11.9658 18.4664 9.94674 7.20412 4.45592 9.24812 6.24844 5.5182 11.5853 6.61891 5.14044 6.78255
internal_count=17393 10458 6935 7337 5737 3085 4726 2435 2209 1600 1418 2652 1917 2291 2045 2939 3121 2234 1327 1206 1008 2088 2072 2797 1094 1769 1028 1443 718 1661 705 390 3101 791 2857 337 411 936 750 712 589 416 507 361 392 931 956 795 598
is_linear=0
shrinkage=0.03


Tree=7
num_leaves=50
num_cat=0
split_feature=21 9 12 32 22 19 31 1 27 22 10 25 1 1 22 25 9 12 9 1 12 26 26 21 32 12 12 19 1 22 32 1 25 12 3 19 25 31 21 25 7 25 22 32 26 12 21 22 22
split_gain=33.828 8.22425 7.82544 7.58279 5.2629 4.44971 3.80155 3.54762 3.01171 2.83724 2.4695 2.45237 2.35165 2.83046 2.03441 2.01152 1.91297 1.69008 1.4829 1.9033 1.45212 1.17769 1.16332 1.10682 1.08555 1.02714 0.793846 0.699723 0.674429 0.608593 0.586163 0.491247 0.438951 0.464062 0.434312 0.421614 0.400252 0.347084 0.275592 0.266892 0.258033 0.240998 0.190106 0.130237 0.109087 0.0969849 0.077796 0.0461433 0.0213697
threshold=0.0054163803501523231 0.38125000000000003 -0.069565217391304376 0.23230058653558591 -0.017605938157224606 0.75337837837837851 0.093458628823070558 0.29931142802200522 0.34166666666666673 0.011401552083697338 1.0000000180025095e-35 -0.074050024050024046 0.17929568020106762 0.13253055569584718 0.065433232509498826 0.49880952380952387 0.15625000000000003 -0.03043478260869564 0.55625000000000013 0.16827624402635524 -0.017391304347826094 0.16717323262806913 0.068546059625773065 -0.019158263117013154 0.19232505952546722 -0.017391304347826094 -0.017391304347826094 0.29814814814814822 0.16761884886208098 0.024821744489687412 0.29945894840399562 0.15856609892676976 0.26720430107526888 -1.0000000180025095e-35 -0.92965054741403474 0.47434210526315795 1.0000000180025095e-35 0.027398974462135097 0.04052488471323127 -0.094736842105263147 0.95000000000000007 -0.0094788858939802139 0.023024569924802733 0.3873698414879963 -0.14412972260123771 0.013043478260869603 0.03165781691134948 0.0078451107014398686 0.02775635050604203
decision_type=2 2 2 2 2 2 2 2 2 2 2 2 2 2 2 2 2 2 2 2 2 2 2 2 2 2 2 2 2 2 2 2 2 2 2 2 2 2 2 2 2 2 2 2 2 2 2 2 2
left_child=3 4 -3 5 22 6 9 8 12 21 15 -10 13 -5 18 25 -13 -7 19 35 -6 27 26 -11 31 -8 -2 -1 29 -22 -14 42 33 -12 -31 -4 -15 -16 -26 -33 -27 -29 -20 -32 -28 47 -37 -35 -49
right_child=1 2 14 7 20 17 10 -9 11 23 32 16 30 36 37 -17 -18 -19 24 -21 28 -23 -24 -25 38 40 44 41 -30 34 43 39 -34 45 -36 46 -38 -39 -40 -41 -42 -43 -44 -45 -46 -47 -48 48 -50
leaf_value=-0.00038733069457062646 -0.0092419923939377618 0.014228700046783879 0.0070040971606454118 -0.0097116881430229542 -0.020632204510091231 -0.010161257803976914 0.028051851695411693 0.013772420375161134 -0.0072877956886604634 0.0035813846568495782 -0.0017697560435141087 -0.00090574494194166073 -0.01868388977831208 0.00093854553926034812 -0.00050810882390933047 0.00093139846075634188 0.018004351633252584 0.0062868400038349308 0.00041494390524009179 -0.012637980445422636 0.0030953681218880394 -0.0034076938105393568 0.0084320058567530255 -0.012335644474428392 0.011231710144203166 0.00061538266345729402 -0.0010602412036351183 0.0024267659908034358 -0.013033672600780271 0.0017369471003335555 0.00058225951676354494 -0.002275413718971925 -0.0022398513925480385 0.011186281821103544 -0.0083298680824837757 0.0009305107684844697 0.01193119023907147 -0.012910666444078532 0.0006702396678492634 0.0062203593938611971 0.01253353528688444 0.015784125201442404 -0.0077074801096518432 -0.0054021758744653868 0.0042819741273941777 0.00040006027505422889 -0.0034561946526564676 -0.00014134475102479317 0.002900056583794382
leaf_weight=3.1613870660658092 4.5641549429856232 16.208278745412827 3.5080255061620864 8.4018827084801178 49.406629330012947 5.9431436867453158 31.195692470762879 8.5926996854250302 4.7180692624533576 2.849388700327836 1.8281107419170464 6.8101406394271162 7.7626768266782147 5.6560898385941965 2.7292581911315237 4.1939572009723625 6.8944234286318533 5.1609786627232079 2.7055747986305523 10.532054681738371 4.7619867465109591 2.6285055087064384 5.5274439601344048 4.5733565188129424 5.8307803795905766 2.4639696120866583 2.3819764809450126 3.9766600251314292 21.894751287880354 2.7011068947613248 3.3532204902730882 1.6031544402358124 1.5739889658871096 11.623787226970313 10.269682485901281 2.7784528907504864 4.8113463135086931 22.604798540356569 3.7303092999500223 2.1296051132376306 15.525848463643342 11.790930846647816 4.0807323464541696 3.6599494288675487 3.3598905766848475 1.5032563423737872 2.8166807384113781 2.0893551539629689 2.0177712970180437
leaf_count=170 49 81 223 253 439 35 263 248 144 151 176 204 139 197 173 51 217 543 175 681 351 211 300 287 257 245 179 255 1799 86 177 157 151 1377 896 152 134 1450 163 209 1801 684 239 169 256 151 163 210 200
internal_value=-1.57548e-05 -0.00878008 -0.00141881 0.00930012 -0.0140986 0.0136677 0.0155298 0.00059413 -0.00277902 0.0049553 0.018988 0.00583237 -0.00766332 2.63004e-06 -0.00619002 0.0223631 0.011193 -0.00299285 -0.00144491 -0.00642243 -0.0167711 0.00987294 0.00140873 -0.00735588 0.0037801 0.0238905 -0.00407469 0.0120934 -0.00987714 -0.00366997 -0.0146266 -0.00247084 0.00718706 0.00831533 -0.00634718 0.00293259 0.0084975 -0.0119277 0.00895834 0.00341822 0.0114633 0.0140128 -0.00579407 -0.00359165 0.00265647 0.00956587 -0.00192354 0.0100895 0.00218743
internal_weight=360.886 186.125 81.2577 174.761 104.868 114.1 102.996 60.6605 52.0678 28.9802 74.0157 18.4226 33.6452 18.8693 65.0494 53.3795 13.7046 11.1041 39.7154 19.6352 89.0342 21.5575 15.8335 7.42275 20.0802 49.1855 10.306 18.929 39.6275 17.7328 14.7758 10.5191 20.6363 19.0623 12.9708 9.10316 10.4674 25.3341 9.56109 3.73276 17.9898 15.7676 6.78631 7.01317 5.74187 17.2342 5.59513 15.7309 4.10713
internal_count=17321 8478 4123 8843 4355 6961 6383 1882 1634 1758 4625 565 1069 584 4042 2360 421 578 2419 1219 3571 1320 784 438 1200 2309 484 1109 3132 1333 485 780 2265 2114 982 538 331 1623 420 366 2046 939 414 346 435 1938 315 1787 410
is_linear=0
shrinkage=0.03


Tree=8
num_leaves=50
num_cat=0
split_feature=23 23 22 29 12 12 1 29 21 3 29 26 26 1 12 1 23 23 25 16 1 1 29 25 12 12 21 21 1 29 23 12 22 31 12 25 22 19 19 23 1 26 22 29 0 16 23 19 3
split_gain=29.2269 7.7583 7.24723 5.4181 3.87309 4.67565 3.76168 3.60871 3.46689 3.51576 3.43272 3.06932 3.06899 2.6322 3.57034 2.2786 1.95266 1.75372 1.73339 1.72145 2.36843 1.61896 1.78828 1.34112 1.3182 1.1339 0.947086 0.934942 0.879907 0.861455 0.851664 0.845523 0.83463 0.803256 0.592306 0.441359 0.37229 0.360442 0.330843 0.309668 0.309304 0.498369 0.308908 0.16245 0.084775 0.0738058 0.0719172 0.068787 0.0499525
threshold=0.041495155552486375 -0.032210633380695845 0.055734825977929899 0.23230058653558591 -0.069565217391304376 -0.039130434782608685 0.29931142802200522 0.092035720010423969 -0.044648399166556878 -0.98649662409165972 0.092035720010423969 0.52573930952120029 -0.105999788000636 0.21798261689926393 -0.056521739130434782 0.13253055569584718 0.096884648219182815 0.056295329532077394 -0.089542036910457992 -0.011010101010101008 0.13253055569584718 0.12405994586524695 0.15438562714674506 -1.0000000180025095e-35 -0.039130434782608685 -0.017391304347826094 0.065687559061722731 -0.037644068141573971 0.1976484349313922 0.16427821068862053 0.07363022148803923 -0.043478260869565181 -0.01837523186991535 0.28284255687749638 -1.0000000180025095e-35 0.059290646578782205 -0.016859756789619759 0.6984848484848486 0.6708333333333335 0.14070752353760665 0.22738880172712436 0.2908688584202086 0.0083501694822386858 0.21360032567500023 -0.35437250846105933 -0.096148148148148135 0.0088617929799109946 0.53452380952380962 -0.99969099498931013
decision_type=2 2 2 2 2 2 2 2 2 2 2 2 2 2 2 2 2 2 2 2 2 2 2 2 2 2 2 2 2 2 2 2 2 2 2 2 2 2 2 2 2 2 2 2 2 2 2 2 2
left_child=1 7 3 8 -3 -6 11 -1 48 -10 17 12 16 18 -15 -9 -5 -11 33 23 -21 22 -20 -14 -23 -22 32 -16 31 45 -29 -4 38 -12 -19 -26 -27 42 46 -32 41 -39 47 -17 -44 -28 -7 -34 -2
right_child=2 4 28 6 5 26 -8 15 9 10 13 -13 19 14 27 43 -18 34 21 20 25 24 -24 -25 35 36 29 30 -30 -31 39 -33 37 -35 -36 -37 -38 40 -40 -41 -42 -43 44 -45 -46 -47 -48 -49 -50
leaf_value=0.0024515029587367084 0.0046517613697009573 0.0045760776395948636 -0.017096658026999677 -0.014197182466162141 -0.019987845880997966 3.9455731784872391e-05 0.015934133629934559 -0.0023912481371209551 0.0192739221768903 0.0055266251463587197 -0.0077621499838810724 -0.015438402701903208 -0.0088066449888659307 -0.018429842246515216 -0.0049914693445823029 -0.027657702212928292 0.0021258388858614555 -0.017650223383687227 0.0091125008816233238 -0.0023727789124586259 0.022567268600143013 0.020636989088244708 -0.0083375283843308504 0.0061013873905283334 0.0081872949304996872 0.0080088143069832474 0.00058089785689238445 -0.0024036295612074625 0.001327883805930273 0.0085952920226008665 0.013883536210020152 -0.0015102368900535886 0.0020244733787038649 0.0052065959195096972 -4.6809901759906776e-05 -0.00086928835507615757 -0.0008109555838984794 -0.0036434839716686439 -0.0029535827906026616 -0.00012937235822131355 -0.0042496237309941924 0.0069389255970669708 -0.00059114251450201132 -0.011193880751932381 -0.0087140368133380684 -0.0050890306777063186 0.006165469274842998 -0.0018814733520161188 0.020636478674744461
leaf_weight=5.1560923787765196 4.3189817480742922 27.039687231183052 5.88350277673453 8.2834152817958984 15.326568577904252 2.1820700905518589 7.9457808371516867 6.5049713697517282 14.624817524105309 1.9629038186976666 3.698980312794439 5.4403985626995555 6.0676629150402732 2.6395785366185001 1.9119773454149243 22.896245628246106 9.7487338859355059 4.109452557284385 4.6228192077833281 7.6461943096946952 5.5024301209487012 14.669190798886119 4.5391375424806029 4.3377448432147485 10.612975511990955 4.8691049328772316 1.2562176981009545 2.6817480687168409 4.107092496356926 5.4456530445022509 5.1036845222697593 5.9861696943989946 2.0297332275658837 2.2882708217366599 2.1115606938255951 5.3411052390001705 5.4799273372627813 2.1652308217599039 2.5658477130346 1.5012954885023644 4.1240356556954794 3.1623038990073837 2.1377904622349844 13.608047478832303 29.756617316801574 2.5641643999842909 3.9142033153912053 2.2098802449181676 36.056748567149043
leaf_count=276 84 133 38 278 221 147 227 284 275 103 296 139 206 15 216 977 285 32 278 219 102 96 208 167 1010 199 129 282 274 273 504 437 161 218 495 508 235 134 163 166 279 247 195 475 2241 304 301 167 2528
internal_value=0.000126193 -0.00953449 0.00748192 0.00916847 -0.00451111 -0.00773094 0.00193525 -0.0188543 0.0127468 0.00820885 0.00444885 -0.00132842 0.00159544 0.0070584 -0.00334697 -0.0213959 -0.00704494 -0.00950413 0.0102275 0.00655932 0.0103377 0.0122668 0.00058898 -0.00263334 0.0150917 0.0154368 -0.00330328 0.00539737 -0.00945767 0.00386548 0.00865589 -0.0123824 -0.00479079 -0.00268045 -0.0146317 0.00574639 0.00475496 -0.00629599 0.00246544 0.012153 -0.000595194 0.00298623 -0.00749005 -0.0239668 -0.00834939 -0.00400882 0.00507996 7.90372e-05 0.0197497
internal_weight=358.139 154.045 204.093 188.117 105.88 78.8403 65.3214 48.1654 122.795 82.4195 67.7947 57.3756 51.9352 59.6108 13.8383 43.0093 18.0321 8.18392 45.7725 33.9031 23.4977 39.7852 9.16196 10.4054 30.6233 15.8515 63.5137 11.1987 15.9768 9.26604 9.28673 11.8697 54.2477 5.98725 6.22101 15.9541 10.349 45.5856 8.66212 6.60498 9.45157 5.32753 36.134 36.5043 31.8944 3.82038 6.09627 4.23961 40.3757
internal_count=17227 7107 10120 9371 5095 4962 2057 2012 7314 4702 4427 1830 1691 3797 1183 1736 563 630 2614 1128 755 2100 486 373 1614 536 4741 1168 749 706 952 475 4035 514 527 1518 434 3424 611 670 660 381 2764 1452 2436 433 448 328 2612
is_linear=0
shrinkage=0.03


Tree=9
num_leaves=49
num_cat=0
split_feature=23 23 22 12 21 30 23 1 19 29 12 29 12 23 22 31 5 1 3 1 3 29 29 30 23 23 16 0 0 21 12 12 21 12 12 12 29 1 0 22 12 16 14 25 1 1 22 14
split_gain=34.2234 7.06328 6.7994 5.66534 3.43456 4.89817 3.18445 3.15431 3.00025 4.12083 2.7661 2.44368 2.23253 3.49853 2.13846 2.17334 2.12521 1.90107 1.82422 1.71982 1.63679 1.50551 1.40577 1.55708 1.32463 2.95681 1.15028 1.13704 1.04105 1.22325 1.01893 0.988694 0.788798 0.709142 0.661306 0.994894 0.582778 1.23748 0.507948 0.388231 0.322385 0.223215 0.189664 0.173312 0.171527 0.156723 0.127902 0.110318
threshold=0.025731319513730675 -0.017075607428292641 0.055734825977929899 -0.10869565217391307 -0.11042846211083628 0.32751428295556007 -0.0085032902041850805 0.22812524323869951 0.71834935897435914 0.092035720010423969 -0.043478260869565181 0.092035720010423969 -0.07826086956521737 0.071645359139307016 0.023962379165590662 0.27264945517674216 1.0000000180025095e-35 0.14346011491754948 -0.96033125153051169 0.1613059326423483 -0.99967638723802976 0.51967774740274753 0.092035720010423969 0.54197608727190916 0.08681959617399139 0.12029005243439141 -0.034384236453201968 0.039373769763026707 0.26327569634056952 0.033531856222958963 1.0000000180025095e-35 -0.060869565217391279 -0.033006965490759897 -0.03043478260869564 -0.07826086956521737 -0.017391304347826094 0.37966210902696579 0.13253055569584718 -0.1029257773676172 0.012395473104663214 -0.0086956521739130471 0.053427230046948361 0.14852941176470594 -0.1302677942212826 0.19965652252086644 0.130701560241158 0.057971156472857617 -0.10555555555555553
decision_type=2 2 2 2 2 2 2 2 2 2 2 2 2 2 2 2 2 2 2 2 2 2 2 2 2 2 2 2 2 2 2 2 2 2 2 2 2 2 2 2 2 2 2 2 2 2 2 2
left_child=1 11 3 -2 -5 8 19 20 9 -6 -11 46 -7 17 28 18 36 45 -16 -3 -4 22 23 32 -24 -26 -21 -22 29 41 -12 -19 -15 -17 -20 -36 37 -13 43 -40 -29 -8 47 -33 -35 -14 -1 -37
right_child=2 6 7 4 5 12 14 -9 -10 10 30 16 13 21 15 33 -18 31 34 26 27 -23 24 -25 25 -27 -28 40 -30 -31 -32 38 -34 44 35 42 -38 -39 39 -41 -42 -43 -44 -45 -46 -47 -48 -49
leaf_value=0.0030915453855914887 -0.010666229968098531 0.01350864742332056 0.0029796702420071702 0.025355025819716041 -0.0036646776789532299 -0.0052629112349847126 -0.010309045231517176 0.0089396583842682193 -0.0048258888548761087 0.030580392656556005 0.013155698577987566 -0.0039230067785849055 0.00083951288242546803 0.010999529777350251 -0.00025557621871471044 0.0081304087369066455 0.00059351220347358643 -0.014186272951502838 -0.0013936347570830082 0.0056023572745918264 -0.00094484565149996187 -0.0051290644837395242 0.018804400074875049 -0.011230848126683544 0.00061735887122528834 0.012701877977409312 -0.010038790202183493 -0.022694633406944019 0.0085829521941392997 0.0050709453672956638 -0.0017624359370940592 -0.0003362197850189934 -0.0035374993240574648 0.0010436306131616437 -0.023913471489850471 -0.00032977461032936443 -0.0036599854657287361 -0.025116636698837347 0.0051862169526569303 -0.0025353947368598039 -0.0046010283883609589 -0.00090636827354229998 0.00047407913911025779 -0.0078937388976334042 -0.005865888174525366 0.0099838181882627181 -0.0021902510255435784 -0.0090299397139763544
leaf_weight=2.4130596957984372 7.6587942242622367 6.5088071423815546 3.6511731557548091 8.5011497308150847 5.331144902331288 11.557578682899473 5.3376424423768203 4.3272290349705136 3.3084913726197547 14.543693215120582 27.366080751759004 5.2567657533218144 3.4966727434657541 2.5893953713239171 7.7549846619367591 2.641309049911797 3.5990928479004642 3.0399397891014877 3.4432862102985409 2.7182953608571552 4.8783824604470292 2.7689188504591575 14.458874653268138 2.0899073922191747 30.363871761888731 42.109655139851384 3.0389565649675205 5.1922152196057176 4.0425397799699558 5.6499629875761448 3.2056411793455473 4.5328713495400734 1.8372966473689292 2.8088375470833844 11.021566528361296 1.9484924163552904 3.948719303123652 37.801872539217584 6.7548421746468996 5.8617223506444134 5.1162210592301509 4.4223415701417252 1.9175180695019651 3.9540103467297811 2.2246288894675672 3.7001466344227083 2.3719048166531138 9.1414692703983711
leaf_count=148 38 244 71 472 290 58 236 244 88 117 1659 247 151 297 190 33 149 16 17 146 261 102 660 125 1737 2317 176 54 224 264 307 280 179 234 161 111 202 1663 483 478 428 186 244 316 204 160 202 751
internal_value=0.000624689 -0.011392 0.00747057 0.00917919 0.0102207 0.00880883 -0.0047393 -0.00666371 0.0161412 0.0178831 0.0205606 -0.019015 0.00542533 0.00658668 -0.00744888 -0.0107993 -0.0207579 -0.00186037 -0.0135666 0.00695716 -0.0115416 0.00928576 0.00999656 -0.00192557 0.0109569 0.0080732 -0.00356352 -0.0148879 0.000744297 -0.00314108 0.0115589 -0.00578182 0.00640231 0.002282 -0.0166047 -0.0180705 -0.0222748 -0.0233255 -0.00169869 0.0019378 -0.0187111 -0.00801566 -0.00713373 -0.00566828 -0.00353938 0.0079426 0.000711433 -0.00815378
internal_weight=362.208 130.012 232.196 209.031 201.372 192.871 74.6206 23.1652 53.7551 50.4466 45.1154 55.3914 139.116 127.558 62.3546 42.9021 50.6065 31.3402 35.2273 12.2661 18.838 96.2179 93.449 6.5166 86.9324 72.4735 5.75725 15.1868 19.4525 15.4099 30.5717 24.1434 4.42669 7.67478 27.4723 24.029 47.0074 43.0586 21.1034 12.6166 10.3084 9.75998 13.0075 8.48688 5.03347 7.19682 4.78496 11.09
internal_count=17420 6032 11388 10330 10292 9820 3421 1058 2461 2373 2083 2611 7359 7301 2855 1945 2261 1884 1474 566 814 5417 5315 601 4714 4054 322 743 910 686 1966 1573 476 471 1284 1267 2112 1910 1557 961 482 422 1106 596 438 311 350 862
is_linear=0
shrinkage=0.03


Tree=10
num_leaves=50
num_cat=0
split_feature=23 23 19 0 30 1 22 12 23 3 1 12 26 22 29 29 29 27 29 12 30 19 12 23 26 1 12 22 16 1 30 27 29 19 26 29 12 29 27 29 0 29 3 22 1 29 14 22 22
split_gain=31.8337 14.3359 6.97462 5.70801 5.99973 4.89099 4.21656 3.90506 3.53617 3.22881 3.01076 2.81727 2.50107 2.43758 2.26181 2.03244 1.79121 1.73658 2.12273 2.08918 1.70199 1.63638 1.57971 1.5793 1.32277 1.30791 1.21102 1.1707 1.07257 1.26464 0.742533 0.93004 0.712679 0.620874 0.548708 0.530906 0.608435 0.445291 0.418274 0.41581 0.378142 0.313792 0.25488 0.252813 0.248342 0.205313 0.170851 0.156483 0.151017
threshold=-0.017075607428292641 0.10730540913631899 0.70320320320320329 0.068275975007843312 0.40694381841735 0.25691028225998447 -0.022255206505619875 -0.10869565217391307 0.037844010189089318 -0.99906249959996896 0.15026961231003563 -0.017391304347826094 -0.036785594638885429 -0.070733726590027565 0.092035720010423969 0.13593508136948432 0.19802472468340029 0.24264705882352944 0.13098705664527502 -0.065217391304347824 0.2610196346359614 0.53452380952380962 -0.039130434782608685 0.022615496336386796 -0.16538278771462586 0.20639270072303037 -0.013043478260869599 0.034501449569472105 -0.12674796747967476 0.14656512387451698 0.30324881916254781 0.24264705882352944 0.19483135915503938 0.47663043478260875 -0.16178979588629325 0.44834179988079426 -0.013043478260869599 0.14642078235881359 0.17156862745098042 0.11935398853709236 -0.28438853118443691 0.11629195933295726 -0.89749294752778652 -0.014806731239966451 0.14750453558897661 0.20418821655562233 0.20294117647058826 0.082514810031933519 0.029511375009804417
decision_type=2 2 2 2 2 2 2 2 2 2 2 2 2 2 2 2 2 2 2 2 2 2 2 2 2 2 2 2 2 2 2 2 2 2 2 2 2 2 2 2 2 2 2 2 2 2 2 2 2
left_child=10 3 7 4 8 42 12 -3 21 -8 27 -10 16 -6 -12 25 -5 18 28 -20 -19 32 -9 44 -17 38 -22 -1 -11 39 -23 -32 -2 41 -25 36 -24 -28 -15 -30 -26 -13 -4 -16 -21 -36 -27 -29 -35
right_child=1 2 5 6 13 -7 9 22 11 17 14 33 -14 15 43 24 -18 20 19 23 26 30 35 34 40 46 37 47 29 -31 31 -33 -34 48 45 -37 -38 -39 -40 -41 -42 -43 -44 -45 -46 -47 -48 -49 -50
leaf_value=0.0065616364011699471 -0.0015097225621374091 -0.0067212951760912713 -0.01746200241773091 0.017163776147703771 0.010439758004552361 0.011953382557977855 0.0049683557361990269 0.024420360705139296 0.023860997407651352 0.012006393599787162 -0.000939921194346445 -0.0056404330892824185 -0.0067152686603339914 0.0028284424239209439 -0.0054416917673256737 0.0030723871656041313 -0.0019661025218783127 0.0030403163288734844 -0.01518641580321717 -0.010360310018690018 -0.019743601839258013 -0.010144294185016218 0.00058795743705303976 0.010292542613220832 -0.004024387646907354 0.01112193593120963 0.00021069103503758673 -0.00066430228095209565 -0.0019657214833114765 -0.0094639207680940023 0.0071439517708658997 -0.0057489908032542208 0.012910127100317267 0.0098808768048774705 -0.0038667347526387982 0.00057735709611885378 0.013826058593280226 -0.008757163299309945 -0.0070664985234427328 0.0096314729283262877 -0.014027021142545809 0.0023438390624405427 -0.0027944950903323615 -0.02605902293124349 -0.00049371243316478105 0.0027474340818140924 0.00041716599454381882 -0.0095978715511855234 0.00091342049754538734
leaf_weight=2.6170105899218452 2.8760628559393835 3.0255983769893637 4.8823033310472956 9.0371875741402636 5.0041003524092948 5.1479769975994705 12.466751603409646 30.170294125564396 15.549656841438262 3.7536648031673376 4.3865725313662542 1.4709523376077438 4.8701160033233455 1.9366143428487683 4.2791941057657814 4.4547074562287881 4.6391602818039237 3.1699469272280103 11.472877429798247 3.6099175789277096 20.578683690633625 5.1525843258714294 3.9793917783536008 4.3760032795835313 11.94305917498423 4.6844034523819573 6.5682518388493945 3.2577046227524988 1.7007731213816444 3.1438368208473548 4.2022875287802872 4.0544004898401909 3.6294458726188168 8.7229649683576991 2.5204170572105751 4.1279301699250928 34.503296805312857 11.585168224177322 4.988523482112214 1.7699075847049242 15.168364940269386 5.445934817485977 4.1841248641721895 35.509485325077549 3.8455485865706578 2.6217547650448978 2.0876979053718969 4.6702121301786974 3.4054424851201466
leaf_count=178 272 15 58 289 247 281 302 249 153 256 235 272 248 174 187 146 181 133 59 109 237 150 254 178 619 422 961 221 251 429 155 195 87 597 138 163 3271 637 387 68 676 451 284 1440 205 172 150 341 261
internal_value=0.000125566 0.00398533 0.0136336 -0.000285764 0.00460998 -0.00421631 -0.00487781 0.0170444 0.0110034 -0.00744525 -0.0197532 0.0160845 0.0066886 -0.0027571 -0.0228678 -0.00526721 0.0120539 -0.00957365 -0.00406046 -0.00790315 -0.0135324 0.000496391 0.018469 -0.000299719 -0.00897133 0.00340165 -0.0151146 -0.00314414 0.00551484 -0.00212759 -0.00505187 0.00105789 0.00886945 0.00554016 0.00628534 0.0117611 0.0127211 -0.00626612 -0.00427091 0.00630346 -0.0111484 -0.00118542 -0.0145015 -0.0248453 -0.00776061 -0.000830941 0.00956813 -0.00779451 0.00849865
internal_weight=361.248 306.528 90.0209 216.507 104.777 14.2144 111.73 75.8065 54.5097 93.1835 54.7202 34.595 18.5465 50.2675 44.1753 45.2634 13.6763 80.7168 38.8147 28.4465 41.9021 19.9148 72.7809 16.9736 31.5661 13.6972 38.7321 10.5449 10.3682 6.61452 13.4093 8.25669 6.50551 19.0453 9.51818 42.6106 38.4827 18.1534 6.92514 3.47068 27.1114 6.91689 9.06643 39.7887 7.45547 5.14217 6.7721 7.92792 12.1284
internal_count=17444 14842 4575 10267 5414 623 4853 3952 2593 4135 2602 1734 718 2821 1862 2574 470 3833 1865 861 1968 859 3937 802 1441 1133 1835 740 1004 748 500 350 359 1581 488 3688 3525 1598 561 319 1295 723 342 1627 314 310 572 562 858
is_linear=0
shrinkage=0.03


Tree=11
num_leaves=50
num_cat=1
split_feature=23 22 12 23 23 32 27 21 0 32 31 12 17 22 19 0 26 12 27 23 12 32 31 23 12 23 12 23 23 23 32 14 16 16 0 25 12 31 0 25 32 21 19 31 31 25 22 25 0
split_gain=25.4366 10.1624 9.21643 5.04445 5.1885 3.85473 3.59905 3.48731 2.92318 2.87931 2.86482 5.88065 3.22174 3.33016 2.81551 2.06704 2.79364 2.85404 2.05947 2.07028 1.80025 1.7476 1.72473 1.57753 1.60766 1.51169 2.87433 1.27774 1.13027 1.03715 0.906123 1.0762 0.897261 0.889276 0.878303 0.850793 0.753145 0.689833 0.65988 0.647441 0.583555 0.485897 0.443312 0.387607 0.38501 0.288604 0.293171 0.404257 0.253609
threshold=-0.017075607428292641 0.050989142490878915 -0.10869565217391307 0.10730540913631899 0.17653600182347415 0.2707539972312627 0.24264705882352944 -0.0081117065331798004 -0.097840221270281483 0.29945894840399562 0.27264945517674216 -0.017391304347826094 0 -0.015414868655959616 0.59729729729729741 0.5572751246335369 -0.48027039950412614 -0.07826086956521737 0.28991596638655465 -0.050223376387993283 -1.0000000180025095e-35 0.37719036354607788 0.043402472958013645 -0.0085032902041850805 -0.017391304347826094 0.09344304331361343 -0.034782608695652188 0.062717381399624059 0.063191636243601398 0.20887621643793905 0.12901386200349377 -1.0000000180025095e-35 -0.33252032520325198 0.030940170940170944 -0.013120771940152149 0.018245838668373884 -0.021739130434782591 0.099472001208447208 0.013728724757814151 0.018245838668373884 0.32120006728410144 0.03165781691134948 0.72456896551724148 0.056609453986669368 0.18147834189509393 -0.072176684881602907 0.069944101205979728 0.071021061050386594 -0.59590618964350905
decision_type=2 2 2 2 2 2 2 2 2 2 2 2 1 2 2 2 2 2 2 2 2 2 2 2 2 2 2 2 2 2 2 2 2 2 2 2 2 2 2 2 2 2 2 2 2 2 2 2 2
left_child=18 2 -2 5 7 10 42 -5 20 -7 12 -12 13 35 29 16 -10 -18 22 -20 -3 -11 -1 -19 -25 26 -14 48 41 34 38 -32 -17 -30 -8 -4 -15 -21 -27 -38 -24 -28 -6 -23 -39 -26 47 -47 -13
right_child=1 8 3 4 6 9 14 -9 15 21 11 27 25 36 -16 32 17 23 19 37 -22 43 40 24 45 30 28 -29 33 -31 31 -33 -34 -35 -36 -37 39 44 -40 -41 -42 -43 -44 -45 -46 46 -48 -49 -50
leaf_value=-0.0018761144873049025 -0.0166252477748886 0.01165959914545509 -0.0025225941363528452 0.021395005865066118 0.01545818178521915 -0.015621117074409821 -0.0076518828992401091 -0.00281409695088414 -0.024077233773328006 0.0089716918133294788 0.026147036415556286 0.0004456344612333455 0.016046540759981819 -0.019144673194501739 -0.013262848898936488 -0.0050793522796322996 0.0095685525028185066 0.0047533871274661223 -0.013477488347580797 -0.0047589678719220712 -0.0045713816879776204 0.0022586593788326372 -0.026143188308112724 -0.018136372731206985 0.0024081840948773918 -0.0030187254019069854 -0.0057390383094591867 0.007114589961333408 0.010847216728330892 0.010556749450081556 -0.011620335042890414 0.0030167791940852455 0.0085974912373995762 -0.0025862540708249996 0.0050843980661208002 0.0098892527387074419 0.0039777083281889135 0.0093101769490353398 0.0099418958768818858 -0.0077180834153522697 -0.0048455876712013759 0.0022942693742250444 0.0012028295414171859 -0.0060848638259709638 -0.00098578313942271996 -0.0041132364178437016 -0.0074190215405981639 0.0045456390605717375 -0.0083605163579076412
leaf_weight=4.5892733748769379 9.0655753910541517 6.7568383878096938 5.5527748576132598 46.41241717437515 9.9101524595753272 7.2207457590848199 4.5055389876943055 4.5194244803860775 7.2416519465623415 9.2821544263279083 11.797072654590012 3.2786678398842923 23.567480539903045 5.7955995672382414 8.4139742676634324 2.3586791162379086 3.8570687621831885 3.1328344899229661 11.852156432578342 3.091652059927581 7.2208267182577384 3.2860961048863855 23.911755457345865 11.013397701550277 2.2587631577043785 2.3035643897019318 9.6001667882665114 6.6401108408463188 9.2628814171184768 5.239345056237652 4.1213627454126254 4.6456868771929276 4.2354390880209385 3.5038239417481227 3.5605320917093239 4.9839587301248685 3.1717601903364976 3.7021161816082895 2.7652991040959023 2.6448145658359863 4.480967548210173 7.5373744106036602 3.4725384270423083 12.961726568173615 3.3598356760921888 4.3229979246971295 8.5562922823009995 3.1580390767194331 4.560878035030326
leaf_count=195 45 139 238 2548 579 87 223 214 88 474 112 283 201 53 321 67 19 155 530 154 541 155 1179 156 230 185 910 850 657 221 149 177 448 291 148 214 275 111 142 180 192 648 106 615 219 292 575 182 512
internal_value=0.000429711 0.00386947 0.0066454 0.00793725 0.0135254 0.00429981 0.00372338 0.0191766 -0.00634329 -0.00422757 0.00680236 0.014596 0.00373953 -0.00462874 -0.0037626 -0.0094958 -0.011679 -0.00614118 -0.0173053 -0.00724021 0.00442004 0.00135431 -0.0218727 -0.00921084 -0.0112575 0.00640451 0.0093652 0.000281729 0.00229803 0.00449995 -0.00118071 -0.00578978 0.00361617 0.00751227 -0.00225917 0.00480628 -0.0145389 0.00234219 0.0056083 -0.00255902 -0.0242137 -0.00252713 0.0132766 -0.00424335 0.006209 -0.00366053 -0.00493822 -6.17008e-05 -0.00608109
internal_weight=362.684 307.696 243.583 234.518 86.0339 148.484 35.1021 50.9318 64.1128 32.7507 115.733 26.2767 89.4565 22.1489 21.7194 50.1352 43.541 36.2994 54.9878 22.0058 13.9777 25.53 32.982 32.4423 29.3095 67.3076 53.4717 14.4797 29.9042 13.3054 13.8359 8.76705 6.59412 12.7667 8.06607 10.5367 11.6122 10.1536 5.06886 5.81657 28.3927 17.1375 13.3827 16.2478 7.06195 18.2961 16.0373 7.48104 7.83955
internal_count=17285 14705 11813 11768 4360 7408 1598 2762 2892 1331 6077 1757 4320 960 913 2212 1697 1609 2580 1014 680 1244 1566 1590 1435 3360 2707 1645 2506 592 653 326 515 948 371 452 508 484 327 455 1371 1558 685 770 330 1279 1049 474 795
cat_boundaries=0 1
cat_threshold=130
is_linear=0
shrinkage=0.03


Tree=12
num_leaves=50
num_cat=0
split_feature=21 23 29 21 19 30 19 29 12 12 12 21 0 16 11 16 22 23 25 25 29 29 12 12 26 21 22 0 22 22 22 29 23 21 29 0 29 22 0 26 23 23 22 23 23 30 22 29 25
split_gain=27.9576 9.10301 6.30135 3.50832 3.32727 4.44891 2.84535 3.12231 2.61406 6.48901 3.51026 2.41349 2.32762 1.97134 1.89223 1.87049 1.82419 1.61268 1.51394 1.46415 1.4368 1.38598 2.09378 1.21478 1.1704 1.16261 1.10196 1.00214 1.419 1.71086 0.923446 0.877025 0.762947 0.845864 0.823928 0.678787 0.570364 0.483259 0.401225 0.399774 0.341532 0.303237 0.26214 0.260619 0.243084 0.22199 0.145186 0.141172 0.134445
threshold=0.014666381543070985 -0.017075607428292641 0.23230058653558591 0.0054163803501523231 0.73205128205128212 0.54830077640963648 0.40270270270270275 0.2951103724054524 -0.10869565217391307 -0.069565217391304376 -0.026086956521739087 0.033531856222958963 -0.5082994771135666 0.030940170940170944 0.85000000000000009 -0.02097407698350353 -0.030393938894904323 0.036714002324754837 0.45339912280701761 0.022611077297626313 0.41494633195508318 0.094592937710153355 -0.0086956521739130471 1.0000000180025095e-35 0.088883753455473072 0.064137279104436548 -0.013686788506761997 -0.038618036349196395 0.0025258607032189189 0.016002854757454613 -0.0021610365304673969 0.15299451050191984 0.041963692109735891 0.051975069041237311 0.23230058653558591 0.18050803851388195 0.12507486587482483 -0.014293402670949555 -0.1740469047873138 0.55252076899224078 0.091748900699028149 0.021783338387515953 -0.034097233834978417 0.011891010098858486 0.098455286895875974 0.38256117185082666 0.056972762513768406 0.3924700797409425 0.026666666666666713
decision_type=2 2 2 2 2 2 2 2 2 2 2 2 2 2 2 2 2 2 2 2 2 2 2 2 2 2 2 2 2 2 2 2 2 2 2 2 2 2 2 2 2 2 2 2 2 2 2 2 2
left_child=2 21 3 4 5 14 44 15 -3 -10 11 -11 37 36 16 -8 45 -9 24 32 48 46 -23 27 30 31 -24 -16 -29 -30 -7 41 33 34 39 -31 -5 -6 -26 -12 -34 -21 -22 -33 -4 -1 -2 -36 -19
right_child=1 8 6 13 12 18 7 17 9 10 19 -13 -14 -15 23 -17 -18 20 -20 25 42 22 26 -25 38 -27 -28 28 29 35 -32 43 40 -35 47 -37 -38 -39 -40 -41 -42 -43 -44 -45 -46 -47 -48 -49 -50
leaf_value=0.00058654883316442482 -0.0046735121168336854 -0.018590028143258278 0.001627357616845648 -0.0029451829140546152 0.01144220330976803 0.012702107243436558 -0.018926165225807562 -0.0091652382025376507 0.0092645734423419113 -0.002696652180529403 -0.010301225820524713 -0.022774441699959236 -0.010448050558757005 -0.012529310850702509 0.024261065104080961 -0.0024841144833094944 -0.005718159766724888 0.01082296515440827 -0.0093612173246301021 -0.0042032183812552729 0.0019711560324839417 -0.027557994797870307 0.0020424740018895608 0.0011874698197254883 0.002130766850377492 0.0026551369073680789 -0.012916603582044299 0.016012135262531337 -0.0075052328783292476 -0.001583847991497688 -0.0025288160794749459 -0.0019333439939599913 0.0078976579153874401 0.0048499285782931867 0.004396765567488737 0.011683918749636058 0.0085171279877761484 -0.0011906475724378044 -0.0075188127635479546 0.0012131205595171913 -0.0014674280342313085 0.0035571949051317366 -0.0051592593071959824 -0.015016353769871052 0.01071306378987385 0.01242411825894741 0.0012385770162664307 -0.0012282826626544472 0.0013626581369353022
leaf_weight=2.3384248793590814 2.8578376460936843 5.2332322895526877 6.249788199318572 2.3918612137204018 3.2121141977841035 7.445349820132833 8.7262747581116873 3.258032524026933 23.964354500174522 10.436041631735863 8.914432312245486 11.432914966717361 6.7190345948329178 4.6927853064262308 30.645634993037667 14.498487849719821 5.9400139820645546 12.095973299175968 3.8729212860343969 2.5603136292193147 3.4120466876775026 23.316048032604158 3.4799218500847955 4.3581229820847502 3.3758031370816752 5.6604712555999859 22.689535768993665 20.036917119578 4.3366150765796183 3.0416644114302454 2.5365399894653837 3.6600287430337621 9.256337105529381 6.6221686610952011 3.2865309668704858 6.3373661626828834 4.8099172297515906 2.4089576561236754 2.5362544030649579 1.8964568298542861 2.4054588974104254 3.6349239611299708 6.3570685847662372 10.300218696764203 9.0437764638918434 5.3966669717920013 3.0390859108883888 3.4763884348794818 3.5346320446114978
leaf_count=173 150 26 183 218 223 462 133 154 118 133 938 227 305 220 2260 264 310 547 47 294 161 279 245 431 237 324 1617 1043 226 154 189 175 806 589 153 357 254 156 135 132 169 382 277 434 211 318 205 154 216
internal_value=-0.00123491 -0.0100019 0.00644982 0.0102481 0.011812 0.0135057 -0.000953058 -0.00433362 -0.00465095 -0.00302562 -0.00693564 -0.0158365 -0.00204439 -0.00372288 0.0163825 -0.0112792 0.00397505 0.00227342 0.000487817 -0.00265522 0.00521163 -0.0193753 -0.0208901 0.0183331 0.00479548 -0.00736088 -0.0109175 0.0192934 0.0118019 0.00265015 0.00933538 -0.0101376 0.00130215 -0.00177673 -0.00487264 0.0084419 0.00510188 0.00820878 -0.00371093 -0.0085693 0.00612367 -0.000140019 -0.00286641 -0.0131985 0.0085049 0.010665 -0.00253861 0.00228717 0.00965505
internal_weight=361.732 168.123 193.609 126.433 114.538 102.198 67.1761 51.8825 112.74 107.507 83.5427 21.869 12.3401 11.8946 82.4314 23.2248 13.6751 28.6578 19.7669 61.6737 25.3997 55.3824 49.4855 68.7563 15.8939 25.816 26.1695 64.3982 33.7526 13.7156 9.98189 20.1555 35.8578 24.196 17.5738 9.37903 7.20178 5.62107 5.91206 10.8109 11.6618 6.19524 9.76912 13.9602 15.2936 7.73509 5.89692 6.76292 15.6306
internal_count=17414 7550 9864 7718 7026 6342 2146 1752 5054 5028 4910 360 684 692 5272 397 801 1355 1070 4550 1201 2496 2141 4471 1023 1609 1862 4040 1780 737 651 1285 2941 1966 1377 511 472 379 372 1070 975 676 438 609 394 491 355 307 763
is_linear=0
shrinkage=0.03


Tree=13
num_leaves=50
num_cat=0
split_feature=21 23 9 9 23 25 27 19 29 12 10 31 29 12 27 12 27 29 29 16 23 25 0 23 26 23 0 0 19 23 9 9 16 26 9 26 23 29 23 16 29 23 12 29 23 0 19 19 16
split_gain=25.0904 6.45578 9.3764 3.8978 5.36055 4.39741 3.49266 3.35396 3.19407 2.84065 2.78783 2.65125 2.46242 3.00135 2.27868 2.24028 2.19214 2.41312 2.02386 1.9952 1.86349 1.6743 1.55022 1.42393 1.31312 1.30043 1.17366 1.14688 1.17063 1.0251 0.97951 1.01543 0.943054 0.896732 0.861619 0.782289 0.617498 0.604684 0.560628 0.555608 0.548765 0.539026 0.522856 0.432124 0.406127 0.387665 0.368037 0.343599 0.338874
threshold=0.014666381543070985 -0.017075607428292641 0.38125000000000003 0.55625000000000013 0.10730540913631899 -0.049073756432247033 0.48684210526315791 0.74679487179487192 0.092035720010423969 -0.060869565217391279 1.0000000180025095e-35 0.10508610169054251 0.19899338470071279 -0.049999999999999982 0.29705882352941182 -0.0043478260869564958 0.34166666666666673 0.26826605645638008 0.11068653444059585 0.096871945259042039 0.041495155552486375 0.08461538461538462 -0.25319308696127985 0.07363022148803923 -0.11617000328756734 0.095889524102104176 -0.15124265948181118 0.4417844680792346 0.32426470588235301 0.041495155552486375 0.15625000000000003 0.10625000000000002 -0.063286264441591772 -0.17663540253652341 0.36875000000000008 0.23267404364781216 0.059019466265706651 0.17591413300670819 0.18003555426545984 -0.056904761904761895 0.35391783246857778 0.06520512528535187 -0.0043478260869564958 0.32120006728410144 0.065443051977284603 0.059167070169426857 0.59729729729729741 0.63762626262626265 0.053427230046948361
decision_type=2 2 2 2 2 2 2 2 2 2 2 2 2 2 2 2 2 2 2 2 2 2 2 2 2 2 2 2 2 2 2 2 2 2 2 2 2 2 2 2 2 2 2 2 2 2 2 2 2
left_child=3 8 6 4 16 9 15 10 11 -6 24 -2 13 -4 43 -3 17 27 38 35 22 26 -15 33 -5 -25 -14 34 -29 40 31 -20 -24 -18 -1 -11 -35 -16 -7 -36 -28 -12 -8 -10 -19 -44 -21 -41 -43
right_child=1 2 12 7 5 18 42 -9 14 19 41 -13 21 20 37 -17 23 44 30 46 -22 -23 32 25 -26 -27 29 28 -30 -31 -32 -33 -34 36 39 -37 -38 -39 -40 47 -42 48 45 -45 -46 -47 -48 -49 -50
leaf_value=-0.0071599558087110148 0.014232630302066864 -0.020123926998672704 0.019432978050052646 0.0042333152468761858 -0.011180586119918162 0.0043575096762138062 0.0056938699583443603 -0.0030284613224640629 -0.025196098267287852 0.0038559883162157171 -0.003693216446768231 -0.009678602146912926 -0.0064654886568006626 0.0068539812398676035 -0.01057031323748046 -0.0050061229848027541 0.0047471166483634862 -0.0023497137244235574 0.011040326557482919 0.0006019028736135453 0.010370358480045942 -0.01170674302442096 0.0012995782316883445 0.013316896178024238 0.025977884501002881 -0.0014607345502593004 0.013712945688223344 -0.0039906057967717835 0.012442593174641352 -0.0033380640367636685 0.020102584505467282 -0.0018399631981275753 -0.013436877979409267 0.001053403914296805 -0.0039837091233146929 -0.0086838147689954608 -0.01038220711373054 -0.00052673518323760507 -0.0072602769596215077 0.0081766381113664299 0.0001637054029182845 0.0086448768063755871 0.0025162239753084778 -0.0054069887886615386 -0.016715564015425965 -0.0062000935645352443 0.014092254331098612 -0.0015734427573629091 -0.0011287100883510745
leaf_weight=13.247038973786408 2.4049990707426323 26.263034236151725 10.602793934755029 5.7437638834235285 7.2276988513767746 1.6348603655351319 5.8121717213653019 6.2175124966306603 24.831181893940087 3.2415118016651858 3.1176979312440363 2.5896673449897207 3.621258544677409 3.0716122075682533 11.170651817461478 19.224880687717814 6.2275190415675779 4.6378606322687101 8.6944209706853126 2.7262437427416435 6.605299877759534 4.8036063764011478 4.3296324608963932 11.676677316776479 19.013959114614408 6.1310445421840987 5.3654242925113049 2.5813804331119163 4.5681485910899937 3.7370941638364448 28.438831703038886 6.4313378065708084 6.1459521842189098 5.4062350893509556 3.2538849335978739 4.4712672400055453 4.6537913375650533 8.8292949445312825 2.0829688260564581 5.1242610422195849 3.7166675757616758 4.6679486157372594 3.6708061267272551 5.0426708641462019 7.3444627474527806 4.6202573227928951 8.1187227082555165 2.2449655128293671 2.7870523685705848
leaf_count=920 104 319 57 148 36 270 85 190 1105 210 248 221 167 205 511 1536 235 173 275 217 498 117 304 559 724 280 180 106 315 164 1378 223 582 356 207 300 220 336 213 383 181 387 259 218 247 339 545 175 265
internal_value=3.00555e-05 -0.00833316 -0.0038079 0.00732411 0.00471883 0.01021 -0.0114313 0.0149566 -0.016254 3.23473e-05 0.0181018 0.00331882 0.0052073 0.00995123 -0.01836 -0.0150625 -0.000846759 -0.00505066 0.0151317 0.00606414 0.00164874 -0.0023396 -0.00448161 0.00441771 0.0227431 0.00914318 0.00279562 1.52246e-05 0.00739572 0.00663903 0.0167795 0.00659659 -0.009091 -0.00181936 -0.0032369 -0.0040324 -0.00613912 -0.00728118 -0.00261536 0.00247374 0.0104391 0.00293443 0.0012806 -0.0233187 -0.0137944 -0.0029048 0.0121233 0.00583325 0.00611706
internal_weight=358.172 166.459 111.59 191.713 150.165 73.0679 59.5912 41.5479 54.8685 25.7854 35.3304 4.99467 51.9993 30.7553 49.8738 45.4879 77.0973 43.002 47.2824 18.5577 20.1525 21.2441 13.5472 34.0953 24.7577 17.8077 16.4404 31.0197 7.14953 12.8192 43.5646 15.1258 10.4756 16.2875 23.8702 7.71278 10.06 19.9999 3.71783 10.6231 9.08209 10.5727 14.1032 29.8739 11.9823 8.29106 10.845 7.36923 7.455
internal_count=17293 7488 4993 9805 7843 3667 2538 1962 2495 1308 1772 325 2455 1646 2170 1855 4176 2526 2359 1272 1589 809 1091 1650 872 839 692 2106 421 525 1876 498 886 811 1685 510 576 847 483 765 361 900 683 1323 420 598 762 558 652
is_linear=0
shrinkage=0.03


Tree=14
num_leaves=50
num_cat=0
split_feature=23 23 22 9 9 22 19 21 12 1 12 9 0 22 27 29 12 30 12 26 12 23 12 0 14 22 1 12 29 29 28 1 26 29 29 31 29 28 23 21 26 1 21 21 1 23 22 26 29
split_gain=24.7194 7.42903 7.12918 3.7819 3.57604 4.56439 4.39922 4.29761 4.30045 3.21215 2.85566 2.65095 2.31876 2.52523 2.4626 2.23518 2.11708 2.08274 2.05645 1.70754 2.06904 1.6444 3.3207 1.32783 1.30939 1.22244 1.196 1.13252 1.11452 1.01221 0.925405 0.910147 0.760505 2.34402 1.48441 1.11949 0.722398 0.910179 0.698084 0.650398 0.638353 0.489605 0.422207 0.563586 0.396167 0.357292 0.35544 0.310148 0.277642
threshold=0.040907280461646663 -0.032210633380695845 0.055734825977929899 0.38125000000000003 0.54375000000000007 -0.0094474528925847494 0.74679487179487192 -0.010935440473293144 -0.056521739130434782 0.16184405948905897 -0.065217391304347824 0.48125000000000001 0.44931181377721768 0.039636206277535425 0.48684210526315791 0.10910470104088986 -0.039130434782608685 0.19453913177648727 -0.034782608695652188 0.17116377551250278 -0.049999999999999982 0.17653600182347415 -0.0043478260869564958 -0.25319308696127985 -1.0000000180025095e-35 -0.070733726590027565 0.16761884886208098 -0.043478260869565181 0.15592594617523603 0.35887012646138444 0.047165775401069525 0.16441906326904746 0.027935294002296624 0.17942980356042035 0.29945894840399562 0.1227416076518198 0.2625964087572159 -0.063286264441591772 0.016679953091088915 -0.027854256338942476 -0.23720370038357794 0.1458865332749173 -0.025860071295243505 -0.0023571145131243694 0.13253055569584718 0.056295329532077394 0.064826180702632005 -0.21991822613342252 0.4158167733204664
decision_type=2 2 2 2 2 2 2 2 2 2 2 2 2 2 2 2 2 2 2 2 2 2 2 2 2 2 2 2 2 2 2 2 2 2 2 2 2 2 2 2 2 2 2 2 2 2 2 2 2
left_child=1 9 4 12 5 21 17 19 -9 15 -5 27 14 -14 16 -1 -3 -6 -10 20 -7 25 -23 30 -17 -2 -22 -4 45 40 -12 -15 42 35 -35 -34 37 46 -16 -21 -19 -30 -27 -44 -26 -20 -25 -29 -24
right_child=2 3 11 10 6 7 -8 8 18 -11 23 -13 13 31 38 24 -18 29 28 39 26 22 48 36 44 32 -28 47 41 -31 -32 -33 33 34 -36 -37 -38 -39 -40 -41 -42 -43 43 -45 -46 -47 -48 -49 -50
leaf_value=0.0087102153500837037 0.02002612685334695 -0.022037803449752567 -0.020355978808451712 0.012251146462621237 -0.0010068336401330062 0.021104037396296262 -0.0055542573987593241 -0.017096333552395582 0.013056485253216366 -0.022649770895320262 0.011514811591352746 0.0057905363033594198 0.012287263626244178 -0.012084213499551496 0.0053699791397725958 -0.015650514783816599 -0.0052797847534565004 0.0028994077220028899 -0.0027128543513813162 -0.0072160296967008477 -0.0058485255674759441 -0.0066541606123187193 0.01288035396941151 0.0042173405210543941 0.004736688878761032 0.013659763478450175 0.0075320885820778392 0.0028172003641384184 0.00054843523897312851 0.0018754736443341335 -0.0022888651381091055 0.0022622197555123781 -0.0027892077267691702 -0.012858152617377022 0.0040199941707238932 0.014053461668996309 0.0015069535712326717 -0.011850477173445874 -0.004998210691794942 0.004325877521001136 0.024519713066741219 -0.0099267675367746867 -0.0030642576817834781 0.0070365465144851709 -0.0040390633590721304 0.0063595769154601882 -0.0038182810318499421 -0.0052549802549807807 8.1701078381604846e-05
leaf_weight=3.3977247590082689 15.270183988614006 14.672894620802248 5.9710654309019455 11.981654345989226 3.4972610925906329 6.1263825176283779 4.7149157554958938 12.536196259316055 3.9416500180959728 31.594453370897099 3.4383708108216506 4.4154328651493406 4.9873054730123823 3.9635430189664476 6.0909059942932782 5.8347300118766716 17.626748866576239 3.0960984136909238 1.7281249217921884 4.2567625360679813 4.5573992359568356 12.335943538229913 10.103730174421797 3.9599707767483769 3.3521976908668867 18.865698237263132 8.9389502750127559 2.4211896061897287 4.7171374782337798 3.3327118786983183 5.1040668484638445 3.9732018743525259 2.5048760087811406 4.7382706199423392 4.4436924218898639 7.2709939961787313 8.1056667709490267 10.719111934304243 5.3473577449913137 2.5180492961080736 25.94580278755166 8.5585972984554228 3.9968572145444341 6.0133616318926233 3.2327701596659608 6.4808821203187108 3.8817001414718106 4.3639608817757107 1.7700981413945562
leaf_count=142 786 129 46 59 142 56 166 85 92 1271 214 261 221 152 323 243 1252 157 228 262 379 161 949 241 146 794 676 148 214 142 303 226 189 170 193 518 379 972 228 166 1311 466 281 259 208 693 221 357 59
internal_value=0.000454295 -0.00859606 0.00704835 -0.00367759 0.00873877 0.00618016 0.0162729 3.11903e-05 -0.0060809 -0.0177463 0.00246213 -0.00924017 -0.00853714 0.00196385 -0.0115027 -0.0044165 -0.0151523 0.0195266 0.0015773 0.00831936 0.0119695 0.0104192 0.00284829 -0.00216783 -0.00967513 0.0128243 0.0026044 -0.0146309 -0.00291923 0.0215554 0.00572568 -0.00702029 0.00854947 0.00267214 -0.00632927 0.0103184 -0.00528369 -0.00789291 0.000470886 -0.00290925 0.0231059 -0.00719257 0.0112846 0.00336658 0.000556752 0.00411062 0.00030874 -0.00240421 0.0116403
internal_weight=360.697 151.264 209.432 103.852 192.261 151.674 40.5868 64.3601 37.9626 47.4119 47.1905 17.1716 56.662 12.9241 43.7379 15.8174 32.2996 35.8719 25.4264 26.3975 19.6227 87.3137 24.2098 35.2089 12.4197 63.1039 13.4963 12.7562 21.4847 32.3746 8.54244 7.93674 47.8338 18.9578 9.18196 9.77587 26.6664 18.5608 11.4383 6.77481 29.0419 13.2757 28.8759 10.0102 6.58497 8.20901 7.84167 6.78515 11.8738
internal_count=17336 6930 10406 4920 9594 7676 1918 3317 1778 2010 2389 812 2531 599 1932 739 1381 1752 1693 1539 1111 4359 1169 2330 597 3190 1055 551 1601 1610 517 378 2404 1070 363 707 1813 1434 551 428 1468 680 1334 540 354 921 462 505 1008
is_linear=0
shrinkage=0.03


Tree=15
num_leaves=50
num_cat=0
split_feature=21 1 29 22 22 31 1 25 26 29 19 31 25 26 26 21 9 19 9 22 25 21 10 28 25 31 9 14 21 29 22 0 28 9 25 21 28 22 29 29 26 0 31 31 26 19 25 29 25
split_gain=19.8363 5.70698 4.36217 4.16548 3.99417 3.93322 3.30509 3.31793 3.36951 3.67579 3.29231 3.19869 2.533 2.42021 2.70546 2.14339 2.23867 1.8392 1.82873 2.31923 1.66624 1.73687 1.68753 1.6317 1.57126 1.40134 1.27064 1.24976 1.80715 1.33972 1.16865 1.07114 1.03779 1.34356 1.01181 0.862507 0.776926 0.763216 0.680494 0.637674 0.544081 0.538076 0.512799 0.695269 0.462974 0.929431 0.445265 0.436432 0.43078
threshold=0.0094632282680998953 0.16348374738545599 0.22848127655934922 -0.016859756789619759 0.049500555316710361 0.2393117998653847 0.29931142802200522 -0.074050024050024046 -0.10963030195265593 0.26826605645638008 0.75337837837837851 0.12434756023333178 -0.26282392026578066 -0.48027039950412614 -0.36955966915636512 -0.016121912246511157 0.15625000000000003 0.40270270270270275 0.3312500000000001 0.023024569924802733 0.45339912280701761 0.0054163803501523231 1.0000000180025095e-35 -0.01987654320987654 0.033333333333333375 0.13800483543862904 0.38125000000000003 0.027863777089783274 0.047455403912103546 0.22906549832048204 0.011401552083697338 0.28595534726011568 -0.13608510638297869 0.50625000000000009 0.032282878411910632 -0.074493306123135108 0.072871572871572879 -0.025273296698960859 0.29945894840399562 0.16255317568422023 -0.69909482380168486 -0.059554109615288744 0.30204560856904755 0.36558182145946722 0.2200979627536275 0.21651785714285718 -0.0039607843137255449 0.39025518789317498 0.22695889166477398
decision_type=2 2 2 2 2 2 2 2 2 2 2 2 2 2 2 2 2 2 2 2 2 2 2 2 2 2 2 2 2 2 2 2 2 2 2 2 2 2 2 2 2 2 2 2 2 2 2 2 2
left_child=2 4 10 25 5 18 7 38 17 -10 11 15 35 -6 -15 16 34 -9 19 -2 21 22 -13 -11 -20 -3 46 40 32 -30 -17 41 -29 36 -1 -12 -34 -19 -4 -38 -5 -28 -7 -44 45 -18 -16 -40 -24
right_child=1 3 6 27 13 42 -8 8 9 23 12 20 -14 14 26 30 44 37 24 -21 -22 -23 48 -25 -26 -27 31 28 29 -31 -32 -33 33 -35 -36 -37 39 -39 47 -41 -42 -43 43 -45 -46 -47 -48 -49 -50
leaf_value=-0.0095242447223277803 0.0085290694872832973 -0.0055204291800033433 -0.017369836793893933 -0.0029079358313197487 -0.017563868132489002 -0.012550760231086939 0.012812680746257512 0.0036042692900289104 -0.0075548723342568919 -0.00089120039427432638 0.013344339565849803 0.020950577658644973 -0.012107955097416861 0.010857329249358614 -0.00074951281113542535 0.0035689344024393463 -0.00089981271925479065 -0.00063063714323482068 0.0024215325065076901 -0.0087958732258515953 -0.00058543966482166884 -0.0013914918488400335 0.0077997605272500103 0.018093022422799438 0.020349643620478183 0.01022704313814024 0.0020387836291348251 0.0078556760913978223 -0.017658198885332987 -0.0001076122295573247 -0.0096094307668708589 0.007169469991190113 -0.013205604684621586 0.004527126581786757 0.0044406545192565688 -0.0025362212508563756 0.0061562278855654858 -0.015744637978492106 0.0023277626251654165 -0.0053733155012701522 -0.019496644031758027 -0.0080922269521155783 0.0054127156141979705 -0.0062203485875534066 0.00044339333347775641 0.017222270823626516 -0.013488291470182961 -0.0069594315687181042 -0.0025982471298886629
leaf_weight=3.4496935892966603 9.6358818606822769 3.9190857020439562 6.2511544674634925 4.2951595048652953 9.0830081666354072 4.2480346538941358 9.7504775460693036 7.6165425161016165 5.4189377441071036 4.4759943496901569 2.0181720199761912 42.391146904032212 6.4469402173417603 4.9931823062361209 3.7833071295754062 6.5952551146037859 2.2941603483632234 4.6096502500004144 8.7299283473985287 6.5779826934449366 5.0222859185305415 3.6596270730951792 15.909385809383823 13.315659342042634 9.3931024374905956 5.8326494532520883 4.3843533865292557 2.7232157951802973 12.455047635536177 5.062156915664672 7.5827310716849752 5.2492768106749272 6.0209657431114483 6.0664893097709855 4.1785876578069292 2.3936994685791433 2.3347707509528846 6.80051197716966 4.4390811386401747 2.9667429268010892 35.882591217115987 6.6276213885284978 2.9718124913051724 3.6471384438336827 2.6148685934604137 12.182823276089037 10.261998678732198 3.5990603435784578 1.2994822678156186
leaf_count=154 377 145 117 53 143 152 295 195 197 198 69 2069 254 99 230 452 123 178 494 192 86 293 1843 395 202 288 194 118 667 206 470 367 344 374 172 263 201 228 205 144 1822 351 139 200 167 814 340 150 144
internal_value=5.54921e-05 -0.00699344 0.0068371 -0.0121826 -0.00147542 0.00452253 0.000570336 -0.00256824 0.00196365 0.00869116 0.010158 0.0117069 -0.00385544 -0.00739542 -0.00260741 0.00398978 0.00861665 -0.00635931 0.00921336 0.00102302 0.0154257 0.0166374 0.0177705 0.0142967 0.0144639 0.00420623 -0.00625347 -0.0143907 -0.00824065 -0.0139078 -0.00424079 -1.62963e-05 -0.00124314 -0.00431776 -0.0032874 0.00823185 -0.00898339 -0.0119603 -0.0125832 0.000276919 -0.0183315 -0.00476218 -0.00830423 -0.000907103 0.0134033 0.0149283 -0.0113083 -0.00302777 0.00654586
internal_weight=361.461 177.146 184.316 87.5589 89.5866 45.2039 66.2771 56.5266 42.2373 23.2106 118.039 107.18 10.8588 44.3827 35.2997 38.8981 24.7201 19.0267 34.3369 16.2139 68.2819 63.2596 59.6 17.7917 18.123 9.75174 30.3066 77.8071 37.6294 17.5172 14.178 16.2613 20.1122 17.389 7.62828 4.41187 11.3225 11.4102 14.2893 5.30151 40.1778 11.012 10.867 6.61895 17.0919 14.477 14.0453 8.03814 17.2089
internal_count=17373 7842 9531 4362 3480 1756 2158 1863 1391 790 7373 6787 586 1724 1581 2352 1430 601 1265 569 4435 4349 4056 593 696 433 1482 3929 2054 873 922 912 1181 1063 326 332 689 406 472 345 1875 545 491 339 1104 937 570 355 1987
is_linear=0
shrinkage=0.03


Tree=16
num_leaves=50
num_cat=0
split_feature=21 23 9 12 23 31 25 25 12 10 30 12 9 12 29 21 27 31 0 12 27 29 23 21 29 31 30 31 29 3 27 9 21 25 23 9 9 31 31 30 29 23 23 31 31 0 0 21 29
split_gain=21.1291 6.17266 7.81713 5.50416 4.82017 6.26076 5.87177 3.81456 4.4453 3.07556 2.72281 2.65044 2.38524 2.08669 2.05264 2.03057 2.27487 2.01591 1.67757 1.48228 1.37012 1.2038 1.2034 1.07927 0.959861 0.918268 0.915764 0.873475 0.803778 0.698687 0.696206 0.618935 0.570666 0.547206 0.546527 0.472614 0.97572 0.402115 0.370876 0.36854 0.343298 0.340157 0.3202 0.316261 0.285788 0.277572 0.22343 0.333545 0.222612
threshold=0.0085842899268762946 -0.032210633380695845 0.38125000000000003 -0.069565217391304376 0.10730540913631899 0.2291749893235179 -0.20151412429378529 -0.074050024050024046 -1.0000000180025095e-35 1.0000000180025095e-35 0.65916703422319844 -0.026086956521739087 0.58125000000000016 -0.060869565217391279 0.17437846251254016 -0.0081117065331798004 0.44722222222222224 0.28039490053523569 -0.092970762311862687 -0.017391304347826094 0.28991596638655465 0.11609342259962446 0.069066622146942799 0.064137279104436548 0.39025518789317498 0.14122013328532548 0.39956762622902187 0.36909746784190967 0.12865984477004952 -0.99906249959996896 0.58571428571428574 0.28125000000000006 -0.011557976556685749 -0.022611077297626306 0.021783338387515953 0.29375000000000001 0.15625000000000003 0.091855352464464718 0.059411530577071228 0.27800448619763612 0.22234989742603159 0.053516577833200858 0.13112808436853299 0.16576197725342551 0.16938694804242452 0.16779546573695278 0.39151871223907247 0.04481579821887894 0.12535676895336492
decision_type=2 2 2 2 2 2 2 2 2 2 2 2 2 2 2 2 2 2 2 2 2 2 2 2 2 2 2 2 2 2 2 2 2 2 2 2 2 2 2 2 2 2 2 2 2 2 2 2 2
left_child=4 20 10 -4 5 12 -7 8 -6 17 11 -3 13 -1 22 16 21 -8 27 -20 28 37 31 29 -23 -12 -16 -5 -2 -13 44 -15 -11 41 40 36 -22 -9 -28 -14 -21 -31 -10 -24 -18 -25 47 -36 -33
right_child=1 2 3 18 7 6 9 15 42 32 25 23 39 14 26 -17 30 -19 19 34 35 24 43 45 -26 -27 38 -29 -30 33 -32 48 -34 -35 46 -37 -38 -39 -40 -41 -42 -43 -44 -45 -46 -47 -48 -49 -50
leaf_value=-0.014196537355787811 -0.0040834995688602159 -0.017787047080420774 0.01754532742444986 0.0086108344292859015 -0.008372269403221267 -0.0094027395109075786 0.0045434555752556999 -0.0042305863179106108 0.00036242019879534739 -0.0053889729440410828 0.0092467894119793431 0.0033041861719198965 -1.4201044992002652e-05 -0.007858711050643603 -0.013198086551470849 -0.002120794114686343 0.0024190979214575958 0.026687921413695873 -0.012840333466270564 -0.006487196965217509 -0.0066671599991434518 0.023345999619759951 0.010558018083173271 0.0067293260830149932 0.002509236504760471 -0.0041635184367155463 0.0040013173334042416 -0.0040385313570352726 -0.022526610556998911 -0.003961386773242502 0.0085462214428790994 -0.0019652153529329626 0.0048397628798702765 -0.010501407674994547 0.0074960687334681177 -0.011362051155637253 0.005234792914554148 0.0055178689561599078 -0.0038179265901996796 0.0097167678277736026 0.001292266373273966 0.0044123526586405757 0.012684737144846641 -0.00029667172691368764 -0.0051811277176879679 -0.0018241717448402818 -0.0018674041136260947 -0.001491241329543044 0.005717368054368524
leaf_weight=13.654493783600627 5.6265366852749166 30.397721756249666 13.456490352749823 11.775751431647221 13.679105982650073 5.9730315016931845 8.163780216884339 1.5652181098121212 2.5049359558615825 3.6023828141042031 4.3664195945602833 2.1156813129782739 4.9496787220123206 3.9272312466055173 7.2807392376707893 3.9365587661159216 3.5452656918205303 13.311929434712509 7.6878110975958434 7.4504447347717377 8.4947234439314361 33.835931570269167 9.2380624080542457 3.6304421256645574 3.7293287813663474 3.5595149208675139 3.208150407066567 2.7566953495843327 22.037812268186826 3.2111099218600492 6.7407631002715789 1.8638805606169624 4.0515421055024481 16.974359043932051 5.9721743092522939 5.3230334210675201 5.2055036526871836 1.9083174816914832 7.7953972265822813 5.8397104202304035 5.5107798157841899 2.3002761662355624 13.279430055874398 2.4894199228147036 3.3695339736877941 2.1037744216737337 2.157635298324748 2.9201953504234552 2.2122494918876328
leaf_count=74 503 256 66 710 221 317 230 154 197 407 156 73 267 278 387 149 186 596 154 725 286 1356 672 229 167 258 168 164 720 379 331 209 392 1234 412 262 228 454 390 289 249 210 1116 195 149 200 230 187 129
internal_value=7.52132e-06 -0.00734227 -0.00359888 0.00414295 0.00694976 0.00213084 0.0112905 0.0118104 0.002337 0.0164149 -0.0101212 -0.0121633 -0.00355534 -0.00621268 -0.00180068 0.0159121 0.0172913 0.0211004 -0.00132542 -0.00495844 -0.0160513 0.0205374 0.00434685 -0.00452142 0.0219079 0.00402522 -0.00786951 0.00573238 -0.0201719 -0.00700335 0.00424468 -0.00332185 -0.000227034 -0.00846487 -0.000372268 -0.00665913 -0.0019279 0.00122782 -0.000930693 0.00684291 -0.0038173 1.17255e-05 0.0113676 0.00893331 -0.0019709 0.00426306 0.00358994 0.00513297 0.00312602
internal_weight=360.691 175.035 128.347 59.688 185.656 97.5617 35.1027 88.0944 29.4635 29.1296 68.6593 60.7334 62.459 51.6696 38.0151 58.6309 54.6944 21.4757 46.2315 31.699 46.6876 41.0388 19.7308 30.3356 37.5653 7.92593 18.2843 14.5324 27.6643 24.6014 13.6556 8.00336 7.65392 22.4857 24.0112 19.0233 13.7002 3.47354 11.0035 10.7894 12.9612 5.51139 15.7844 11.7275 6.9148 5.73422 11.05 8.89237 4.07613
internal_count=17371 7891 5892 2897 9480 5000 1942 4480 1534 1625 2995 2581 3058 2502 2428 2946 2797 826 2831 1957 1999 2131 1483 2325 1523 414 945 874 1223 1896 666 616 799 1823 1803 776 514 608 558 556 974 589 1313 867 335 429 829 599 338
is_linear=0
shrinkage=0.03


Tree=17
num_leaves=50
num_cat=0
split_feature=23 23 9 21 22 9 1 25 23 29 19 30 21 29 23 29 3 22 3 29 29 26 23 29 25 25 29 1 23 23 25 25 1 1 31 23 23 9 16 16 31 16 22 14 31 27 23 1 16
split_gain=18.9614 6.5174 5.11752 7.74239 6.04482 3.75385 3.29975 3.52466 4.8912 3.62478 2.88509 2.79607 2.36177 2.32241 2.1132 2.6771 2.26548 2.05172 1.89959 1.88793 3.44673 1.80212 1.54155 1.53957 1.47832 2.02719 1.5957 1.31151 1.2763 1.22334 1.947 1.21757 1.19102 1.6765 1.37371 1.04985 0.97366 0.906596 0.75653 0.710568 0.64948 0.62422 0.587462 0.534877 0.513994 0.50284 0.403679 0.392466 0.301028
threshold=0.041495155552486375 -0.032210633380695845 0.54375000000000007 -0.012524185490324384 -0.016038858643671518 0.38125000000000003 0.33099807960522226 -0.069528371407516609 0.10730540913631899 0.12356169512951178 0.74679487179487192 0.21351229687405363 -0.027854256338942476 0.10754673902420396 -0.0085032902041850805 0.13888243081675203 -0.95039003798526889 -0.0059073376775813638 -0.99999991679402389 0.12647274346710657 0.19693224272367685 -0.17295494960996935 0.094763781990131149 0.35887012646138444 0.20805405405405411 0.14088319088319093 0.2951103724054524 0.13253055569584718 0.10194058582917055 0.18939877353440907 -0.010790020790020791 -0.19378858024691356 0.14061662441845582 0.12791597063965957 0.20044849996549516 -0.011167911934834599 0.22315404675740672 0.24375000000000002 -0.073960113960113941 -0.28870673952641163 0.20590387640219901 -0.20158730158730157 -0.014806731239966451 0.047727272727272736 0.081837465722161232 0.34166666666666673 0.063191636243601398 0.20696580766548825 -0.12476415094339621
decision_type=2 2 2 2 2 2 2 2 2 2 2 2 2 2 2 2 2 2 2 2 2 2 2 2 2 2 2 2 2 2 2 2 2 2 2 2 2 2 2 2 2 2 2 2 2 2 2 2 2
left_child=1 13 3 6 22 14 7 12 9 -9 11 -4 31 -1 35 16 -16 -18 -7 48 -21 -22 -5 38 25 26 32 -15 45 30 -10 -2 33 -6 -34 -3 -33 -31 -13 -32 44 -17 -29 -19 -23 -11 -28 -36 -20
right_child=2 5 10 4 24 18 -8 8 29 28 -12 23 -14 27 15 41 17 43 19 20 21 40 -24 -25 -26 -27 46 42 -30 37 39 36 34 -35 47 -37 -38 -39 -40 -41 -42 -43 -44 -45 -46 -47 -48 -49 -50
