tree
version=v4
num_class=1
num_tree_per_iteration=1
label_index=0
max_feature_idx=35
objective=binary sigmoid:1
feature_names=z_line min_cv is_combo bp_score_gated bp_has is_assists is_threes games_norm thin_flag line_norm is_home_feat min_sensitivity game_total_norm is_b2b l20_edge l10_has margin stat_cat tier_cat l40_hr logit_p_x_demon player_te player_stat_te player_dir_te player_n_norm line_dist tail_risk line_tightness margin_x_under q_blowout rate_cv abs_logit_p q_x_under fragility_feat opp_defense_rel role_ctx_mult_feat
feature_infos=[-5:5] [0.020874206951156524:0.69281718933281522] [0:1] none [0:1] [0:1] [0:1] [0:1] [0:1] [0.012500000000000001:1.6125] [0:1] [0.45000000000000001:1] [-0.11086956521739133:0.076086956521739024] [0:1] [-0.5:0.5] [0:1] [-0.5:0.5] -1:0:4:1:5:7:6:2:3 -1:2:1:0 [-1:1] [-3.4760986898352733:2.142443155345191] [-0.21539929500425428:0.28129748085571904] [-0.18935365260726875:0.22244699508586718] [-0.29290315858931393:0.32883392082978813] [0.0050000000000000001:1] [-0.5:0.5] [-2.4515166274847977:3] [0:1] none [0.13176036764838489:0.69248593993830565] [0:2] [0:3.4760986898352733] none [0:0.29999999999999999] [-0.1536389458437428:0.1165819070025431] [0:0.082384502812711036]
tree_sizes=3334 3381 3362 3371 3411 3386 3377 3408 3405 3379 3355 3372 3375 3425 3420 3379 3391 3403 3406 3413 3400 3419 3385 3419 3420 3414 3418 3425 3404 3399 3423 3423 3436 3407 3410 3420 3423 3418 3434 3417 3433 3450 3443 3418 3440 3408 3440 3432 3449 3441 3421 3413 3436 3443 3438 3420 3435 3422 3445 3434 3438 3453 3432 3448 3425 3437 3444 3429 3439 3426 3437 3412 3430 3443 3437 3454 3431 3413 3419 3422 3424 3432 3413 3404 3425 3438 3437 3456 3405 3434 3428 3441 3438 3418 3447 3422 3429 3430 3442 3430 3417 3418 3419 3432 3457 3433 3428 3463 3433 3448 3412 3421 3404 3429 3422 3293 3413 3428 3429 3439 3450 2643 3449 3446 3430 3448 3444 3432 3445 3463 3430 3452 3429 3429 3436 3426 3321 3436 3430 3440 3412 3418 3421 3440 3447 3453 3441 3450 3443 3422 3458 3425 3419 3335 3452 3423 3421 3414 3393 3465 2668 3446 3441 3433 2962 3407 3467 3426 3214 3441 3427 3429 3427 3436 3427 3459 3427 3320 2995 3466 3399 2446 3424 3442 3435 3424 3423 3448 2787 3449 3448 3420 3424 3467 3448 3432 3449 3409 2551 3393

Tree=0
num_leaves=30
num_cat=3
split_feature=18 23 23 23 18 21 18 19 31 21 23 0 0 19 0 23 12 25 21 9 33 21 9 23 23 12 1 1 19
split_gain=4411.4 923.034 568.056 238.059 230.476 222.357 171.015 165.359 153.207 152.475 51.6769 49.8924 47.4536 43.4043 42.8433 39.8394 38.3614 36.7989 36.1492 31.0508 27.971 27.85 27.1528 36.2346 25.6897 33.6705 30.2491 36.0631 29.1494
threshold=0 -0.034813280618587898 0.062497007966851072 0.088560500581639071 1 -0.047809896263277772 2 0.26393188854489169 1.0523498554242408 -0.1602124571143615 -0.10484866263393565 -0.70374647139012125 0.058821808866236301 0.27149877149877155 -0.96382609588317536 -0.11135561781701254 0.032608695652173843 -0.13445449406444318 -0.12460321056296016 0.25625000000000003 0.093856136480188715 0.13919264719785249 0.23125000000000004 0.13111311111453303 0.0056955113620266182 -0.056521739130434782 0.15406462892467152 0.13584839503530138 0.62731481481481499
decision_type=1 2 2 2 1 2 1 2 2 2 2 2 2 2 2 2 2 2 2 2 2 2 2 2 2 2 2 2 2
left_child=2 4 5 6 9 14 24 11 17 -2 -6 21 -11 -10 -1 19 20 -7 -16 -14 -17 -4 -9 -24 25 -3 27 -27 -26
right_child=1 3 7 -5 10 8 -8 22 13 12 -12 -13 15 -15 18 16 -18 -19 -20 -21 -22 -23 23 -25 28 26 -28 -29 -30
leaf_value=-0.36257926523851375 -0.34708654676186579 -0.31226020500330315 -0.33690766198038369 -0.27032467269343052 -0.34197535794129202 -0.33620023897451223 -0.30497172982342463 -0.31421075056048103 -0.34949671437874735 -0.31528176006053898 -0.32164731393229046 -0.31625498016762787 -0.30057642144240887 -0.33415502371085665 -0.36254157737340698 -0.29465501982911452 -0.27210686751477847 -0.32430055237123018 -0.34621696341345287 -0.31896031561446075 -0.31802863211832766 -0.31753818747368795 -0.3087127640094266 -0.28492510022431661 -0.2855380828397111 -0.28788041355963701 -0.28237807864204162 -0.31680640796674459 -0.27229090466537642
leaf_weight=488.09786096215248 75.579588860273361 51.44288145005703 405.2041183412075 771.155611500144 218.20558719336987 468.1058406829834 512.72217862308025 138.23750607669353 917.68249183893204 230.39584346115589 232.34628446400166 210.89143343269825 214.06090006232262 206.99055142700672 170.66358774900436 364.97627265751362 60.95128133893013 470.05628168582916 475.41999444365501 134.09281894564629 52.661907076835632 79.968081116676331 122.63397805392742 109.46850128471851 395.6957184523344 115.31982429325581 411.29924647510052 58.269424960017204 259.89626362919807
leaf_count=2002 310 211 1662 3163 895 1920 2103 567 3764 945 953 865 878 849 700 1497 250 1928 1950 550 216 328 503 449 1623 473 1687 239 1066
internal_value=-0.317345 -0.295366 -0.338787 -0.284289 -0.313396 -0.34511 -0.290279 -0.319823 -0.339224 -0.30618 -0.331525 -0.328436 -0.30323 -0.34669 -0.355786 -0.299878 -0.294263 -0.330252 -0.350592 -0.307641 -0.297597 -0.333722 -0.303651 -0.297402 -0.284462 -0.288878 -0.286834 -0.297531 -0.280226
internal_weight=8422.49 4159.07 4263.42 2575.8 1583.27 3197.02 1804.65 1066.4 2062.84 1132.72 450.552 696.064 1057.14 1124.67 1134.18 826.743 478.589 938.162 646.084 348.154 417.638 485.172 370.34 232.102 1291.92 636.331 584.888 173.589 655.592
internal_count=34546 17059 17487 10565 6494 13113 7402 4374 8461 4646 1848 2855 4336 4613 4652 3391 1963 3848 2650 1428 1713 1990 1519 952 5299 2610 2399 712 2689
cat_boundaries=0 1 2 3
cat_threshold=4 2 2
is_linear=0
shrinkage=1


Tree=1
num_leaves=30
num_cat=4
split_feature=18 22 22 22 22 18 22 23 25 19 19 22 19 24 24 18 12 18 19 34 22 22 22 24 27 27 34 29 22
split_gain=4048.48 1334.83 1290.36 308.566 237.252 225.611 178.212 142.022 107.076 94.0448 92.3554 68.8587 62.5016 44.6332 43.1809 41.708 33.1476 32.8109 32.4733 39.6171 29.8915 27.2701 26.8407 25.9476 25.7342 24.8267 24.7526 24.9116 24.231
threshold=0 -0.025033233584345779 0.018376371039353804 0.07029653836454898 0.072003287039144562 1 -0.035091333334792189 -0.18757289218060968 0.31806526806526808 0.25320512820512825 0.26393188854489169 -0.06814160575245036 0.20256410256410259 0.64250000000000018 0.42500000000000004 2 0.0043478260869566085 3 0.65571120689655182 0.028721675626849654 0.037803482142095342 0.13950390456805115 0.010007234892884161 0.96250000000000002 0.53137254901960795 0.59411764705882364 0.0083576071892855017 0.35196326798109645 -0.074848124397941015
decision_type=1 2 2 2 2 1 2 2 2 2 2 2 2 2 2 1 2 1 2 2 2 2 2 2 2 2 2 2 2
left_child=2 7 6 5 9 14 28 16 11 26 13 -9 -8 -6 -3 -5 -2 -13 19 20 -16 -15 -7 -12 -11 -14 -4 -28 -1
right_child=1 3 4 15 10 22 12 8 -10 24 23 17 25 21 18 -17 -18 -19 -20 -21 -22 -23 -24 -25 -26 -27 27 -29 -30
leaf_value=-0.045068282657571908 -0.037157028759004479 0.057202906148444518 -0.020379374089726131 0.052175791360361379 0.031444676053491938 0.0026759773663851505 -0.031349593100353929 -0.013869957116649992 0.017568026330953314 -0.0011740954362916883 0.044883417843747553 0.0077934439609977004 -0.020851502591090594 -0.0031123974166535557 0.020220311029911574 0.037052475014542119 -0.010067014338474588 -0.0076218154282448464 0.037672506173490827 0.04111732734577566 0.034569260089827608 0.017118473181125356 0.015837865101356079 0.022355719815268224 0.019154872722281342 -0.0052394849153272957 0.00086898078771467343 -0.021323346170884126 -0.03699421143678841
leaf_weight=699.31211973726749 118.56342414021492 62.927429378032684 433.3875902146101 607.31644561886787 49.14119927585125 237.15777103602886 633.62976089119911 386.59697502851486 259.32736383378506 325.03989541530609 62.028023540973663 368.1622110158205 391.85444416105747 280.1837246119976 460.62775474786758 242.99084267020226 63.040326341986656 186.39066632091999 501.94987618923187 162.3550655990839 186.91720649600029 75.225729539990425 339.10126699507236 192.6962708979845 66.69520016014576 120.64515364170074 121.71558214724064 71.653108283877373 740.76864573359489
leaf_count=2884 488 257 1784 2476 202 972 2611 1584 1060 1335 254 1506 1612 1152 1882 992 259 765 2049 663 763 309 1388 789 274 496 501 295 3053
internal_value=-5.07924e-05 0.0209142 -0.0206198 0.0328136 -0.000128491 0.0262163 -0.0339081 -0.00321098 0.000537898 -0.00920187 0.0138814 -0.0041683 -0.0250402 0.00494731 0.0328188 0.0479026 -0.0278599 0.00260783 0.0316064 0.0278051 0.0244091 0.00120567 0.0104351 0.0279955 0.00232699 -0.0171937 -0.0163999 -0.00742182 -0.0409436
internal_weight=8447.4 4183.42 4263.98 2801.34 1677.77 1951.04 2586.21 1382.08 1200.48 1018.49 659.275 941.15 1146.13 404.551 1374.78 850.307 181.604 554.553 1311.85 809.9 647.545 355.409 576.259 254.724 391.735 512.5 626.756 193.369 1440.08
internal_count=34655 17104 17551 11442 6895 7974 10656 5662 4915 4189 2706 3855 4719 1663 5614 3468 747 2271 5357 3308 2645 1461 2360 1043 1609 2108 2580 796 5937
cat_boundaries=0 1 2 3 4
cat_threshold=4 2 2 2
is_linear=0
shrinkage=0.03


Tree=2
num_leaves=30
num_cat=5
split_feature=18 22 22 22 22 18 22 22 19 19 24 18 18 26 1 18 22 9 9 24 22 23 25 23 0 23 26 23 22
split_gain=3882.68 1242.09 1179.35 276.506 262.545 204.649 151.311 134.856 96.6405 94.9694 94.0912 84.605 72.512 69.8728 47.9159 44.0565 42.8891 40.2553 33.9139 31.4882 30.7254 30.3537 30.0474 27.1752 26.2799 26.1338 25.9435 24.5287 23.2446
threshold=0 -0.020178062992880049 0.0070972272868468364 0.070951609037926591 0.07029653836454898 1 -0.059809811854728522 -0.045572514603105817 0.22540322580645164 0.24662162162162166 0.60250000000000015 2 3 0.8555919922750479 0.26620837214289994 4 -0.093422409153828614 0.30625000000000008 0.13125000000000003 0.88250000000000017 0.11569013056113132 0.025122576498480906 0.28722610722610731 0.10752937748833004 0.042920274764121212 -0.093548280605986897 1.2395550360683796 0.035222752924898827 0.14728745631869497
decision_type=1 2 2 2 2 1 2 2 2 2 2 1 1 2 2 1 2 2 2 2 2 2 2 2 2 2 2 2 2
left_child=2 6 7 8 5 17 10 -1 26 14 -2 22 16 -9 20 -6 -12 -3 -10 -11 -5 -7 -8 -17 -18 -13 27 -4 -21
right_child=1 4 3 9 15 21 11 13 18 19 12 25 -14 -15 -16 23 24 -19 -20 28 -22 -23 -24 -25 -26 -27 -28 -29 -30
leaf_value=-0.041345812330871791 -0.032717999374907131 0.037537347212976087 -0.020633424629553414 -0.0090896549946510082 0.050875001400214184 0.005611747743399482 0.010603395819732723 -0.020574934627901397 0.017274672296158759 0.042148471596206868 -0.0095806323931136202 -0.02270074507150301 -0.021927748494198138 -0.036027816779643611 0.025603741168745163 0.023770640082860606 -0.010574497183433323 0.026725086796720532 -0.0046342235741021936 0.014353983477841385 0.0097960577413095246 0.020562012105604956 0.026571626037372245 0.044375194651933292 0.012567099839829643 0.00026129791652996598 -0.027618828569458877 -0.0070156110004416404 0.037490686629837858
leaf_weight=1223.4661173075438 136.09758681058884 726.88738869130611 280.60601243376732 209.97353178262711 611.52096743881702 353.22337466478348 334.96962849795818 660.20783945918083 73.594168037176132 71.187799647450447 217.40725539624691 66.000487089157104 176.28805801272392 445.04191718995571 66.302940115332603 107.57268241047859 53.913484022021294 567.24099843204021 430.18254585564137 188.31912381947041 121.60845786333084 186.83494628965855 156.05326578021049 135.89291547238827 227.8761719763279 133.41453102231026 205.54074093699455 208.80317680537701 49.35141122341156
leaf_count=5083 561 2954 1160 864 2477 1446 1368 2728 302 290 891 272 726 1845 272 438 221 2307 1769 770 499 762 636 551 932 547 850 861 201
internal_value=0.000108451 0.0205755 -0.0201509 -0.00264468 0.0327774 0.0263512 -0.00127756 -0.0344681 -0.0114163 0.0122282 -0.0100543 0.00903876 -0.00544636 -0.0268242 0.00252356 0.0465165 0.000406135 0.0328224 -0.00140578 0.0246816 -0.00215465 0.0108123 0.015722 0.0354058 0.00811779 -0.00741381 -0.0186605 -0.0148496 0.0192952
internal_weight=8425.38 4191.19 4234.19 1905.47 2689.17 1834.19 1502.02 2328.72 1198.73 706.743 811.583 690.438 675.485 1105.25 397.885 854.987 499.197 1294.13 503.777 308.858 331.582 540.058 491.023 243.466 281.79 199.415 694.95 489.409 237.671
internal_count=34583 17089 17494 7838 10935 7469 6154 9656 4942 2896 3331 2823 2770 4573 1635 3466 2044 5261 2071 1261 1363 2208 2004 989 1153 819 2871 2021 971
cat_boundaries=0 1 2 3 4 5
cat_threshold=4 2 2 2 2
is_linear=0
shrinkage=0.03


Tree=3
num_leaves=30
num_cat=4
split_feature=18 22 22 22 22 18 22 18 26 19 22 24 18 19 24 25 34 34 1 22 19 22 22 26 24 24 24 9 29
split_gain=3697.08 1119.76 1116.75 299.368 223.912 198.321 176.879 103.897 102.78 90.1579 89.7299 71.6149 53.4313 49.5115 45.4695 41.0325 39.998 33.9505 43.6582 29.4728 34.4497 27.2434 26.6028 29.1875 25.1081 25.0919 24.5927 24.282 24.2217
threshold=0 0.030147366372530352 -0.027870892326343873 0.05662270260302283 -0.031222323478014232 1 0.092003607367394005 2 0.64871485683684094 0.26006441223832533 -0.071904852861285493 0.68250000000000022 3 0.267948717948718 0.42500000000000004 0.36666666666666675 -0.033685472215323246 0.026412828557311505 0.15257863258670504 0.014347212802425876 0.6478537360890303 -0.11970799314142068 -0.074848124397941015 0.78020248391280445 0.96250000000000002 0.57000000000000017 0.72250000000000003 0.23125000000000004 0.22898438501452836
decision_type=1 2 2 2 2 1 2 1 2 2 2 2 1 2 2 2 2 2 2 2 2 2 2 2 2 2 2 2 2
left_child=1 4 7 5 22 14 9 10 27 25 11 -2 -5 16 -4 -12 -8 19 -19 20 -16 -13 -1 -24 -11 -3 -9 -6 -21
right_child=2 6 3 12 8 -7 13 26 -10 24 15 21 -14 -15 17 -17 -18 18 -20 28 -22 -23 23 -25 -26 -27 -28 -29 -30
leaf_value=-0.043265826080786655 -0.031714462195382494 0.0076772595283840167 0.054115764502641696 0.047769546550892217 -0.0054683756382570342 0.0079250673600732083 -0.012629396828984353 -0.031153837161183275 -0.029366671470763828 0.020112618617861764 0.0058803832255390582 -0.014780550315839119 0.032274782655321271 0.030151587850366368 0.012666249470659625 0.025290522606314054 0.015470990433736885 0.020946637511618838 0.047802844003881857 0.021447783039323941 0.028767072246044797 0.0039526878456229934 -0.02945383295164157 -0.041635466317608359 0.0019445349867725456 -0.014242275398418004 -0.012201678756812134 -0.017757691799416917 0.035594175425537784
leaf_weight=703.15332466363907 88.595087304711342 50.720804631710052 64.866796135902405 742.46195244789124 249.69691471755505 538.80200773477554 57.015133455395699 78.671539157629013 746.17090277373791 88.751038804650307 409.70370404422283 97.6987634152174 288.10320197045803 171.56911754608154 254.16534988582134 128.25544486939907 214.36389890313148 86.923538535833359 157.16597892343998 171.37842193245888 229.83362425863743 238.26100532710552 417.44375397264957 331.30354459583759 289.69879899919033 555.28105901181698 286.09782432019711 347.20225821435452 332.79424253106117
leaf_count=2949 367 209 262 2994 1032 2201 234 326 3105 363 1673 401 1167 697 1032 522 879 352 636 694 931 976 1742 1387 1188 2296 1180 1437 1348
internal_value=4.87572e-05 -0.019765 0.0199976 0.0305288 -0.0308023 0.0232429 0.00185326 -0.00275218 -0.0219454 -0.00523134 0.00241769 -0.00788279 0.0434733 0.0175751 0.0295946 0.0105463 0.00954257 0.028261 0.0383635 0.0257293 0.0203555 -0.00152273 -0.0389746 -0.0348923 0.00624695 -0.012398 -0.0163632 -0.0126345 0.0308375
internal_weight=8416.15 4222.37 4193.78 2866.5 2794.97 1835.93 1427.4 1327.28 1343.07 984.452 962.514 424.555 1030.57 442.948 1297.13 537.959 271.379 1232.26 244.09 988.172 483.999 335.96 1451.9 748.747 378.45 606.002 364.769 596.899 504.173
internal_count=34580 17518 17062 11617 11652 7456 5866 5445 5574 4056 3939 1744 4161 1810 5255 2195 1113 4993 988 4005 1963 1377 6078 3129 1551 2505 1506 2469 2042
cat_boundaries=0 1 2 3 4
cat_threshold=4 2 2 2
is_linear=0
shrinkage=0.03


Tree=4
num_leaves=30
num_cat=0
split_feature=20 22 22 22 22 22 22 16 24 19 19 16 19 19 24 19 23 29 23 22 22 1 1 27 23 19 22 29 23
split_gain=3491.42 1174.44 1028.5 269.106 178.821 156.347 138.441 105.128 96.3166 65.3446 64.9912 60.4498 54.2803 49.6448 41.7718 39.7549 43.081 34.4337 34.3149 33.6673 32.1508 28.3192 27.1577 26.5482 25.5516 24.6354 24.2317 23.9298 23.7176
threshold=-0.051406178514060631 -0.021806704352547442 0.018376371039353804 0.070951609037926591 0.072003287039144562 -0.031222323478014232 -0.059809811854728522 0.31595925297113758 0.55750000000000022 0.24662162162162166 0.26393188854489169 0.22253968253968257 0.6478537360890303 0.31698564593301443 0.64250000000000018 0.6478537360890303 -0.024502729571601652 0.20328361943990789 -0.034813280618587898 0.036934083216168069 0.1267613690786604 0.28019042540326633 0.24514542947923454 0.53137254901960795 0.1213432690100867 0.21680376028202117 -0.074848124397941015 0.22898438501452836 -0.078325423510096318
decision_type=2 2 2 2 2 2 2 2 2 2 2 2 2 2 2 2 2 2 2 2 2 2 2 2 2 2 2 2 2
left_child=2 6 5 7 9 25 8 15 -2 -4 14 -10 18 -7 -6 16 17 -3 22 -19 -16 27 28 -11 -5 -1 -27 -18 -8
right_child=1 3 4 24 10 13 12 -9 11 23 -12 -13 -14 -15 20 -17 21 19 -20 -21 -22 -23 -24 -25 -26 26 -28 -29 -30
leaf_value=-0.042829023433366677 -0.034096047945979195 0.031188210215842255 -0.016043108658670424 0.039120241722384194 0.029524973367795432 -0.026984341977517035 -0.0085235354337277261 0.036372214654437303 -0.013253897823125128 -0.003398803731823689 0.024122037830879281 0.0050567913926654953 0.019056098700858316 -0.011298641019614922 -0.0059711954120823113 0.029125049076779284 0.010692207272319209 0.0014666666282165414 0.011258671802668053 0.027897214543223046 0.013564884123786973 0.035878370994789688 -0.022392928407348522 0.018126894562753688 0.049999233094818303 -0.040786150018657978 -0.029043156693457906 0.022798972933094706 0.013329358028226393
leaf_weight=718.24063286185265 135.7712546736002 54.049861803650856 552.49736276268959 468.79156178236008 49.27045650780201 838.79145626723766 115.74761919677258 466.820945546031 441.64039941132069 351.29262982308865 225.64070464670658 255.49594230949879 229.88635596632957 234.38528980314732 236.60517218708992 342.75330221652985 212.69163183867931 281.80464623868465 172.9685805439949 50.293858662247658 110.34385111927986 106.17337930202484 66.186941921710968 59.40831033885479 380.98418812453747 311.22420106828213 357.11928279697895 496.04775673151016 71.429953515529633
leaf_count=3037 566 220 2295 1887 201 3507 476 1884 1821 1445 915 1045 935 972 974 1385 862 1148 706 204 451 430 272 243 1531 1317 1501 2011 292
internal_value=-9.39615e-06 0.0186462 -0.02007 0.0298907 -0.00122273 -0.0322097 -0.00295864 0.0238872 -0.011072 -0.00931569 0.0113073 -0.00654552 0.00734044 -0.0235722 0.00396711 0.0200909 0.0174907 0.00920227 0.000993335 0.00554111 0.000263198 0.0214021 -0.00603138 -0.000248623 0.0440507 -0.0388731 -0.0345642 0.0191859 -0.000157605
internal_weight=8394.36 4349.54 4044.82 2860.41 1585.06 2459.76 1489.13 2010.64 832.908 963.198 621.86 697.136 656.219 1073.18 396.219 1543.81 1201.06 386.148 426.333 332.099 346.949 814.913 253.365 410.701 849.776 1386.58 668.343 708.739 187.178
internal_count=34533 17675 16858 11562 6524 10334 6113 8144 3432 3983 2541 2866 2681 4479 1626 6260 4875 1572 1746 1352 1425 3303 1040 1688 3418 5855 2818 2873 768
is_linear=0
shrinkage=0.03


Tree=5
num_leaves=30
num_cat=3
split_feature=18 21 21 18 20 21 21 21 19 18 21 34 34 1 21 21 29 21 29 19 21 12 21 19 34 21 33 12 29
split_gain=3292.78 617.732 459.909 195.74 180.72 162.989 124.82 121.857 95.4417 90.0395 76.37 55.3683 48.3999 54.447 45.4197 44.5468 42.8393 38.4361 49.4803 34.4087 33.8621 28.3075 28.2609 28.2499 26.8552 27.3079 26.1791 25.8208 24.7203
threshold=0 -0.014226352355183268 0.0076506104147040796 1 -1.2780742446544593 0.038183249724439074 -0.1602124571143615 -0.07164367277499957 0.20256410256410259 2 0.1036924697236047 0.0065029808777018012 -0.006318041332297299 0.26787650977526306 -0.089650601811222821 -0.12460321056296016 0.23113883012683209 0.1036924697236047 0.20294786023786957 0.26006441223832533 -0.046960536420466902 -0.013043478260869599 0.12898772947992235 0.66228070175438603 -0.019793101986219846 0.081885069432806448 0.059508507432750761 0.026086956521739094 0.28069419214915009
decision_type=1 2 2 1 2 2 2 2 2 1 2 2 2 2 2 2 2 2 2 2 2 2 2 2 2 2 2 2 2
left_child=2 3 7 6 22 9 -2 -1 -9 -3 19 12 14 26 -8 -5 17 18 -7 -6 28 -10 -4 24 25 -18 -14 -20 -13
right_child=1 5 4 15 10 16 11 8 21 -11 -12 20 13 -15 -16 -17 23 -19 27 -21 -22 -23 -24 -25 -26 -27 -28 -29 -30
leaf_value=-0.037314286814265969 -0.026418093894728285 0.02602825469239993 -0.022452821148304401 -0.033144584672778823 -0.010084485684212668 0.034342200698170448 -0.003314870855243522 -0.029620500322300805 -0.022419624356861869 0.0087384836606020262 0.013860005908192995 0.027550912986787024 0.017078958992583406 -0.017223121315209994 0.020139229045480513 -0.0075088462854387625 0.0096528428500434783 0.043103727554069236 -0.0023970639572849835 0.0019097545601318628 0.035429344373405301 -0.010537095432868713 -0.0053153896738307223 0.04934311131684712 0.040230149655448702 0.036574185903575099 -0.0035834296108044109 0.024725895602268538 0.0068380730681912244
leaf_weight=759.0015032440424 73.488634005188942 941.55113343894482 552.91600529849529 70.985952958464622 450.12897251546383 132.6950818747282 92.183203503489494 856.06266716122627 291.43787299096584 382.44047535955906 271.35456773638725 92.989849343895912 136.48574283719063 104.79398706555367 376.82118874788284 407.52689318358898 61.741203144192696 105.10954374074936 79.731940373778343 411.19934192299843 134.93173192441463 481.19997380673885 103.5242376178503 231.7209165841341 444.16491608321667 76.886898145079613 91.698256567120552 51.146776422858238 117.7114402204752
leaf_count=3228 308 3799 2311 297 1871 534 377 3617 1218 1557 1107 379 555 427 1530 1678 249 422 321 1693 546 2011 427 930 1787 309 373 206 480
internal_value=0.000109504 0.0188414 -0.0187568 0.00487461 -0.00725086 0.0283037 0.0112457 -0.0273717 -0.0227183 0.0210444 1.11423e-05 0.0136784 0.00933267 0.000580377 0.0155321 -0.011373 0.0364023 0.0277561 0.0214959 -0.00436284 0.0237059 -0.0150424 -0.0197623 0.0402771 0.036594 0.0247392 0.00879614 0.00830958 0.0160663
internal_weight=8383.63 4206.81 4176.83 1699.62 1789.12 2507.19 1221.1 2387.7 1628.7 1323.99 1132.68 1147.62 801.982 332.978 469.004 478.513 1183.2 368.683 263.574 861.328 345.633 772.638 656.44 814.514 582.793 138.628 228.184 130.879 210.701
internal_count=34547 17064 17483 6950 7409 10114 4975 10074 6846 5356 4671 4667 3262 1355 1907 1975 4758 1483 1061 3564 1405 3229 2738 3275 2345 558 928 527 859
cat_boundaries=0 1 2 3
cat_threshold=4 2 2
is_linear=0
shrinkage=0.03


Tree=6
num_leaves=30
num_cat=4
split_feature=18 22 22 22 22 18 22 22 24 26 19 19 18 22 9 18 24 1 23 34 26 9 9 9 9 23 9 23 26
split_gain=3086.28 1061.93 967.191 209.749 192.689 164.309 163.622 148.422 88.4722 77.2573 75.0291 63.5457 63.4933 56.491 44.4728 42.4291 39.8946 37.9782 32.5359 30.4107 41.2246 28.4875 24.9745 24.3008 24.2464 23.7893 23.6034 22.9913 22.8531
threshold=0 0.01959575613398393 -0.018022265767690945 0.05662270260302283 0.071320247913767246 1 -0.034342597509128735 -0.055407257474945508 0.32750000000000007 0.93343647689331088 0.26393188854489169 0.26393188854489169 2 -0.09921907779466245 0.14375000000000002 3 0.42500000000000004 0.26620837214289994 -0.036486653441759186 -0.033685472215323246 0.91067187615393386 0.15625000000000003 0.14375000000000002 0.10625000000000002 0.18125000000000002 0.14062812832125934 0.15625000000000003 -0.044988400666586013 0.9830984438701692
decision_type=1 2 2 2 2 1 2 2 2 2 2 2 1 2 2 1 2 2 2 2 2 2 2 2 2 2 2 2 2
left_child=1 6 7 5 11 16 -1 8 -2 24 17 28 21 22 -15 -5 -4 19 -7 -6 -21 -9 -10 -18 -8 -17 -13 -14 -3
right_child=2 4 3 15 10 18 9 12 13 -11 -12 26 27 14 -16 25 23 -19 -20 20 -22 -23 -24 -25 -26 -27 -28 -29 -30
leaf_value=-0.037228176731405258 -0.042092522256813522 -0.0091927190854891264 0.05350987243834459 0.043506984541279645 -0.016152232196924455 -0.0050711139185489222 -0.0081652208351244634 0.025013644113364913 -0.007989959557870796 -0.032228421249142651 0.024971462329482174 0.016758565949144127 -0.014193270079572986 0.010957514982174558 -0.0071945019054890933 0.023967310546100559 0.037423582632373983 0.025046015632808713 0.01240002778553022 0.016679418009954285 -0.0066190095362386927 0.0099580759420860015 -0.025770010278062853 0.025181853891543295 -0.019837976100052224 0.042745858094759871 -0.0021503645083675708 0.0059625816523142632 -0.021186641320678445
leaf_weight=1404.147409170866 65.948208644986153 345.51401241123676 54.881369799375534 743.67962111532688 75.110596403479576 131.42009779810905 244.21095238626003 179.34458301961422 144.98680156469345 411.71268938481808 269.8443964868784 72.649756103754044 104.20947861671448 196.99043495953083 313.32897742092609 205.50530235469341 179.745112657547 67.616905614733696 349.66447718441486 138.74394974112511 132.9872172921896 310.1463580429554 141.03542540967464 912.27936372160912 476.46833361685276 90.131255909800529 306.52909407019615 97.912817671895027 246.50447127223015
leaf_count=6025 278 1441 220 2978 310 538 1020 725 596 1749 1091 297 432 805 1290 827 722 276 1418 570 548 1258 585 3671 2000 361 1262 400 1034
internal_value=4.70751e-05 -0.0181839 0.0181521 0.0291094 0.00050731 0.022363 -0.0303784 -0.000662842 -0.00896183 -0.0218594 0.0126901 -0.0080809 0.00968218 -0.0061688 -0.000179843 0.0396453 0.0285323 0.00465319 0.00762674 0.000617031 0.00529454 0.015514 -0.0168164 0.0272292 -0.0158993 0.0298172 0.00150709 -0.00444801 -0.0142141
internal_weight=8413.25 4192.04 4221.21 2667.31 1655.5 1627.99 2536.54 1553.9 862.29 1132.39 684.303 971.197 691.613 796.342 510.319 1039.32 1146.91 414.459 481.085 346.842 271.731 489.491 286.022 1092.02 720.679 295.637 379.179 202.122 592.018
internal_count=34727 17623 17104 10735 6829 6569 10794 6369 3554 4769 2795 4034 2815 3276 2095 4166 4613 1704 1956 1428 1118 1983 1181 4393 3020 1188 1559 832 2475
cat_boundaries=0 1 2 3 4
cat_threshold=4 2 2 2
is_linear=0
shrinkage=0.03


Tree=7
num_leaves=30
num_cat=0
split_feature=20 22 22 22 22 22 22 24 16 26 19 19 19 16 24 23 22 1 35 9 23 26 22 22 22 27 14 22 35
split_gain=2864.21 975.561 930.63 196.082 192.837 164.425 112.396 103.897 66.9079 63.36 62.6662 61.538 58.7238 52.2319 33.8793 24.1165 23.242 22.9994 23.6306 23.8265 23.3714 22.8985 22.6818 22.2193 20.863 18.5624 18.4124 18.0959 16.999
threshold=-0.024998802314787408 -0.01553843490304707 0.0084751762155433081 0.070951609037926591 0.070662049667634688 -0.059809811854728522 -0.045572514603105817 0.60250000000000015 0.25165679174895766 0.64032644634720948 0.24662162162162166 0.26393188854489169 0.6478537360890303 0.18688172043010756 0.74500000000000011 -0.078325423510096318 0.15253459841793401 0.33490982888348231 0.040800221252795484 0.25625000000000003 -0.024502729571601652 1.2395550360683796 -0.10681698472509217 0.15038848082484899 0.1071238878215905 0.53137254901960795 -1.0000000180025095e-35 -0.09921907779466245 0.0024159539103983945
decision_type=2 2 2 2 2 2 2 2 2 2 2 2 2 2 2 2 2 2 2 2 2 2 2 2 2 2 2 2 2
left_child=2 5 6 8 11 7 -1 -2 17 -8 14 21 15 22 -6 26 -12 18 19 -3 -21 -4 -9 -16 -5 -13 -7 -15 -17
right_child=1 3 4 24 10 12 9 13 -10 -11 16 25 -14 27 23 28 -18 -19 -20 20 -22 -23 -24 -25 -26 -27 -28 -29 -30
leaf_value=-0.037726044316456771 -0.033618535610679075 0.022863243461422444 -0.011908887344890116 0.03513027528417613 0.022400804636921338 -0.018174548410474955 -0.015974188191472703 -0.023063633929110081 0.031164928565742048 -0.030679171060998951 0.016662264251102496 -0.0032721051829408686 0.019012335649693284 -0.0056767502964779415 -0.0045854016586168549 0.011014617750296876 0.03888343349681582 0.034255062265783495 0.033932304534120848 0.0050877547225221514 0.01680295166908535 -0.02407544443910422 -0.0077487597220057625 0.01662863934195747 0.044989748101730058 0.014614880041538547 0.00090399326452623291 0.0098197380556108715 -0.0040468849299019234
leaf_weight=1148.5989038050175 144.37002640962601 369.10441875457764 503.47646847367287 419.23026342689991 63.481858730316162 70.426420792937279 477.82941824197769 128.0341659784317 568.63118666410446 599.54540948569775 244.40112459659576 326.49863839149475 294.15301291644573 107.39878419041634 287.3732837587595 258.67297281324863 51.463176846504211 81.042898073792458 75.601388677954674 213.95319268107414 549.52216467261314 194.32871408760548 272.96347218751907 51.534529715776443 417.4829158782959 61.121058374643326 125.30628721415997 180.65124049782753 90.508997544646263
leaf_count=4987 611 1489 2112 1679 259 292 2012 532 2282 2565 990 1348 1189 441 1187 1052 207 327 305 868 2214 823 1128 210 1671 250 515 736 368
internal_value=5.55799e-05 0.0168629 -0.0182495 0.0280305 -0.00210094 -0.00113543 -0.0311827 -0.0105674 0.0225773 -0.0241782 0.0101889 -0.0100091 0.0082344 -0.00569592 0.00246837 0.00239215 0.0206454 0.0187684 0.0177021 0.0165898 0.0135309 -0.0153267 -0.0126838 -0.00132015 0.0400975 -0.000421281 -0.00601813 0.00404226 0.00711022
internal_weight=8376.71 4367.05 4009.65 2694.57 1783.68 1672.49 2225.97 833.418 1857.86 1077.37 698.254 1085.42 839.068 689.048 402.39 544.915 295.864 1289.22 1208.18 1132.58 763.475 697.805 400.998 338.908 836.713 387.62 195.733 288.05 349.182
internal_count=34649 17699 16950 10835 7386 6864 9564 3448 7485 4577 2853 4533 3416 2837 1656 2227 1197 5203 4876 4571 3082 2935 1660 1397 3350 1598 807 1177 1420
is_linear=0
shrinkage=0.03


Tree=8
num_leaves=30
num_cat=0
split_feature=20 22 22 22 22 23 22 25 26 25 26 22 26 1 21 9 22 30 22 1 23 1 29 23 9 26 13 23 0
split_gain=2681.98 915.672 913.016 218.769 176.899 125.208 98.6463 90.9553 70.2156 64.9952 64.4699 50.9994 41.0671 33.8127 29.2409 28.7766 27.7412 25.0079 24.8645 24.1668 25.8437 42.9333 24.9355 21.975 21.0801 20.6926 20.0993 19.9998 19.3129
threshold=-0.051406178514060631 0.0078573294158189883 -0.024209232385889092 0.070662049667634688 0.070662049667634688 -0.18757289218060968 -0.045572514603105817 0.16211556383970185 0.89926001708096026 0.21583124477861323 0.64871485683684094 -0.06814160575245036 0.64032644634720948 0.26620837214289994 0.10012156514642369 0.025000000000000005 -0.055407257474945508 0.46383484020082272 0.11569013056113132 0.33490982888348231 -0.023467961831264757 0.29037090529035831 0.23446326459973252 0.1213432690100867 0.28125000000000006 0.043760467046326655 1.0000000180025095e-35 -0.08097084129059022 0.085907381029446117
decision_type=2 2 2 2 2 2 2 2 2 2 2 2 2 2 2 2 2 2 2 2 2 2 2 2 2 2 2 2 2
left_child=1 6 5 9 8 28 -1 11 24 15 14 -7 -8 18 17 -4 -9 -6 -12 20 21 -17 -22 26 -3 -13 -5 -27 -2
right_child=2 4 3 23 10 7 12 16 -10 -11 13 25 -14 -15 -16 19 -18 -19 -20 -21 22 -23 -24 -25 -26 27 -28 -29 -30
leaf_value=-0.036860774719526798 -0.03933155030334199 0.0029534963541884497 0.038672020728597302 0.036526050856660788 0.0058065249305535895 -0.016064788321723558 -0.017251609925375441 0.0045505330094489692 -0.01986991787542822 0.02890573326489173 -0.010762747180366775 0.0042222900275292663 -0.0293923935355055 0.020195460201422561 0.029690837496831803 0.013197291795844559 0.019228254849933752 0.028864400209713884 0.0077448331645550133 0.030593836171247935 0.011149085242219997 -0.013017844956691888 0.021860270271972217 0.044170571768721488 -0.0076824989895733055 -0.021249673870706566 0.017723369149652446 0.00049868276917427751 -0.018747892343579837
leaf_weight=1144.9778714179993 66.484532937407494 259.92054335772991 53.580075159668922 425.56774102151394 160.12195281684399 295.70074146986008 458.87334802746773 301.73528787493706 374.32062031328678 605.90454134345055 174.44164726138115 315.37567925453186 569.65457075834274 63.6907958984375 137.82928636670113 367.39075733721256 188.04498006403446 56.91329100728035 103.20561979711056 99.56498596072197 301.3816897124052 65.523907616734505 576.72678342461586 379.22302508354187 469.5115695297718 67.596526801586151 61.439577728509903 85.373291447758675 115.03044238686562
leaf_count=5026 284 1078 215 1704 654 1227 1939 1233 1587 2430 722 1289 2457 259 555 1488 760 231 421 401 1213 266 2321 1518 1956 281 246 349 486
internal_value=0.000149933 -0.0176868 0.0163623 0.0259452 -0.00185859 -0.00324587 -0.0307877 0.000133426 -0.00932486 0.0206302 0.00997476 -0.00633319 -0.0239979 0.000658067 0.0189093 0.0171883 0.0102136 0.0119577 -0.0038801 0.0163454 0.0152408 0.00920864 0.0182009 0.0386081 -0.00389369 -0.000167789 0.0341951 -0.00918739 -0.0264614
internal_weight=8345.11 3973.46 4371.64 2936.3 1799.96 1435.34 2173.51 1253.83 1103.75 2070.07 696.203 764.046 1028.53 341.338 354.865 1464.17 489.78 217.035 277.647 1410.59 1311.02 432.915 878.108 866.23 729.432 468.345 487.007 152.97 181.515
internal_count=34596 16885 17711 11802 7463 5909 9422 5139 4621 8334 2842 3146 4396 1402 1440 5904 1993 885 1143 5689 5288 1754 3534 3468 3034 1919 1950 630 770
is_linear=0
shrinkage=0.03


Tree=9
num_leaves=30
num_cat=4
split_feature=18 22 22 22 22 18 18 22 21 20 26 26 22 9 18 9 33 29 29 24 22 22 22 30 21 9 34 24 22
split_gain=2613.65 892.686 834.928 212.884 210.5 137.413 108.94 102.905 87.6214 65.7332 64.7065 64.5141 53.5528 40.5354 37.3641 33.5744 31.1033 28.1649 37.8166 27.6196 27.414 24.9875 23.6967 25.1702 22.8296 21.9821 21.1873 20.176 20.0322
threshold=0 0.0070972272868468364 -0.026329323783352562 0.055890964171288672 0.070662049667634688 1 2 -0.048625400826002217 -0.1602124571143615 -0.98716275980362711 0.62446886984814542 0.64032644634720948 -0.093422409153828614 0.30625000000000008 3 0.056250000000000008 0.012656067589443603 0.35196326798109645 0.26655421968738197 0.62250000000000016 0.02277604055287297 0.15681138607851178 0.13950390456805115 0.55076336024679529 -0.12460321056296016 0.13125000000000003 0.0088122240150024529 0.45500000000000007 -0.099015523797947494
decision_type=1 2 2 2 2 1 1 2 2 2 2 2 2 2 1 2 2 2 2 2 2 2 2 2 2 2 2 2 2
left_child=1 7 6 5 10 13 8 -1 -2 22 25 -9 -10 27 -5 -14 -17 18 -15 -11 -19 -21 23 -6 -8 -3 -18 -4 -26
right_child=2 4 3 14 9 -7 24 11 12 19 -12 -13 15 17 -16 16 26 20 -20 21 -22 -23 -24 -25 28 -27 -28 -29 -30
leaf_value=-0.036367003122752505 -0.031142527140288048 0.011525770581760488 0.046405426925254505 0.040242912183840511 -0.0072964895600206589 0.0067962814898742596 -0.033362386064419651 -0.015532522888164301 -0.0081622645420534098 0.040016007561437549 -0.016401254309173944 -0.030163523960150495 0.025495371237193917 0.01690207964687955 0.027415715167320689 -0.014662133268932107 0.0045040746643221627 -0.0035308317832357574 0.037345759385364836 0.012572782400090134 0.020566771964521016 0.035536363294692307 0.018431577479570336 0.01363870382133882 -0.029421713539409856 -0.0048636154791194515 0.017410217011190481 0.028041758118887566 -0.0096274114181985355
leaf_weight=1111.6198316514492 64.292419299483299 86.524033680558205 60.694073304533958 749.48456513881683 218.86857289075851 532.44639872014523 61.231425002217293 511.98656523227692 215.82477259635925 49.513341590762138 620.11004658043385 586.15007983148098 94.132584005594254 268.31966730952263 295.49736632406712 56.802014663815498 370.16833001375198 84.861679002642632 118.39688368141651 287.21850855648518 83.59258745610714 49.725767746567726 58.451159492135048 66.592732563614845 55.931687697768211 464.47959132492542 165.44459258019924 662.95753271877766 251.73066563904285
leaf_count=4933 277 355 243 3002 902 2157 263 2173 891 199 2627 2551 381 1077 1184 233 1504 341 475 1166 335 200 237 273 235 1929 672 2656 1044
internal_value=3.88714e-05 -0.0169548 0.016706 0.0258588 -0.00188231 0.0196188 -0.00287302 -0.0299179 0.00242273 0.0107484 -0.00976195 -0.0233624 0.00484603 0.0249481 0.0366453 0.00894127 0.00627235 0.018785 0.0232413 0.0192219 0.008478 0.0160568 0.00119853 -0.00238214 -0.0167193 -0.00227377 0.00851565 0.0296439 -0.0133096
internal_weight=8303.05 4111.24 4191.81 2856.25 1901.48 1811.27 1335.56 2209.76 966.665 730.37 1171.11 1098.14 902.372 1278.82 1044.98 686.548 592.415 555.171 386.717 386.458 168.454 336.944 343.912 285.461 368.894 551.004 535.613 723.652 307.662
internal_count=34515 17545 16970 11470 7888 7284 5500 9657 3958 2977 4911 4724 3681 5127 4186 2790 2409 2228 1552 1565 676 1366 1412 1175 1542 2284 2176 2899 1279
cat_boundaries=0 1 2 3 4
cat_threshold=4 2 2 2
is_linear=0
shrinkage=0.03


Tree=10
num_leaves=30
num_cat=4
split_feature=18 22 22 22 22 18 22 0 24 19 26 19 18 24 23 1 24 25 16 22 23 23 21 34 1 19 18 12 34
split_gain=2412.8 879.523 766.76 237.168 191.694 154.936 102.918 99.3001 64.5531 64.118 63.3924 57.5371 39.9263 38.8839 38.1162 37.3962 37.213 36.7657 28.1325 27.3528 25.9423 25.3806 25.3074 23.298 55.2433 25.9722 22.3357 22.1789 21.0162
threshold=0 0.0084751762155433081 -0.037612828581589978 0.05662270260302283 0.072003287039144562 1 -0.045572514603105817 0.058821808866236301 0.60250000000000015 0.20942982456140355 0.88817467242241066 0.20256410256410259 2 0.8175 -0.14228860547948136 0.26620837214289994 0.34250000000000008 0.4468627450980393 0.40204081632653071 -0.11970799314142068 0.13111311111453303 0.0051588729401177988 0.1011984950873915 0.022879211505095701 0.1475654112825753 0.63245614035087727 3 -0.0086956521739130471 0.043992824290892005
decision_type=1 2 2 2 2 1 2 2 2 2 2 2 1 2 2 2 2 2 2 2 2 2 2 2 2 2 1 2 2
left_child=1 6 7 5 11 16 -1 14 -9 -8 13 28 -5 -6 -2 -12 -4 19 23 -10 -14 27 -15 25 -25 -18 -21 -7 -3
right_child=2 4 3 12 10 21 9 8 17 -11 15 -13 20 22 -16 -17 18 -19 -20 26 -22 -23 -24 24 -26 -27 -28 -29 -30
leaf_value=-0.035608330288780347 -0.033237188741016374 -0.016798646665529167 0.047639763547950915 0.039234206662337019 0.036888566564792717 -0.0089612346391395384 -0.029536906570709832 -0.018822639320344777 -0.017912779224666771 -0.01480827458893221 -0.0085070392630629561 -0.0018916436751591592 0.01936169181594646 0.0069511663032420928 -0.011743857803606627 0.020899136904881765 0.013067300245889724 0.019296415471761252 0.029808560585626084 0.0069096056771159641 0.038586563313893818 0.012821423295816229 0.022913311567929404 0.0075392084350559187 0.038508280543228378 0.024097379419873253 -0.011303349295756212 0.0059719293314625293 0.0030752792293630813
leaf_weight=1142.2184083014727 98.780591577291489 547.48797506093979 53.127873867750168 731.33468760550022 80.087118208408356 147.31445334851742 568.87825793027878 119.00391048192978 56.981744840741158 506.23271836340427 167.3241274356842 593.1648321300745 193.52043955028057 209.38720312714577 299.26698116958141 49.634513273835182 513.39975972473621 130.4864609092474 327.6806807667017 375.70870126783848 96.568092256784439 223.6560912579298 156.71801482141018 78.822350293397903 153.74658593535423 311.95079089701176 71.287126094102859 224.76895678043365 52.158999875187874
leaf_count=5126 424 2328 213 2934 322 600 2487 503 237 2161 690 2456 775 853 1240 201 2062 529 1312 1529 387 901 631 316 616 1250 297 915 221
internal_value=-0.000119074 -0.0165752 0.0158127 0.0236722 -0.00133583 0.0177353 -0.0293247 -0.00504729 0.00135941 -0.0226219 0.0115843 -0.00852255 0.0354683 0.0180403 -0.0171476 -0.00171465 0.02306 0.00516855 0.0220838 0.00147969 0.0258721 0.00485908 0.0138279 0.0196653 0.0280894 0.0172604 0.00398625 5.14513e-05 -0.0150677
internal_weight=8280.7 4073.29 4207.41 3055.89 1855.96 2034.47 2217.33 1151.52 753.468 1075.11 663.151 1192.81 1021.42 446.192 398.048 216.959 1438.73 634.464 1385.6 503.978 290.089 595.74 366.105 1057.92 232.569 825.351 446.996 372.083 599.647
internal_count=34516 17476 17040 12281 7702 8185 9774 4759 3095 4648 2697 5005 4096 1806 1664 891 5769 2592 5556 2063 1162 2416 1484 4244 932 3312 1826 1515 2549
cat_boundaries=0 1 2 3 4
cat_threshold=4 2 2 2
is_linear=0
shrinkage=0.03


Tree=11
num_leaves=30
num_cat=4
split_feature=18 22 22 22 18 22 22 23 18 26 26 22 24 20 9 23 9 24 19 22 26 9 24 22 18 9 34 12 19
split_gain=2233.42 875.663 742.527 174.895 137.018 134.895 130.762 105.066 82.316 79.0258 62.405 49.4036 40.3829 33.6739 32.5905 30.8747 29.8159 29.2714 28.8586 27.9359 26.8171 25.2489 25.0141 23.3803 22.1015 21.9293 21.3942 21.2633 20.8045
threshold=0 0.01959575613398393 -0.017369352232735304 0.071320247913767246 1 0.092003607367394005 -0.029240149765553915 -0.21418845553070504 2 0.57744126214211267 0.87852645312581201 -0.070434344723139267 0.8175 -1.2857187518365445 0.15625000000000003 -0.093548280605986897 0.18125000000000002 0.41000000000000009 0.67694497153700206 -0.074848124397941015 0.87852645312581201 0.081250000000000003 0.46250000000000008 0.024526032677863994 3 0.23125000000000004 -0.037785908507264744 -0.03043478260869564 0.26393188854489169
decision_type=1 2 2 2 1 2 2 2 1 2 2 2 2 2 2 2 2 2 2 2 2 2 2 2 1 2 2 2 2
left_child=1 6 7 4 17 9 19 -2 11 14 16 -9 -7 -14 -3 -10 -8 -4 25 -1 26 -19 -11 27 -5 -13 -21 -23 -24
right_child=2 5 3 24 -6 12 10 8 15 22 -12 18 13 -15 -16 -17 -18 21 -20 20 -22 23 28 -25 -26 -27 -28 -29 -30
leaf_value=-0.037769460860082343 -0.028138744796090093 0.01880063186651269 0.046791223297020783 0.040320065227249596 0.0076297082034901525 0.034918543761240588 -0.0030610855183137355 -0.0031895282218667013 -0.020168832217096609 0.0093224156002198778 -0.028069869111297111 0.012925293688200015 -0.0024531482335455415 0.016882483445722022 0.0005305762751836782 -0.003167049663106191 -0.017357088182836024 0.035966922707147644 0.018945646817026398 -0.014805205631474366 -0.036386125365979828 0.0068661011132612904 -0.015275283723055246 0.026918227610054388 0.028708042943821514 -0.00050084433785155323 -0.028776338397852212 0.021353984274552401 0.00082011710903574667
leaf_weight=641.37924537062645 118.09422735869884 108.85882352292538 55.061479464173317 553.74067381024361 559.47845324873924 75.523724392056465 196.59528201818466 370.97083160281181 168.70941305160522 48.199410378932953 393.84784206748009 207.57409593462944 116.53573703765869 263.58398324251175 439.38695769011974 222.76301339268684 397.34652382135391 151.37500695884228 233.28608219325542 142.74209688603878 294.30533030629158 118.29627522826195 509.74240127205849 592.16193024814129 219.32761000096798 230.31661146879196 347.60488539934158 415.63160130381584 84.074942857027054
leaf_count=2926 513 444 221 2229 2259 304 833 1527 714 201 1736 838 477 1066 1815 919 1700 606 939 633 1332 474 2161 2371 879 935 1540 1665 347
internal_value=0.000146379 -0.0157344 0.0154357 0.0250387 0.020107 0.00113933 -0.0272357 -0.00106288 0.00118555 -0.0041756 -0.0188132 0.00559108 0.0150021 0.0109638 0.00418587 -0.0105269 -0.0126382 0.0253361 0.0104418 -0.0330526 -0.0291538 0.0243755 -0.0113112 0.0227867 0.037067 0.00587852 -0.0247477 0.0181629 -0.0129989
internal_weight=8276.51 4059.73 4216.79 2665.07 1892 1645.91 2413.82 1551.71 1433.62 1190.26 987.79 1042.15 455.643 380.12 548.246 391.472 593.942 1332.53 671.177 1426.03 784.652 1277.46 642.017 1126.09 773.068 437.891 490.347 533.928 593.817
internal_count=34604 17515 17089 10704 7596 6815 10700 6385 5872 4968 4269 4239 1847 1543 2259 1633 2533 5337 2712 6431 3505 5116 2709 4510 3108 1773 2173 2139 2508
cat_boundaries=0 1 2 3 4
cat_threshold=4 2 2 2
is_linear=0
shrinkage=0.03


Tree=12
num_leaves=30
num_cat=5
split_feature=18 22 22 22 22 18 22 22 19 21 26 19 18 16 18 21 9 26 9 33 18 9 34 9 9 12 29 9 26
split_gain=2115.74 801.224 704.31 167.131 159.497 123.058 108.062 102.247 66.3691 56.6669 53.8924 50.5294 48.1546 45.1403 35.6396 29.8435 26.5187 24.9702 23.67 22.0298 22.3402 21.845 21.7268 21.4483 20.9715 20.9611 19.7922 18.6413 17.6673
threshold=0 0.0078573294158189883 -0.020178062992880049 0.07029653836454898 0.070662049667634688 1 -0.060928353738214085 -0.045572514603105817 0.25320512820512825 -0.1602124571143615 0.87852645312581201 0.34330357142857149 2 0.38978704910908307 3 0.10135311877051968 0.15625000000000003 0.96940391477272725 0.58125000000000016 0.010798177448275952 4 0.13125000000000003 0.0083576071892855017 0.10625000000000002 0.23125000000000004 1.0000000180025095e-35 0.32641873927493698 0.55625000000000013 0.6953344212338568
decision_type=1 2 2 2 2 1 2 2 2 2 2 2 1 2 1 2 2 2 2 2 1 2 2 2 2 2 2 2 2
left_child=1 7 6 5 8 23 9 28 17 -2 15 24 21 19 -5 27 -10 26 -12 -11 -21 -8 -19 -4 -9 -17 -3 -6 -1
right_child=2 4 3 14 10 -7 12 11 16 13 18 -13 -14 -15 -16 25 -18 22 -20 20 -22 -23 -24 -25 -26 -27 -28 -29 -30
leaf_value=-0.030364582867272401 -0.033139086773676656 -0.0037297420328193968 0.032327946945583649 0.038692568000783377 0.013570358614765535 0.0067879098895871895 0.020192029389553386 -0.019047554131091552 0.016213462630675798 -0.028067565723014515 0.005124677965295971 -0.0083300926880687676 -0.0057665446300833312 0.0074286792694319113 0.024820250515177708 0.034881856843891758 -0.0027126709918066619 -0.025828939777623214 -0.013992107364938161 -0.0042327129725028105 -0.018081889238664637 0.0070492786841724114 -0.0086261089185061101 0.021943455167135879 -0.028792126971345446 0.014815478864539849 -0.017649747917803726 -0.0033769169518711958 -0.038106688458110494
leaf_weight=572.73260475695133 81.496115177869797 244.13668715953827 220.32015305757523 609.50044979155064 229.84996232390404 549.36235584318638 167.8262016326189 362.18511621654034 81.487160369753838 59.137637704610825 156.42327089607716 218.76077096164227 207.20371596515179 154.74060598015785 240.33977901935577 90.371769547462463 345.67222155630589 211.58987212181091 91.596528798341751 323.18391501903534 154.79787953197956 355.38615356385708 97.863380506634712 1097.6307971924543 470.32235306501389 101.55960202217102 147.16135448217392 77.740231484174728 564.58049520850182
leaf_count=2619 362 1033 883 2461 933 2218 675 1591 332 249 644 935 860 632 964 363 1432 916 378 1329 656 1436 422 4396 2079 408 624 317 2609
internal_value=-0.000218078 -0.0156662 0.0146561 0.0237699 -0.00127446 0.0187326 -0.00181657 -0.0279927 -0.00839401 -0.00962621 0.00946458 -0.0212102 0.00645405 -0.00681273 0.0348032 0.0151312 0.000927213 -0.0140692 -0.00196321 -0.0109218 -0.00874626 0.0112954 -0.0204339 0.0237026 -0.0245807 0.0243957 -0.00899649 0.00929005 -0.034238
internal_weight=8284.96 4064.03 4220.93 2717.15 1875.45 1867.31 1503.77 2188.58 1127.91 773.356 747.541 1051.27 730.416 691.86 849.84 499.522 427.159 700.751 248.02 537.119 477.982 523.212 309.453 1317.95 832.507 191.931 391.298 307.59 1137.31
internal_count=34756 17635 17121 10922 7802 7497 6199 9833 4759 3228 3043 4605 2971 2866 3425 2021 1764 2995 1022 2234 1985 2111 1338 5279 3670 771 1657 1250 5228
cat_boundaries=0 1 2 3 4 5
cat_threshold=4 2 2 2 2
is_linear=0
shrinkage=0.03


Tree=13
num_leaves=30
num_cat=0
split_feature=0 22 22 19 22 25 22 22 16 22 22 0 19 9 34 34 1 34 21 12 1 19 23 25 9 0 19 25 19
split_gain=1547.82 955.473 438.74 190.635 180.126 139.839 129.979 77.1531 74.8688 71.9771 57.8423 54.1486 47.1193 40.2346 37.9371 35.9261 35.1772 34.2105 39.5011 31.9532 30.2738 28.73 28.4504 28.2063 23.2933 21.9767 21.6963 21.3113 20.9975
threshold=1.0000000180025095e-35 0.0023350988921670983 -0.022329050553190562 0.34330357142857149 0.092003607367394005 -0.13698005698005691 0.071064235133134271 -0.045572514603105817 0.3340136054421769 -0.09921907779466245 -0.05134636326877897 -1.0433126587084718 0.20256410256410259 0.11875000000000001 -0.059922656970633946 0.023615963534204001 0.30034500130824676 0.009733263436327801 -0.089650601811222821 -1.0000000180025095e-35 0.15257863258670504 0.56125000000000014 -0.12758501528809399 -0.23833189282627484 0.16875000000000004 0.50230903021177309 0.026013513513513518 0.3870266479663394 0.63762626262626265
decision_type=2 2 2 2 2 2 2 2 2 2 2 2 2 2 2 2 2 2 2 2 2 2 2 2 2 2 2 2 2
left_child=1 3 9 10 5 12 8 22 14 24 -1 -6 16 27 -4 -7 26 18 -15 -9 -17 -16 -5 -12 -2 -19 -3 -11 -8
right_child=2 4 6 7 11 15 28 19 -10 13 23 -13 -14 17 21 20 -18 25 -20 -21 -22 -23 -24 -25 -26 -27 -28 -29 -30
leaf_value=-0.035061077949510869 -0.0071496552979230287 -0.035043718569902925 -0.0025903845526703572 -0.030266633157989269 0.00050295455674254194 0.0053090324537421177 0.030616069213337753 -0.010115413808416464 0.029673459601132067 0.0065940463310444801 -0.02825287316680393 0.023271573992255219 -0.00066502948179380595 -0.021617631052936723 0.011906161011538607 0.0038769746726586584 0.0030241002984577681 0.0034182860535504436 0.00013014535080340024 0.0075695599993400153 0.032152891293862812 0.022073493918840434 -0.014343910949004725 -0.017000280768392332 -0.027383107097175903 0.027690745977400538 -0.014114867855787387 0.023116637787675174 0.042144174765835166
leaf_weight=834.45500838756561 129.03402456641197 48.269126251339912 102.29744285345078 158.68929834663868 121.65247884392738 579.16784334182739 409.75281299650669 187.44632551074028 420.44631342589855 181.50838319957256 523.97815312445164 413.32867249846458 460.08739365637302 97.246597796678543 554.23561610281467 53.888258501887321 103.81150053441525 98.67050139605999 319.90727473795414 178.59194277226925 93.145066007971764 463.03242079913616 285.84506469964981 335.30086539685726 85.02806656062603 50.152842566370964 539.77328617870808 114.88695830106735 238.67774736881256
leaf_count=3874 539 210 414 715 498 2370 1655 782 1687 747 2352 1668 1907 410 2235 221 441 408 1310 742 380 1857 1244 1456 363 204 2315 465 968
internal_value=-7.58679e-05 -0.0107069 0.0159346 -0.0236841 0.00276479 -0.00161203 0.0236446 -0.0116989 0.0188783 0.000252489 -0.0294095 0.0181047 -0.00810899 0.00412042 0.0148014 0.00869081 -0.0130512 -0.000573094 -0.00497925 -0.00148971 0.0218859 0.0165512 -0.0200832 -0.0238868 -0.0152766 0.0117282 -0.0158894 0.0130546 0.0349178
internal_weight=8182.31 4917.43 3264.88 2504.31 2413.12 1878.14 2188.44 810.573 1540.01 1076.43 1693.73 534.981 1151.94 862.373 1119.57 726.201 691.854 565.977 417.154 366.038 147.033 1017.27 444.534 859.279 214.062 148.823 588.042 296.395 648.431
internal_count=34437 21175 13262 11165 10010 7844 8816 3483 6193 4446 7682 2166 4873 3544 4506 2971 2966 2332 1720 1524 601 4092 1959 3808 902 612 2525 1212 2623
is_linear=0
shrinkage=0.03


Tree=14
num_leaves=30
num_cat=0
split_feature=20 22 22 22 22 22 24 16 26 16 22 24 26 26 12 23 34 7 23 22 34 23 34 26 24 24 20 12 26
split_gain=1912.32 657.867 645.679 201.664 120.77 108.305 94.1509 65.0245 61.9212 58.96 42.6385 44.2873 40.2206 37.8758 37.4538 36.7696 32.7319 31.8287 31.3512 25.868 25.5601 32.7229 29.247 26.9244 21.6638 19.8716 21.1282 19.2883 19.2351
threshold=-1.0000000180025095e-35 0.018376371039353804 -0.037612828581589978 0.05662270260302283 -0.048017634393390705 0.070662049667634688 0.60250000000000015 0.22253968253968257 0.93343647689331088 0.31595925297113758 0.14728745631869497 0.48000000000000004 0.96940391477272725 0.87852645312581201 -0.034782608695652188 -0.043944235656383328 0.0083576071892855017 0.91000000000000014 0.1213432690100867 -0.10681698472509217 -0.022690633601593898 -0.098568931049553984 0.009733263436327801 0.051049513765798867 0.27750000000000008 0.99250000000000005 -1.3395793814732631 1.0000000180025095e-35 -0.35046445053531949
decision_type=2 2 2 2 2 2 2 2 2 2 2 2 2 2 2 2 2 2 2 2 2 2 2 2 2 2 2 2 2
left_child=1 4 6 9 25 12 24 19 -6 14 11 -7 27 -13 -4 17 -14 -16 28 -8 21 -21 -22 -24 -2 -1 -27 -3 -5
right_child=2 5 3 18 8 10 7 -9 -10 -11 -12 13 16 -15 15 -17 -18 -19 -20 20 22 -23 23 -25 -26 26 -28 -29 -30
leaf_value=-0.038096727527916992 -0.03839572966229475 -0.0073266456908948419 0.0039459387403561665 0.033993429662759367 -0.014238914502327124 0.031529067883623967 -0.019057000722875195 0.0087885175359509043 -0.028236123200738934 0.024741976948971893 0.024343852815880817 0.0082688772552636843 -0.025021605993777278 -0.0084866365261297323 -0.014617567384501486 0.018389999209918097 -0.0017472276619518307 0.010665316804670238 0.038428250125371384 -0.0087804206055432377 -0.016332710373958313 0.018922002502735003 0.0096678205637072794 -0.01670967884784778 -0.016773029648012583 -0.034848730649437214 -0.023260508727372401 0.0034932524105456535 0.023324263093238234
leaf_weight=436.71429061889648 66.66285827755928 401.23377239704132 342.69615788757801 260.5477956533432 806.47062112390995 50.544372543692589 130.65358658134937 356.20401227474213 442.64571183919907 481.50235839188099 123.37549950182438 345.24910597503185 168.66810756921768 186.04110586643219 51.461048901081085 899.66427682340145 80.268759176135063 310.08195044100285 392.94950565695763 70.638885274529457 193.4906712025404 81.875863954424858 105.90505804121494 50.659588232636452 117.03761504590511 311.82233656942844 280.01965929567814 234.10365459322929 402.86628580093384
leaf_count=2068 294 1675 1381 1055 3512 203 557 1448 2011 1933 496 1399 733 772 209 3615 346 1254 1599 296 804 337 437 213 504 1477 1306 978 1623
internal_value=0.000137001 -0.015181 0.0138658 0.0209554 -0.025514 -0.000367464 -0.00512254 -0.00145059 -0.0192177 0.0155331 0.00839505 0.00497721 -0.00735717 0.0023967 0.0127549 0.0151434 -0.0175539 0.00703623 0.0316349 -0.00721512 -0.00410485 0.0061177 -0.00856343 0.00108098 -0.0247851 -0.0331343 -0.0294145 -0.0033406 0.0275593
internal_weight=8182.05 3867.16 4314.9 3141.77 2277.67 1589.48 1173.13 989.428 1249.12 2085.41 705.21 581.835 884.274 531.29 1603.9 1261.21 248.937 361.543 1056.36 633.224 502.57 152.515 350.055 156.565 183.7 1028.56 591.842 635.337 663.414
internal_count=34535 16976 17559 12669 10374 6602 4890 4092 5523 8392 2870 2374 3732 2171 6459 5078 1079 1463 4277 2644 2087 633 1454 650 798 4851 2783 2653 2678
is_linear=0
shrinkage=0.03


Tree=15
num_leaves=30
num_cat=4
split_feature=18 22 22 22 18 22 22 22 24 23 24 26 18 26 18 26 22 9 24 34 1 16 22 26 9 29 9 24 29
split_gain=1802.74 669.42 599.485 147.856 126.299 93.1343 84.8412 72.9155 68.1089 65.6283 61.8054 53.0953 51.5605 50.3423 48.1658 43.0377 34.6938 30.5185 25.1643 25.932 36.5267 23.6297 22.3948 21.2969 21.0762 20.901 20.1351 19.7821 18.5624
threshold=0 0.0078573294158189883 -0.01553843490304707 0.070662049667634688 1 -0.055407257474945508 -0.053917320676163498 0.071320247913767246 0.50000000000000011 0.066680514091515056 0.45500000000000007 0.57744126214211267 2 0.64032644634720948 3 1.2395550360683796 -0.10167015397407371 0.13125000000000003 0.46250000000000008 0.027385712240553403 0.1475654112825753 0.49827586206896557 0.14728745631869497 0.036795761742461547 0.23125000000000004 0.23113883012683209 0.60625000000000007 0.70250000000000001 0.35330148617915808
decision_type=1 2 2 2 1 2 2 2 2 2 2 2 1 2 1 2 2 2 2 2 2 2 2 2 2 2 2 2 2
left_child=1 6 5 15 7 8 -1 18 -2 28 -5 -12 21 24 16 17 -10 -3 -4 23 -21 -7 26 25 27 -20 -13 -8 -6
right_child=2 3 4 10 9 12 13 -9 14 -11 11 22 -14 -15 -16 -17 -18 -19 19 20 -22 -23 -24 -25 -26 -27 -28 -29 -30
leaf_value=-0.033076283449356363 -0.029159006199620505 0.0078163143984901415 0.039379153286132881 0.040230958772108708 0.0095574126074956575 0.0086512299977542506 -0.023299600348213458 0.036032280034590539 -0.010531471542202141 0.024120586529533677 0.015281303120762969 0.00069728256608726346 -0.0057110380589174732 -0.026816873623885573 -0.017302391040761648 -0.021344604035283654 0.0056118619341322456 -0.007870132015676384 0.014860424250153942 0.013702204638349594 0.039497934278696495 0.024631373830788009 0.01525230599514117 0.0078418343945888015 -0.019659381689329156 0.024751747046445741 -0.015816124974608273 -0.0033794035476897993 -0.0030387114288011456
leaf_weight=925.37856930494308 114.45745934545994 128.74355901777744 78.431523755192757 51.81730729341507 340.32467909157276 427.78520709276199 57.184294506907463 542.13114437460899 178.48327715694904 268.02436502277851 324.06261442601681 197.44764357805252 210.8860596716404 612.59537443518639 189.67045067250729 189.9641537219286 359.39951814711094 805.07749599218369 303.93723937869072 75.571966499090195 150.26986056566238 103.19248461723328 58.885592579841614 123.04393267631531 302.88594716787338 554.63482169806957 99.10696879029274 198.0655934214592 151.68954046070576
leaf_count=4423 506 536 317 208 1371 1724 250 2219 746 1080 1306 813 873 2815 813 837 1469 3397 1219 303 604 414 237 493 1333 2226 410 859 611
internal_value=-0.00014088 -0.014661 0.0136113 -0.00153285 0.0225049 -0.000925976 -0.0262735 0.026779 -0.00775007 0.0122034 0.00895883 0.00651848 0.00681933 -0.0208728 -0.00434665 -0.00836237 0.000245488 -0.00570143 0.0228529 0.0217477 0.0309645 0.0117973 -0.00149124 0.0195979 -0.0143124 0.0212715 -0.00485602 -0.00791569 0.0056757
internal_weight=8123.15 3951.22 4171.93 1855.11 2588.06 1583.87 2096.11 1828.02 842.011 760.039 731.32 679.503 741.864 1170.73 727.553 1123.79 537.883 933.821 1285.89 1207.46 225.842 530.978 355.44 981.616 558.136 858.572 296.555 255.25 492.014
internal_count=34412 17424 16988 7744 10443 6545 9680 7381 3534 3062 2974 2766 3011 5257 3028 4770 2215 3933 5162 4845 907 2138 1460 3938 2442 3445 1223 1109 1982
cat_boundaries=0 1 2 3 4
cat_threshold=4 2 2 2
is_linear=0
shrinkage=0.03


Tree=16
num_leaves=30
num_cat=3
split_feature=18 22 22 18 22 23 22 22 22 18 24 26 22 26 22 26 9 24 29 23 9 34 24 1 24 19 9 24 23
split_gain=1809.24 670.339 544.815 153.078 128.393 91.1778 77.821 74.6098 68.2722 64.9552 54.3358 50.8357 49.2617 46.6551 40.4387 39.5261 35.155 35.5411 45.2001 33.1314 29.1264 24.1121 24.5146 24.1599 22.7558 21.3244 20.5772 18.8305 18.6489
threshold=0 0.0031405558921406844 -0.018022265767690945 1 0.070662049667634688 -0.21418845553070504 0.048463861051896213 -0.053917320676163498 0.072003287039144562 2 0.45500000000000007 0.96940391477272725 0.15253459841793401 0.64032644634720948 -0.093422409153828614 0.91067187615393386 0.20625000000000002 0.86750000000000005 0.35330148617915808 -0.098568931049553984 0.13125000000000003 0.021941241306696002 0.45500000000000007 0.1475654112825753 0.66500000000000015 0.63245614035087727 0.23125000000000004 0.99250000000000005 -0.036486653441759186
decision_type=1 2 2 1 2 2 2 2 2 1 2 2 2 2 2 2 2 2 2 2 2 2 2 2 2 2 2 2 2
left_child=1 7 5 6 11 -2 21 27 28 14 -6 20 15 26 -7 -12 -16 -18 -19 -11 -3 22 -4 -23 -8 -24 -9 -1 -5
right_child=2 4 3 8 10 9 24 13 -10 19 12 -13 -14 -15 16 -17 17 18 -20 -21 -22 23 25 -25 -26 -27 -28 -29 -30
leaf_value=-0.038359379052777691 -0.025991664051489474 0.0084427021035833032 0.038122380206030655 -0.0041293985418997909 0.037215196718092688 -0.0063466776228086105 0.046927746310826336 -0.0080908463300107918 0.025082998317639729 -0.019902656936958113 0.007202714938154108 -0.017842761918605593 0.023901284681262586 -0.027375624725778824 0.0146379441188513 -0.0096673118087411483 -0.016717465990866397 0.013107869260633467 -0.011023058851889122 -0.0019349805502823219 -0.0066591270595756612 0.014794991002869828 0.012376233284280221 0.036217828599080598 0.031382640502645991 0.022438911397498037 -0.02036013144147816 -0.029401408768400198 0.0083423592003483895
leaf_weight=388.62407365441322 116.87866969406605 135.39025132358074 53.489616587758064 143.68986409902573 51.048997595906258 209.54572913050652 100.81735284626484 228.68062014877796 212.99175994098186 151.43561615049839 397.79004128277302 349.38791947066784 108.06641866266727 572.04135243594646 407.59452582895756 181.08722805976868 72.431640595197678 245.49945613741875 96.622456580400467 234.99471272528172 733.11289365589619 70.619820803403854 407.38895365595818 157.07156671583652 728.18307654559612 362.9079809486866 270.72648869454861 531.16040271520615 426.12579134106636
leaf_count=1895 524 562 217 583 205 873 414 998 861 654 1609 1545 434 2657 1646 753 296 994 392 977 3090 283 1632 632 2976 1457 1202 2561 1711
internal_value=-0.000111507 -0.0146913 0.0135963 0.0217983 -0.00221424 -0.000639498 0.0264386 -0.0269397 0.0106318 0.00146682 0.00765355 -0.0081951 0.00540583 -0.021519 0.00539571 0.00191778 0.00839263 0.00223171 0.00628052 -0.00900941 -0.00429791 0.0209809 0.018547 0.0296672 0.0333274 0.01714 -0.0147694 -0.0332238 0.00519564
internal_weight=8145.41 3947.12 4198.29 2663.29 1955.88 1535 1880.48 1991.23 782.807 1418.12 737.993 1217.89 686.944 1071.45 1031.69 578.877 822.148 414.554 342.122 386.43 868.503 1051.48 823.787 227.691 829 770.297 499.407 919.784 569.816
internal_count=34633 17511 17122 10766 8198 6356 7611 9313 3155 5832 3001 5197 2796 4857 4201 2362 3328 1682 1386 1631 3652 4221 3306 915 3390 3089 2200 4456 2294
cat_boundaries=0 1 2 3
cat_threshold=4 2 2
is_linear=0
shrinkage=0.03


Tree=17
num_leaves=30
num_cat=0
split_feature=20 22 22 22 22 22 22 0 19 24 19 26 19 16 24 23 1 34 16 23 21 34 26 27 29 29 29 21 24
split_gain=1695.21 636.909 537.194 115.658 110.797 102.307 61.5092 55.8132 55.3731 49.6455 45.911 40.7255 36.0634 33.5289 29.0769 29.0605 28.2988 27.6483 27.0063 25.5925 25.3216 24.7447 20.7056 20.6945 20.0705 19.1705 35.0219 26.4265 18.8737
threshold=-0.024998802314787408 0.0031405558921406844 -0.0078802850576565314 0.070662049667634688 0.055890964171288672 -0.074848124397941015 -0.053917320676163498 0.15306528025735863 0.25320512820512825 0.50000000000000011 0.34330357142857149 0.87852645312581201 0.62331081081081086 0.19855072463768117 0.45500000000000007 0.1213432690100867 0.26367328350882696 0.032749494105495304 0.48927203065134106 -0.12758501528809399 0.10012156514642369 0.044580337933507956 0.83551156421768502 0.45804195804195807 0.22898438501452836 0.19991750666123168 0.23113883012683209 0.06183185107535067 0.55750000000000022
decision_type=2 2 2 2 2 2 2 2 2 2 2 2 2 2 2 2 2 2 2 2 2 2 2 2 2 2 2 2 2
left_child=1 6 5 8 12 9 -1 19 21 -2 22 20 14 -11 -4 25 -13 -16 28 -7 -5 -3 -8 -10 -14 -6 27 -27 -9
right_child=2 3 4 11 15 7 10 18 23 13 -12 16 24 -15 17 -17 -18 -19 -20 -21 -22 -23 -24 -25 -26 26 -28 -29 -30
leaf_value=-0.032459756519274276 -0.033852739017489135 -0.014256558219477992 0.031823080434116177 0.0070412725802446174 0.042207636909118149 -0.01839073976579227 -0.019853958301101503 -0.0084769662878332996 -0.0025974259757258343 -0.013611734366787132 -0.0089245397446269283 -0.007637440338125882 0.014853249896200437 0.0027658397404049405 0.009051858476092859 0.035926872005592685 0.01762237869512908 0.024044800013985908 0.02068291733231465 0.00028575885769322433 0.0214432241895792 0.0056028015147522375 -0.029475992809187387 0.013428169146909719 0.027033168110251627 0.020946530006542244 0.028062923479581493 -0.0040033144757691663 0.0090389268544405297
leaf_weight=883.2917346060276 70.451228901743889 694.50631913542747 66.879722282290459 275.48907269537449 57.100183486938477 77.029377639293671 407.93818227946758 61.274941667914391 332.15447989106178 275.97236795723438 206.93958036601543 190.9830020815134 195.19130076467991 188.97040548920631 725.60133427381516 383.16297088563442 49.408306837081909 130.3919150531292 172.75926300883293 429.33983936905861 183.51934778690338 60.936722949147224 421.89713905751705 91.706285804510117 345.15278212726116 102.91265249252319 464.11618387699127 59.98177894949913 511.82051280140877
leaf_count=4347 323 3028 271 1116 233 332 1837 257 1386 1183 913 794 785 778 2916 1583 200 525 699 1761 737 263 1995 376 1390 418 1891 244 2072
internal_value=0.000138661 -0.0144765 0.0129964 -0.00205532 0.0218872 0.000405778 -0.0266227 0.00509825 -0.00778526 -0.0105584 -0.0216233 0.00760363 0.0165059 -0.00696362 0.0128768 0.0292425 -0.00239422 0.0113611 0.0103116 -0.00258598 0.0128335 -0.0126493 -0.0247755 0.000893308 0.0226689 0.0254518 0.0238611 0.011791 0.00715464
internal_weight=8116.88 3798.77 4318.11 1878.7 2530.49 1787.62 1920.07 1252.22 1179.3 535.394 1036.77 699.4 1463.22 464.943 922.873 1067.27 240.391 855.993 745.855 506.369 459.008 755.443 829.835 423.861 540.344 684.111 627.011 162.894 573.095
internal_count=34653 16992 17661 7900 10256 7405 9092 5121 5053 2284 4745 2847 5887 1961 3712 4369 994 3441 3028 2093 1853 3291 3832 1762 2175 2786 2553 662 2329
is_linear=0
shrinkage=0.03


Tree=18
num_leaves=30
num_cat=3
split_feature=18 22 22 22 18 18 22 22 22 26 23 26 21 31 16 23 26 12 22 1 26 34 9 1 9 34 30 31 21
split_gain=1540.9 633.522 487.89 124.257 111.175 105.621 84.4182 70.7284 57.0165 53.3339 49.7127 45.8611 44.4281 29.0257 26.2569 25.6058 24.4179 20.6703 19.4061 28.053 20.1673 19.216 19.1497 18.6166 17.6475 16.9033 18.2061 15.8106 18.0682
threshold=0 0.0059746576846881902 -0.0078802850576565314 0.092003607367394005 1 2 -0.055407257474945508 -0.05134636326877897 0.05662270260302283 0.57744126214211267 0.10902631317462187 0.64032644634720948 -0.1602124571143615 0.99882206862473144 0.44174228675136124 -0.093548280605986897 -0.61022719535328596 -0.017391304347826094 0.049437259142976454 0.28019042540326633 1.2395550360683796 0.0024215834485701005 0.23125000000000004 0.16253154529184413 0.10625000000000002 0.00077982686729090019 0.40055309159433689 1.3407955711182138 -0.066365322514620281
decision_type=1 2 2 2 1 1 2 2 2 2 2 2 2 2 2 2 2 2 2 2 2 2 2 2 2 2 2 2 2
left_child=1 7 5 9 8 6 12 27 24 17 21 22 -2 -5 -8 -7 -14 -3 20 -20 -11 -6 -9 -19 -4 26 -15 28 -1
right_child=2 3 4 13 10 15 14 11 -10 18 -12 -13 16 25 -16 -17 -18 23 19 -21 -22 -23 -24 -25 -26 -27 -28 -29 -30
leaf_value=-0.033009411184193628 -0.027582836541007485 -0.006123458864766557 0.030289124257886182 0.019157261083692638 0.0031484322445044636 -0.019260122583339284 0.0093862695106298726 -0.0067953797283891951 0.031965035082848092 -0.010313667451382895 0.025152697786497074 -0.025895986815880508 0.0097335889974032655 -0.014159003491528203 0.023957235719740327 -0.0052084175361435383 -0.0041039274798198707 -0.002030630843604643 -0.0089608417853303049 0.014520233668375362 -0.023562485733559166 0.015210390219902318 -0.018700912033594981 0.010697657491696442 0.019128970382990329 0.016130719087913203 0.007760861671042992 -0.035540030776449842 -0.021307747815410134
leaf_weight=260.33776299655437 57.956679105758667 239.48063051700592 153.31164175271988 254.96331696212292 378.05485644936562 213.63940626382828 489.55322875082493 226.46831637620926 711.12262605130672 348.79406578838825 178.56797251105309 551.32009679079056 158.60094511508942 61.269710466265678 144.24820952117443 258.11051106452942 407.61387670040131 188.92029759287834 248.01501090824604 55.168566197156906 148.15539039671421 172.88117606937885 266.01021841168404 226.78727944195271 866.31860320270061 67.165493696928024 74.437708646059036 445.71863357722759 235.93651087582111
leaf_count=1299 268 994 621 1026 1521 935 1970 990 2946 1509 727 2604 646 250 580 1067 1687 783 1055 231 668 695 1188 938 3483 274 303 2240 1148
internal_value=7.26578e-05 -0.0134992 0.012702 -0.00117675 0.0212829 0.000491731 0.00503155 -0.0253643 0.0254239 -0.0054654 0.0114371 -0.0199483 -0.00279863 0.0124378 0.012735 -0.0115992 -0.00021761 0.000881697 -0.0106573 -0.00465444 -0.0143029 0.00695412 -0.013251 0.00492223 0.020835 0.00394041 -0.00216678 -0.0313381 -0.0275003
internal_weight=8088.93 3898.95 4189.98 1913.16 2460.26 1729.72 1257.97 1985.79 1730.75 1455.32 729.504 1043.8 624.172 457.836 633.801 471.75 566.215 655.188 800.133 303.184 496.949 550.936 492.479 415.708 1019.63 202.873 135.707 941.993 496.274
internal_count=34646 17500 17146 8031 9993 7153 5151 9469 7050 6178 2943 4782 2601 1853 2550 2002 2333 2715 3463 1286 2177 2216 2178 1721 4104 827 553 4687 2447
cat_boundaries=0 1 2 3
cat_threshold=4 2 2
is_linear=0
shrinkage=0.03


Tree=19
num_leaves=30
num_cat=0
split_feature=20 23 21 23 31 23 21 0 33 12 25 29 21 31 12 34 34 23 31 26 26 29 23 12 21 19 13 23 34
split_gain=1450.92 336.044 251.004 126.613 121.923 90.2836 65.3487 64.472 49.5505 44.8352 47.6983 43.3185 40.6666 40.2581 37.5014 37.3492 36.0182 34.924 33.0411 29.3033 28.4741 28.4291 31.0757 32.1853 27.9465 27.0641 24.6768 24.4684 27.3702
threshold=-0.051406178514060631 -0.041915302557870647 -0.028956612794236971 0.086266083150252929 1.2815983726918727 -0.18757289218060968 0.052483267917204986 0.050893252041898554 0.07487724568686846 -0.034782608695652188 0.11578947368421054 0.19991750666123168 -0.10276511966157557 1.5232591360324708 0.026086956521739094 -0.056760967871059394 0.0054639838078217508 -0.024502729571601652 1.3653037410165159 1.2395550360683796 0.47504514149150207 0.22898438501452836 0.12403404819964726 -0.017391304347826094 0.13009384349475153 0.57537878787878804 1.0000000180025095e-35 -0.098568931049553984 -0.015079640476446549
decision_type=2 2 2 2 2 2 2 2 2 2 2 2 2 2 2 2 2 2 2 2 2 2 2 2 2 2 2 2 2
left_child=2 5 12 8 6 14 20 18 9 10 -3 -11 -1 -14 -2 -12 25 -10 27 24 -4 22 23 -5 -6 -9 -19 -7 -29
right_child=1 3 4 21 19 7 -8 16 17 11 15 -13 13 -15 -16 -17 -18 26 -20 -21 -22 -23 -24 -25 -26 -27 -28 28 -30
leaf_value=-0.034790160041301949 -0.025834879491405695 -0.0069488222778943442 -0.0029988828499907909 0.023477820273456362 -0.014235084478702082 -0.010074087043854152 0.0043346011942606184 -0.003977631912988602 -0.017907885343242457 0.0449282730709595 -0.0059289708030708082 0.018263940062696188 -0.017201518372196901 -0.031274828801720819 0.0042934354819061044 0.023810418404844533 0.017125345454872477 0.011426612971696393 -0.027900250918555719 -0.022899020978299593 -0.013413190408325285 0.032095280620318641 0.029876150364750827 -0.0081861320089333736 0.010131227482079102 0.0089241152524470336 -0.0083519067026335599 0.024006563076224112 -0.0021124703148558384
leaf_weight=307.26387430727482 147.70405498147011 131.20973935723305 473.90121047198772 58.314756393432617 574.19375437498093 201.47523210942745 617.93400676548481 235.50243353843689 49.1051255017519 57.333912461996078 50.472418397665024 1091.1616508215666 554.54474377632141 277.17735774815083 49.235920518636703 148.73650531470776 270.9363064467907 382.9011470079422 53.586845070123672 401.35519035160542 471.71330894529819 548.9251504689455 123.37663981318474 55.574980735778809 45.035356342792511 383.47156631946564 65.880905777215958 48.960981145501137 129.72879335284233
leaf_count=1537 663 532 2048 238 2594 854 2578 971 200 232 205 4429 2604 1365 217 603 1105 1552 221 1850 2096 2270 511 226 190 1559 267 201 533
internal_value=2.45467e-06 0.0119072 -0.0136939 0.0181388 -0.00851678 0.000579505 -0.00324818 0.00340301 0.0140764 0.0168317 0.00706481 0.019633 -0.025422 -0.0219235 -0.018319 0.0162835 0.00802253 0.00587473 -0.0060713 -0.0165773 -0.00820267 0.0283226 0.0194964 0.00808994 -0.0124495 0.00401686 0.00851103 -0.00292924 0.00513791
internal_weight=8006.71 4283.6 3723.12 2762.99 2584.13 1520.6 1563.55 1323.66 1976.8 1478.91 330.419 1148.5 1138.99 831.722 196.94 199.209 889.91 497.887 433.752 1020.58 945.615 786.192 237.266 113.89 619.229 618.974 448.782 380.165 178.69
internal_count=34451 17589 16862 11265 11356 6324 6722 5444 8020 6001 1340 4661 5506 3969 880 808 3635 2019 1809 4634 4144 3245 975 464 2784 2530 1819 1588 734
is_linear=0
shrinkage=0.03


Tree=20
num_leaves=30
num_cat=3
split_feature=18 22 22 22 22 18 22 24 24 18 22 26 16 26 20 22 22 7 12 24 24 34 19 7 19 22 22 19 9
split_gain=1451.85 559.584 470.343 107.718 100.371 86.4792 73.4712 59.1134 55.5666 53.6576 52.5624 44.8089 42.1534 41.9397 37.3466 31.7694 29.4159 26.1256 25.9666 25.5113 21.9074 21.8773 21.7847 20.7891 20.6527 19.3055 18.9912 17.9124 17.3579
threshold=0 0.0052597814783301453 -0.001740625009264529 0.049437259142976454 -0.055407257474945508 1 -0.053917320676163498 0.65250000000000019 0.34250000000000008 2 0.08545153262402079 0.64032644634720948 0.22253968253968257 0.5964368988783012 -1.628881840019021 0.088524888583105157 0.12206823474311886 0.87000000000000011 -0.017391304347826094 0.41000000000000009 0.99250000000000005 0.025180848410261754 0.6478537360890303 0.89000000000000012 0.34891304347826091 0.14728745631869497 -0.11016024048543986 0.29520697167755999 0.30625000000000008
decision_type=1 2 2 2 2 1 2 2 2 1 2 2 2 2 2 2 2 2 2 2 2 2 2 2 2 2 2 2 2
left_child=1 6 4 14 7 10 20 -2 -5 21 19 -8 -9 16 -3 -7 -10 -15 -16 -4 -1 22 -6 -20 -25 -19 -22 -28 -21
right_child=2 3 5 8 9 15 11 12 13 -11 -12 -13 -14 17 18 -17 -18 25 23 28 26 -23 -24 24 -26 -27 27 -29 -30
leaf_value=-0.036886224582162029 -0.023778609456400611 -0.020789558667047313 0.04225606799956054 0.035794401128798309 0.0036888281661330313 0.0085411364976721825 -0.012808638400453825 -0.0086898907051014603 0.0051784466926114454 -0.0034920605256585362 0.034357595088676439 -0.025104667356513521 0.0067468442424121998 0.015277745393021493 -0.01436811430621456 0.023701909883688397 0.02221305636896552 -0.0078455157651662732 0.013809494124689623 0.02445053399518423 -0.036710551385433485 0.02251569127670355 0.015203435818468711 -0.008476204399552387 0.0069371870284183051 0.011371281750951168 -0.02784647062865582 -0.013411037207133165 0.017045709349608872
leaf_weight=362.85257257521152 149.6042791903019 200.66556443274021 52.719362854957581 48.507064685225487 314.62877462804317 515.73801842331886 502.90188531577587 431.19069601595402 362.15480320155621 296.91396743059158 407.54715962707996 577.05840621888638 251.15522381663322 61.274352014064789 230.53141301870346 163.96707051992416 121.39935411512852 382.66903293132782 62.987970858812332 605.92001189291477 134.98210464417934 134.70549991726875 279.45376859605312 307.31116528809071 104.00252020359039 52.732501432299614 250.01712994277477 116.34613950550556 564.97741812467575
leaf_count=1875 673 897 219 198 1267 2074 2252 1825 1476 1225 1721 2786 1023 257 985 673 488 1609 272 2464 689 543 1124 1326 432 212 1273 574 2288
internal_value=-7.63788e-05 -0.0132855 0.0122136 -0.00185848 0.000972604 0.0212457 -0.0246474 -0.00676583 0.00478166 0.00724975 0.0249936 -0.019396 -0.00300644 0.00321207 -0.0093993 0.0122279 0.00949211 -0.00290885 -0.00613164 0.0218493 -0.0311799 0.0116248 0.00912169 -0.00210655 -0.00457149 -0.0054974 -0.0269847 -0.0233112 0.0208952
internal_weight=8046.92 3878.39 4168.52 1934.24 1857.65 2310.87 1944.16 831.95 1028.74 1025.7 1631.16 1079.96 682.346 980.23 905.499 679.705 483.554 496.676 704.833 1223.62 864.198 728.788 594.083 474.302 411.314 435.402 501.345 366.363 1170.9
internal_count=34720 17601 17119 8152 7680 9439 9449 3521 4240 4159 6692 5038 2848 4042 3912 2747 1964 2078 3015 4971 4411 2934 2391 2030 1758 1821 2536 1847 4752
cat_boundaries=0 1 2 3
cat_threshold=4 2 2
is_linear=0
shrinkage=0.03


Tree=21
num_leaves=30
num_cat=2
split_feature=18 22 22 18 22 22 22 22 9 23 9 19 19 9 22 25 9 33 34 34 21 22 19 21 1 22 19 9 34
split_gain=1321.24 553.837 446.067 114.031 96.5376 81.6469 76.1607 57.5581 49.6172 44.7753 42.0979 38.346 38.268 33.5341 33.0913 32.4919 31.4384 29.9991 22.1542 27.2992 27.0986 21.8281 21.6099 21.2234 20.203 21.4195 19.5033 18.2106 17.3627
threshold=0 0.0084751762155433081 -0.01553843490304707 1 0.049437259142976454 -0.055407257474945508 -0.045572514603105817 0.086596653977015672 0.11875000000000001 0.068838370371546567 0.40625000000000006 0.20942982456140355 0.68090909090909102 0.15625000000000003 0.15681138607851178 -0.24852813852813849 0.23125000000000004 0.013957926820288751 0.025587828442368902 -0.032777199094614191 0.0027436248265287348 -0.093422409153828614 0.26393188854489169 -0.06541004201596344 0.30790606833734557 0.11008196350133594 0.29520697167755999 0.15625000000000003 -0.059922656970633946
decision_type=1 2 2 1 2 2 2 2 2 2 2 2 2 2 2 2 2 2 2 2 2 2 2 2 2 2 2 2 2
left_child=1 6 5 7 15 8 23 13 -2 -5 24 -8 18 -4 22 -3 -13 -10 19 -7 -21 -19 -12 -1 25 -6 -25 -17 -15
right_child=2 4 3 9 10 12 11 -9 17 -11 14 16 -14 28 -16 27 -18 21 -20 20 -22 -23 -24 26 -26 -27 -28 -29 -30
leaf_value=-0.034343337975182596 0.0020033530473074963 -0.01580466051673559 0.028279680935997413 0.0042118563298692291 0.0051524048909808162 0.01019272360341932 -0.023771532539312575 0.033409741273588832 -0.031379208600729694 0.019590029850992272 -0.0079980262836199332 -0.0035494831337799745 0.017424344639284491 0.0030346975724832143 0.02043641566120985 0.011117773142270733 -0.018784306996575458 -0.019240325513512607 0.01391970479822483 -0.011889832194755501 0.0072607163731621622 -0.005480455213001347 0.0056267911246724936 -0.028866813093671038 0.029455657871407834 0.019855668906625042 -0.015478568945227597 -0.0059599448440218689 0.018650910975871883
leaf_weight=480.07036671042442 303.30093652009964 337.99761639535427 361.29175581037998 511.28912763297558 309.1077384352684 134.74013110995293 508.11142154037952 389.54664915800095 70.140651613473892 255.16019226610661 308.53056953847408 220.85453249514103 194.43964448571205 68.913213729858398 58.096111223101616 64.117377176880836 272.66084675490856 160.32067388296127 110.71541741490364 212.80444240570068 95.725329861044884 294.28849937021732 157.5170873850584 388.374028891325 49.979494333267212 124.96992118656635 136.33550722897053 411.60780571401119 1001.168498724699
leaf_count=2509 1262 1504 1479 2057 1281 549 2434 1659 319 1042 1297 974 782 279 234 263 1235 697 451 873 386 1234 639 1996 204 504 670 1744 4065
internal_value=-0.000281943 -0.0130012 0.0114127 0.0190749 -0.00102485 -0.00116685 -0.0238704 0.0231608 -0.0076532 0.00935029 0.00517704 -0.0179831 0.00601022 0.0203502 -0.000715953 -0.00870591 -0.0119875 -0.0132278 0.00197988 -0.00102695 -0.00594387 -0.0103645 -0.00339086 -0.0297156 0.0115464 0.00942135 -0.0254242 -0.00363975 0.017649
internal_weight=7992.18 3828.33 4163.85 2587.37 1821.92 1576.48 2006.41 1820.92 828.051 766.449 1008.2 1001.63 748.425 1431.37 524.144 813.723 493.515 524.75 553.985 443.27 308.53 454.609 466.048 1004.78 484.057 434.078 524.71 475.725 1070.08
internal_count=34622 17488 17134 10581 7670 6553 9818 7482 3512 3099 4159 4643 3041 5823 2170 3511 2209 2250 2259 1808 1259 1931 1936 5175 1989 1785 2666 2007 4344
cat_boundaries=0 1 2
cat_threshold=4 2
is_linear=0
shrinkage=0.03


Tree=22
num_leaves=30
num_cat=4
split_feature=18 22 22 22 22 18 24 22 18 19 19 22 20 24 18 23 25 33 21 21 19 9 24 22 9 29 29 9 34
split_gain=1225.87 524.973 402.411 128.441 102.161 96.4361 77.0573 71.6563 55.8652 39.9227 39.3963 36.3378 30.6041 29.0591 27.7029 27.5879 25.7773 24.9041 25.2199 24.6364 29.101 21.5924 20.0134 19.6008 19.0357 25.1032 31.4381 18.9621 18.0504
threshold=0 0.01959575613398393 -0.037612828581589978 0.05662270260302283 -0.034342597509128735 1 0.30250000000000005 0.092003607367394005 2 0.20942982456140355 0.25320512820512825 -0.099015523797947494 -1.3166339729288048 0.45500000000000007 3 0.018521194370203584 0.35178799489144325 0.019811213492902501 0.034311083765126212 -0.10394179332349536 0.29099462365591405 0.18125000000000002 0.99250000000000005 -0.084240457254171022 0.50625000000000009 0.35196326798109645 0.26655421968738197 0.15625000000000003 0.044580337933507956
decision_type=1 2 2 2 2 1 2 2 1 2 2 2 2 2 1 2 2 2 2 2 2 2 2 2 2 2 2 2 2
left_child=1 4 6 5 19 13 -2 10 11 -6 17 22 -9 -4 -5 -7 -13 18 -3 -1 -21 -11 -8 -10 -15 26 -26 -12 -19
right_child=2 7 3 14 9 15 8 12 23 21 27 16 -14 24 -16 -17 -18 28 -20 20 -22 -23 -24 -25 25 -27 -28 -29 -30
leaf_value=-0.036749433967576781 -0.03492975024637212 -0.010807052796365681 0.033900899857463765 0.029039387757025106 -0.020554238061827799 -0.0018696350997221289 -0.018281562993106848 -0.0018987103156414538 -0.024350427732023117 0.0005805224490198985 0.015943327305327906 0.0020513849226094869 0.015387786005450457 0.017438268261937343 0.017814670682688039 0.012090194600433932 0.016269055349596179 -0.012180549854302367 0.015429827778953355 -0.029479779551981271 -0.018017741905797132 -0.013058782630289803 -0.00021101842761567111 -0.0076732354680186677 0.0054097599461554093 -0.0085318490955675758 0.031996580231999902 0.00045443777083954549 0.0069501413392151403
leaf_weight=238.74208651483059 67.29066401720047 58.111828118562698 84.059141591191292 697.80591674149036 553.1851612329483 412.87195537984371 98.335193783044815 127.41603843867779 97.631607726216316 153.43897558748722 87.136243298649788 411.20216177403927 330.34209610521793 1083.392203181982 285.44470928609371 183.13955326378345 158.39832371473312 524.40153068304062 73.678322225809097 626.54598158597946 302.14751707017422 325.7171483784914 124.08731670677662 181.96752351522446 131.43868757784367 60.448980525135994 56.900411456823349 369.11703236401081 47.848336651921272
leaf_count=1276 313 254 347 2960 2633 1674 425 522 435 665 352 1680 1333 4381 1167 734 639 2278 311 3245 1494 1459 518 779 528 243 229 1523 205
internal_value=-0.00017183 -0.0124275 0.0111457 0.0169153 -0.021965 0.0125622 -0.00403066 0.000544423 -0.00205965 -0.0150654 -0.00342148 0.00201312 0.0105825 0.0168202 0.0258022 0.00243294 0.00602671 -0.00786725 0.00386662 -0.028048 -0.025774 -0.00869899 -0.00824625 -0.0135627 0.0157178 0.00818615 0.0135687 0.00344094 -0.0105716
internal_weight=7952.24 3817.83 4134.41 2995.5 2199.78 2012.25 1138.91 1618.05 1071.62 1032.34 1160.29 792.023 457.758 1416.24 983.251 596.012 569.6 704.04 131.79 1167.44 928.693 479.156 222.423 279.599 1332.18 248.788 188.339 456.253 572.25
internal_count=34602 17550 17052 12263 10772 8136 4789 6778 4476 4757 4923 3262 1855 5728 4127 2408 2319 3048 565 6015 4739 2124 943 1214 5381 1000 757 1875 2483
cat_boundaries=0 1 2 3 4
cat_threshold=4 2 2 2
is_linear=0
shrinkage=0.03


Tree=23
num_leaves=30
num_cat=0
split_feature=20 22 22 22 22 23 16 26 16 22 26 24 22 34 12 22 34 1 12 9 34 21 24 35 24 27 26 1 12
split_gain=1194.55 491.053 423.15 104.05 96.7148 64.7745 49.5162 48.4144 47.7914 47.5843 42.0517 38.9908 40.2385 32.5351 31.2049 31.1954 30.292 40.5685 27.7963 27.1091 25.5108 22.1556 21.5744 22.6094 21.0041 20.4814 19.6385 16.1688 15.3624
threshold=-0.051406178514060631 -0.0054335143352251527 -0.021806704352547442 0.070951609037926591 0.049437259142976454 -0.18757289218060968 0.29614814814814822 1.2395550360683796 0.3340136054421769 -0.074848124397941015 0.93343647689331088 0.44250000000000006 0.1136586172899532 -0.021888526632133799 -0.041304347826086933 -0.05134636326877897 0.021941241306696002 0.15257863258670504 0.026086956521739094 0.15625000000000003 0.011029216939595752 -0.10276511966157557 0.41000000000000009 0.044227799587431511 0.93000000000000005 0.40588235294117653 0.029216557228519163 0.25220521191359896 0.008695652173913106
decision_type=2 2 2 2 2 2 2 2 2 2 2 2 2 2 2 2 2 2 2 2 2 2 2 2 2 2 2 2 2
left_child=1 9 5 8 7 18 13 19 16 -1 21 -6 25 14 -7 -15 22 28 -2 -3 27 -11 -4 26 -5 -13 -24 -17 -18
right_child=2 4 3 24 11 6 -8 -9 -10 10 -12 12 -14 15 -16 20 17 -19 -20 -21 -22 -23 23 -25 -26 -27 -28 -29 -30
leaf_value=-0.032380484815327015 -0.026397549651050848 0.0050607616208748771 0.027626041442790586 0.034860910273123991 0.028723780671215844 -0.01582567531261353 0.0095926130864406687 -0.022963428735150389 0.022801237497323858 -0.03189938382571543 -0.02942249571464127 -0.0039500046750958655 0.012413700240830581 -0.012636518263273814 0.0096405230508627288 -0.00059998276173730972 -0.0073977591764331826 0.026204056519086336 0.00094219343029932831 -0.0085966105684798805 0.012037806547801741 -0.015121680908378857 0.009765555862332527 0.025758674639779908 0.023674522129918271 0.01011867816152138 0.0008202917269313284 -0.020738359157467655 0.013993472802613425
leaf_weight=530.80171170830727 129.98779614269733 159.21117681264877 53.472037196159363 213.89722780883312 53.437536910176277 52.261395335197449 351.11392702162266 185.41893947124481 424.29609926044941 80.004433840513229 382.16151534020901 529.5686309337616 263.9046716094017 390.76732210814953 231.72008237242699 119.40815733373165 51.813915848731995 239.48794160783291 44.865046828985214 717.62647943198681 105.75736723840237 636.11457842588425 783.99199759960175 62.019951313734055 578.58397063612938 111.97506566345692 307.64545893669128 50.334285229444504 69.900585249066353
leaf_count=2859 605 686 220 909 218 218 1424 879 1740 408 1970 2218 1066 1659 965 488 209 974 202 3141 431 3029 3167 250 2455 461 1240 206 282
internal_value=-0.000131181 -0.0127245 0.0106566 0.0175372 -0.00284266 -0.00232768 -1.83848e-05 -0.0090738 0.013868 -0.0249753 -0.0213702 0.00406247 0.00257693 -0.00357597 0.00491487 -0.00719694 0.0114383 0.019059 -0.019417 -0.00611384 0.000536322 -0.0170379 0.00914407 0.00826425 0.0267339 -0.00148253 0.00724766 -0.00665817 0.00490114
internal_weight=7911.55 3650.22 4261.32 2785.11 2021.14 1476.22 1301.36 1062.26 1992.63 1629.08 1098.28 958.886 905.448 950.249 283.981 666.267 1568.33 361.202 174.853 876.838 275.5 716.119 1207.13 1153.66 792.481 641.544 1091.64 169.742 121.715
internal_count=34579 16935 17644 11446 8669 6198 5391 4706 8082 8266 5407 3963 3745 3967 1183 2784 6342 1465 807 3827 1125 3437 4877 4657 3364 2679 4407 694 491
is_linear=0
shrinkage=0.03


Tree=24
num_leaves=30
num_cat=2
split_feature=18 22 22 18 22 22 23 26 22 26 34 26 22 19 23 30 30 23 34 26 34 31 30 22 22 29 34 19 29
split_gain=1145.3 508.174 344.624 127.168 115.083 73.9147 58.6949 52.5278 50.0939 48.7573 44.6231 42.0658 41.6863 33.0586 31.308 28.2769 27.6512 25.0721 24.7579 18.6493 18.3876 18.0562 17.8184 20.452 17.159 17.1929 16.7015 19.7263 15.1489
threshold=0 -0.0094389447966085598 -0.037612828581589978 1 0.070662049667634688 0.071064235133134271 0.020605929521658937 0.029216557228519163 -0.099363485214190181 1.2395550360683796 0.0088122240150024529 0.57744126214211267 -0.074848124397941015 0.27149877149877155 -0.12758501528809399 0.55501949287073948 0.61965285551015215 -0.12739624644439165 -0.022690633601593898 -0.54932578816031097 -0.054537556091240343 2.0756226985635391 0.44726176758721037 0.1267613690786604 0.014347212802425876 0.48682520997625017 0.047808970454762061 0.32916666666666672 0.35330148617915808
decision_type=1 2 2 1 2 2 2 2 2 2 2 2 2 2 2 2 2 2 2 2 2 2 2 2 2 2 2 2 2
left_child=1 12 7 5 9 15 -5 8 -2 16 14 -6 -1 -14 -10 21 26 -9 20 -20 -16 24 23 -13 28 -26 27 -3 -4
right_child=2 4 3 6 11 -7 -8 17 10 -11 -12 22 13 -15 18 -17 -18 -19 19 -21 -22 -23 -24 -25 25 -27 -28 -29 -30
leaf_value=-0.031514769332637853 -0.01216179615962489 -0.010331354563050078 0.015181232081461778 -0.00023509851149239731 0.014855568433602938 0.030144454612724976 0.015335279748803561 -0.032147616190503998 -0.012212505113803241 -0.019268548579922565 0.016333450802011241 -0.011702289986805239 -0.025369622020418755 -0.014401136388664684 0.001946094629615547 0.025164765928528295 0.0061556762629782335 -0.0095477445144588318 0.011939467388598074 -0.0092875655993556131 0.0217033169464632 -0.00094197662777664054 0.0074395472599033318 0.0088401505861011812 0.017028504900383417 0.030282996118721869 0.0098787695602991152 -0.00083952408867966357 0.0043407661765780146
leaf_weight=535.66142548620701 227.42288513481617 672.9318909496069 413.67787620425224 480.749994546175 348.97013905644417 528.10145220160484 397.47061870992184 64.104725763201714 147.9349544942379 250.84313330054283 191.04625160992146 143.9331109970808 651.41626459360123 407.0178784430027 80.326907262206078 318.12066166102886 177.84047509729862 141.85944882035255 50.536782473325729 133.71157698333263 89.29176190495491 59.942036435008049 175.80043287575245 61.545981496572495 518.09760320186615 108.1815419793129 51.32564152777195 278.74829439818859 162.51048202812672
leaf_count=2927 979 2968 1670 1947 1409 2292 1622 299 638 1188 787 601 3322 1934 327 1304 768 603 204 550 364 243 720 249 2115 443 221 1172 656
internal_value=0.000156868 -0.0118182 0.0110926 0.0164235 -0.00233994 0.0204176 0.00682127 -0.00304727 2.38326e-05 -0.00728165 0.00403545 0.00734522 -0.0246632 -0.0211693 -0.000669825 0.0171505 -0.00472116 -0.0167031 0.00417644 -0.00343226 0.0124131 0.0151127 0.000450408 -0.00553632 0.0159131 0.0193627 -0.00665392 -0.00755499 0.0121366
internal_weight=7869.12 3756.03 4113.09 2986.85 2161.94 2108.63 878.221 1126.24 920.271 1431.69 692.848 730.25 1594.1 1058.43 501.802 1580.53 1180.85 205.964 353.867 184.248 169.619 1262.41 381.28 205.479 1202.47 626.279 1003.01 951.68 576.188
internal_count=34522 17479 17043 12292 9296 8723 3569 4751 3849 6317 2870 2979 8183 5256 2083 6431 5129 902 1445 754 691 5127 1570 850 4884 2558 4361 4140 2326
cat_boundaries=0 1 2
cat_threshold=4 2
is_linear=0
shrinkage=0.03


Tree=25
num_leaves=30
num_cat=0
split_feature=20 22 22 22 22 22 24 22 19 9 24 26 33 19 26 19 9 24 34 1 24 22 24 16 34 30 9 22 19
split_gain=971.045 463.036 386.764 100.708 87.9008 69.8205 62.1944 58.9703 48.3925 41.6036 36.0817 32.4542 31.973 31.7116 29.1086 28.9849 25.7824 25.7599 31.2281 28.7774 22.5641 27.227 22.025 21.8242 21.4948 31.0946 21.2792 21.0695 19.7801
threshold=-0.024998802314787408 0.0070972272868468364 -0.016924839672759869 0.071320247913767246 0.070662049667634688 -0.031222323478014232 0.30250000000000005 -0.099015523797947494 0.6478537360890303 0.19375000000000003 0.64250000000000018 0.92260829282625634 0.016124097942214751 0.24662162162162166 0.37492926398701043 0.22361111111111112 0.093750000000000014 0.42500000000000004 0.032749494105495304 0.1475654112825753 0.61250000000000016 -0.11016024048543986 0.86750000000000005 0.40204081632653071 -1.0000000180025095e-35 0.44355391457237198 0.15625000000000003 0.037803482142095342 0.40824915824915831
decision_type=2 2 2 2 2 2 2 2 2 2 2 2 2 2 2 2 2 2 2 2 2 2 2 2 2 2 2 2 2
left_child=1 5 6 8 14 15 -2 16 17 23 -6 26 -11 24 -3 -1 -8 -4 27 -20 -17 -22 -14 -9 25 -12 -7 28 -19
right_child=2 4 3 -5 10 11 7 9 -10 12 13 -13 22 -15 -16 20 -18 18 19 -21 21 -23 -24 -25 -26 -27 -28 -29 -30
leaf_value=-0.03177092320821201 -0.027034727935665071 0.0015277394017793862 0.028094842564381391 0.025871563344156145 0.026279520006963198 -0.00084198905160146693 -0.0010527387801052774 0.0041880294416042517 0.01989665841142604 -0.023407250765650478 -0.020763855291379515 -0.0232550298381454 -0.012448293924930834 0.012954541643946238 -0.0091665767385044131 -0.036607208837829121 -0.01918129272589407 -0.0034605993588745724 0.0028465317584871054 0.028196813749270244 -0.033833218653927973 -0.01551056729869397 0.0021306351587706877 0.016920573442482056 0.0051028077006972988 0.0087397332105119806 -0.014509150607459494 0.012395699387552139 0.0072679503105872265
leaf_weight=553.56043271720409 83.752859234809875 326.10935214161873 63.669923216104507 760.75820611417294 81.388161972165108 150.15933261811733 112.31505432724953 358.33268824219704 609.08230349421501 59.788676574826241 86.9429572224617 269.50901252031326 113.69035224616528 265.57366147637367 766.71849817037582 79.981674373149872 189.68340770900249 240.1060496121645 59.866295114159584 123.8773544728756 91.724433273077011 367.67130997776985 498.23146377503872 182.80724690854549 218.42479507625103 49.959970101714134 323.09837065637112 363.84969919919968 431.18741227686405
leaf_count=3040 392 1367 265 3275 329 675 473 1475 2498 254 361 1366 480 1069 3384 431 845 968 242 506 505 1892 2049 739 900 206 1497 1479 1740
internal_value=-0.000100509 -0.0114927 0.00963007 0.016653 -0.000657044 -0.0220826 -0.00202551 -0.000625881 0.0129339 0.00232986 0.00761775 -0.0149514 -0.00265629 0.00513323 -0.00597682 -0.0269109 -0.0124649 0.00961438 0.0086268 0.0199974 -0.0218736 -0.0192345 -0.000593908 0.0085126 -0.000732404 -0.0100118 -0.0101836 0.00659109 0.00343116
internal_weight=7881.82 3630.82 4251 2652.4 1795.12 1835.7 1598.6 1514.85 1891.64 1212.85 702.29 742.767 671.71 620.901 1092.83 1092.94 301.998 1282.56 1218.89 183.744 539.377 459.396 611.922 541.14 355.328 136.903 473.258 1035.14 671.293
internal_count=34702 17022 17680 10973 7616 9406 6707 6315 7698 4997 2865 3538 2783 2536 4751 5868 1318 5200 4935 748 2828 2397 2529 2214 1467 567 2172 4187 2708
is_linear=0
shrinkage=0.03


Tree=26
num_leaves=30
num_cat=2
split_feature=18 23 23 18 20 21 31 23 23 23 7 26 12 1 21 23 7 30 26 33 1 23 33 1 26 16 25 12 1
split_gain=962.831 243.238 238.162 120.329 95.3163 57.9745 56.8449 53.3363 52.9508 48.262 37.5476 37.2001 36.0644 30.6332 30.3368 30.2794 33.7679 25.1176 22.7321 22.0615 26.0334 23.644 21.4037 23.6572 21.3179 21.0117 19.0269 18.9848 18.2874
threshold=0 0.018521194370203584 -0.016441271669152404 1 -1.1435136824552952 -0.1064608228092956 1.5083606188741976 -0.21136033466591717 -0.11385621731111116 0.12358672267894429 1.0000000180025095e-35 -0.34170866939102812 -0.065217391304347824 0.17462241009040685 0.12898772947992235 0.066680514091515056 0.73000000000000009 0.27650625822321445 0.5263850290429789 0.07487724568686846 0.18925713542770681 -0.052481053592679787 0.090430234396364509 0.13507804500229678 0.74015819888932011 0.015484515484515486 -0.13698005698005691 -0.013043478260869599 0.28019042540326633
decision_type=1 2 2 1 2 2 2 2 2 2 2 2 2 2 2 2 2 2 2 2 2 2 2 2 2 2 2 2 2
left_child=2 3 5 7 14 -1 24 -2 -5 11 -9 -3 -12 22 -4 16 -6 -15 -17 21 -21 -14 23 -13 -7 -25 28 -10 -18
right_child=1 9 4 8 15 6 -8 10 27 -11 12 13 19 17 -16 18 26 -19 -20 20 -22 -23 -24 25 -26 -27 -28 -29 -30
leaf_value=-0.032453848971882852 -0.013926025664572669 0.02353069761733298 -0.01364233566701532 -0.019632245890478229 0.020218376678159698 -0.0098480362936653864 -0.025848332230466696 -0.010958019255295366 -0.0084829638417470814 0.027643435918012844 -0.0096326111114494774 0.011476654327977225 0.0091884094131540906 0.035697299564383327 0.0025797338740842588 0.011773429177884157 -0.01432396951852471 0.013930397134142241 -0.00065131223329796355 0.0094606544413657293 -0.0098880657149934131 0.017416710163803768 0.016204711843166512 -0.021177046371091628 -0.019746901001061877 0.0039058334832671585 9.612047404100882e-05 0.0030659888438943138 0.0056958891273291862
leaf_weight=261.26898041367531 88.845242187380791 375.0162640362978 789.48176616430283 182.73577503859997 50.608330458402634 660.71608898043633 445.44956143200397 74.410155341029167 198.13977386057377 477.74861179292202 74.261710196733475 78.909000024199486 608.0127911567688 57.046790599822998 119.09559407830238 317.09112246334553 228.65903641283512 288.96347330510616 227.00642223656178 264.79421171545982 80.970068067312241 660.04454343020916 92.773184344172478 63.875369742512703 280.47659178078175 55.508857473731041 303.33826193213463 358.18798987567425 49.434114068746567
leaf_count=1444 412 1570 3691 819 224 3127 2335 306 814 2062 305 321 2500 236 510 1313 1020 1194 961 1080 329 2704 380 263 1401 229 1313 1468 223
internal_value=4.59062e-05 0.0101176 -0.0109636 0.00455949 -0.0042227 -0.0194835 -0.017018 0.00864347 -0.00566867 0.0197721 0.00978843 0.0160329 0.0107089 0.0115894 -0.0115155 0.00141602 -0.00304826 0.0176116 0.00659794 0.0116503 0.00491418 0.0134817 0.00439455 -0.00118452 -0.0128157 -0.00957895 -0.00510465 -0.00105509 -0.0107576
internal_weight=7812.87 4080.24 3732.63 2590.4 2084.71 1647.91 1386.64 1851.34 739.064 1489.84 1762.49 1012.09 1688.08 637.077 908.577 1176.14 632.04 346.01 544.098 1613.82 345.764 1268.06 291.066 198.293 941.193 119.384 581.431 556.328 278.093
internal_count=34554 16992 17562 10737 9255 8307 6863 7636 3101 6255 7224 4193 6918 2623 4201 5054 2780 1430 2274 6613 1409 5204 1193 813 4528 492 2556 2282 1243
cat_boundaries=0 1 2
cat_threshold=4 2
is_linear=0
shrinkage=0.03


Tree=27
num_leaves=30
num_cat=0
split_feature=22 26 26 22 22 22 19 19 1 23 26 31 9 31 19 31 1 34 12 16 22 34 27 33 24 23 12 12 25
split_gain=777.003 412.907 344.573 91.0586 78.4434 73.2165 66.8487 56.9796 54.6716 45.7413 39.4259 39.1017 37.523 42.3299 33.1033 30.4904 26.876 37.3284 25.956 24.9426 23.4438 23.0299 21.4571 20.0252 23.8191 18.4179 17.6254 17.5912 16.9911
threshold=-0.001740625009264529 0.2785781006249094 0.25686699593403223 -0.085576068278289771 0.098424694088747725 0.049437259142976454 0.54226190476190483 0.63762626262626265 0.28019042540326633 -0.12739624644439165 1.0609255358624219 1.6266953694869504 0.14375000000000002 1.269294429202126 0.22540322580645164 1.269294429202126 0.18115013230573682 -0.059922656970633946 0.032608695652173843 0.19855072463768117 -0.10681698472509217 0.0047652867132246006 0.59411764705882364 0.0063399200299026513 0.86250000000000016 -0.092357688652662459 -0.013043478260869599 0.021739130434782598 0.077485187623436438
decision_type=2 2 2 2 2 2 2 2 2 2 2 2 2 2 2 2 2 2 2 2 2 2 2 2 2 2 2 2 2
left_child=1 3 4 19 7 11 15 12 14 -3 20 21 -2 16 -7 25 17 -14 22 -1 -11 26 23 -8 -25 -5 -4 -23 -18
right_child=2 9 5 6 -6 8 18 -9 -10 10 -12 -13 13 -15 -16 -17 28 -19 -20 -21 -22 27 -24 24 -26 -27 -28 -29 -30
leaf_value=-0.018420393487688248 0.019474939897835164 -0.033553456551178223 -0.015172190453851514 -0.0099769369849580999 0.02636181901760486 -0.0045076596347763034 -0.015074670344858213 0.020741842870918587 0.020650100428791604 -0.032533634983535488 -0.028405227857134632 -0.019680959621167241 -0.019271220209380806 -0.012116091140526936 0.0086955160846187048 -0.023399738187300081 0.01112991055048128 0.0072912954463865455 0.020370567139058857 -0.004203751922243623 -0.014536370982960239 0.0085460491811137317 0.014635083071973596 -0.0072457497378639654 0.0078645915651157552 0.00024453987549028704 -0.0033856822463452143 -0.0089489593813119918 0.025165205061499794
leaf_weight=319.06914347410202 278.9581947773695 298.82352277636528 192.66324274241924 234.17490495741367 497.74990175664425 405.12314134836197 53.254784539341927 600.37498313188553 155.84324845671654 72.049782082438469 362.72182562947273 189.42376972734928 50.955393821001053 92.993644669651985 294.10209709405899 72.277168661355972 273.77788466215134 574.26594457030296 115.12248708307743 171.20424462854862 678.74384181201458 167.08468230068684 161.9647288620472 124.07836490869522 376.73329780995846 487.47481894493103 280.12867842614651 73.788799226284027 109.47884158790112
leaf_count=1540 1153 1669 842 1060 2159 1714 225 2504 648 398 1987 896 210 390 1204 347 1126 2362 471 726 3309 726 666 521 1530 2076 1219 321 452
internal_value=-0.000147236 -0.010546 0.0085117 -0.00215663 0.0157152 -0.00164648 0.00126408 0.0130278 0.00464242 -0.0231008 -0.0202682 -0.00759953 0.00966028 0.00715921 0.00105023 -0.00495837 0.00894687 0.00509914 0.00720665 -0.0134746 -0.0163045 -0.00436978 0.00506472 0.00224578 0.00411396 -0.00308154 -0.00821058 0.00317182 0.0151942
internal_weight=7764.41 3527.69 4236.71 2115.35 2478.55 1758.16 1625.08 1980.8 855.068 1412.34 1113.52 903.089 1380.43 1101.47 699.225 793.927 1008.48 625.221 831.154 490.273 750.794 713.665 716.031 554.066 500.812 721.65 472.792 240.873 383.257
internal_count=34451 16525 17926 9162 10356 7570 6896 8197 3566 7363 5694 4004 5693 4540 2918 3483 4150 2572 3413 2266 3707 3108 2942 2276 2051 3136 2061 1047 1578
is_linear=0
shrinkage=0.03


Tree=28
num_leaves=30
num_cat=4
split_feature=18 22 22 22 22 22 26 22 18 26 19 18 21 34 18 22 34 29 29 21 12 33 27 21 27 19 19 26 34
split_gain=944.505 423.842 341.699 92.5273 70.7659 65.1134 45.4395 39.4724 38.9504 38.2698 37.8036 37.0728 36.4935 27.5545 23.287 22.8131 21.2365 21.1934 22.7093 20.4562 18.5798 18.3755 18.3111 17.5732 16.5929 16.3836 16.1454 15.1311 14.7262
threshold=0 -0.0050563924777146376 -0.001740625009264529 0.045186307007140859 -0.060928353738214085 0.070951609037926591 0.62446886984814542 -0.074848124397941015 1 0.89926001708096026 0.38013136288998362 2 -0.1602124571143615 -0.037785908507264744 3 0.092003607367394005 0.04555751019269421 0.22898438501452836 0.21370222136503578 0.060354555842193021 0.043478260869565306 0.091157330292687411 0.26491228070175443 -0.066365322514620281 0.19375000000000003 0.22540322580645164 0.096006144393241177 -0.64774779267837246 0.025180848410261754
decision_type=1 2 2 2 2 2 2 2 1 2 2 1 2 2 1 2 2 2 2 2 2 2 2 2 2 2 2 2 2
left_child=1 6 4 9 12 8 7 -1 17 16 13 20 -2 25 -14 -15 24 18 -4 -19 21 27 -9 -8 -3 -5 -25 -6 -29
right_child=2 3 5 10 11 -7 23 22 -10 -11 -12 -13 14 15 -16 -17 -18 19 -20 -21 -22 -23 -24 26 -26 -27 -28 28 -30
leaf_value=-0.027189091811880658 -0.026755233895733258 -0.012807749487305436 0.016535378195886293 -0.016222282805109938 0.017284289119351544 0.025217060777687844 -0.033635471685804899 -0.019147477507798372 0.0067675952221293552 -0.016909322724370554 0.016365815988674568 -0.0034724389701343513 -0.0013334104039992257 -0.00051442801388572996 -0.01433656761672549 0.010255257289800047 0.014436605374426321 0.018016538467992838 0.00019042026467354004 0.031757820940846004 0.024034439288811674 -0.0070889334511834504 -0.0075609978369714746 -0.032671967570991459 -0.0025094483024341628 0.0019876215563054923 -0.021117309101138289 0.0040718269308653082 0.017890550701668558
leaf_weight=239.14177836477757 73.360425174236298 212.00099547207355 235.76432257890701 109.45846763253212 147.57068854570389 727.40762427449226 277.0696682035923 210.26512087881565 442.89279340207577 334.77336606383324 182.99983072280884 316.88761653006077 497.67525409162045 414.14608764648438 164.17478269338608 308.05028453469276 48.437833115458488 598.77377547323704 113.05721847712994 118.55903409421444 64.174731105566025 71.485801830887794 298.60330146551132 153.44696199893951 417.42163367569447 74.097956657409668 423.31510779261589 421.54237230122089 82.350024685263634
leaf_count=1357 371 934 968 465 599 3196 1599 1038 1780 1606 745 1315 2067 1760 733 1250 207 2464 466 498 261 288 1422 852 1800 302 2270 1705 335
